// Creation date: 28-Mar-2019 20:06:11

#ifndef __TEMPLATE_WEIGHT_MASK__H_
#define __TEMPLATE_WEIGHT_MASK__H_

typedef float float32_t;
typedef unsigned int uint32_t;
namespace mask
{
    // --- The weight mask used in template matching
    const float32_t TemplateWeightMask[150][203] =
    {
        { -0.8984F, -0.8787F, -0.8590F, -0.8393F, -0.8196F, -0.7998F, -0.7801F, -0.7604F, -0.7407F, -0.7210F, -0.7013F, -0.6816F, -0.6619F, -0.6422F, -0.6225F, -0.6028F, -0.5831F, -0.5634F, -0.5437F, -0.5240F, -0.5043F, -0.4846F, -0.4649F, -0.4452F, -0.4255F, -0.4058F, -0.3861F, -0.3664F, -0.3466F, -0.3269F, -0.3072F, -0.2875F, -0.2678F, -0.2481F, -0.2284F, -0.2087F, -0.1890F, -0.1693F, -0.1496F, -0.1299F, -0.1102F, -0.0905F, -0.0708F, -0.0511F, -0.0314F, -0.0117F, 0.0080F, 0.0277F, 0.0474F, 0.0671F, 0.0869F, 0.1066F, 0.1263F, 0.1460F, 0.1657F, 0.1854F, 0.2051F, 0.2248F, 0.2445F, 0.2642F, 0.2839F, 0.3036F, 0.3233F, 0.3430F, 0.3627F, 0.3824F, 0.4021F, 0.4218F, 0.4415F, 0.4612F, 0.4809F, 0.5006F, 0.5203F, 0.5401F, 0.5598F, 0.5795F, 0.5992F, 0.6189F, 0.6386F, 0.6583F, 0.6780F, 0.6977F, 0.7174F, 0.7371F, 0.7568F, 0.7765F, 0.7962F, 0.8159F, 0.8356F, 0.8553F, 0.8750F, 0.8947F, 0.9144F, 0.9341F, 0.9538F, 0.9735F, 0.9933F, 1.0130F, 1.0327F, 1.0524F, 1.0721F, 1.0721F, 1.0524F, 1.0327F, 1.0130F, 0.9933F, 0.9735F, 0.9538F, 0.9341F, 0.9144F, 0.8947F, 0.8750F, 0.8553F, 0.8356F, 0.8159F, 0.7962F, 0.7765F, 0.7568F, 0.7371F, 0.7174F, 0.6977F, 0.6780F, 0.6583F, 0.6386F, 0.6189F, 0.5992F, 0.5795F, 0.5598F, 0.5401F, 0.5203F, 0.5006F, 0.4809F, 0.4612F, 0.4415F, 0.4218F, 0.4021F, 0.3824F, 0.3627F, 0.3430F, 0.3233F, 0.3036F, 0.2839F, 0.2642F, 0.2445F, 0.2248F, 0.2051F, 0.1854F, 0.1657F, 0.1460F, 0.1263F, 0.1066F, 0.0869F, 0.0671F, 0.0474F, 0.0277F, 0.0080F, -0.0117F, -0.0314F, -0.0511F, -0.0708F, -0.0905F, -0.1102F, -0.1299F, -0.1496F, -0.1693F, -0.1890F, -0.2087F, -0.2284F, -0.2481F, -0.2678F, -0.2875F, -0.3072F, -0.3269F, -0.3466F, -0.3664F, -0.3861F, -0.4058F, -0.4255F, -0.4452F, -0.4649F, -0.4846F, -0.5043F, -0.5240F, -0.5437F, -0.5634F, -0.5831F, -0.6028F, -0.6225F, -0.6422F, -0.6619F, -0.6816F, -0.7013F, -0.7210F, -0.7407F, -0.7604F, -0.7801F, -0.7998F, -0.8196F, -0.8393F, -0.8590F, -0.8787F, -0.8984F, -0.9181F },
        { -0.8823F, -0.8626F, -0.8429F, -0.8232F, -0.8035F, -0.7838F, -0.7641F, -0.7444F, -0.7247F, -0.7050F, -0.6853F, -0.6656F, -0.6459F, -0.6261F, -0.6064F, -0.5867F, -0.5670F, -0.5473F, -0.5276F, -0.5079F, -0.4882F, -0.4685F, -0.4488F, -0.4291F, -0.4094F, -0.3897F, -0.3700F, -0.3503F, -0.3306F, -0.3109F, -0.2912F, -0.2715F, -0.2518F, -0.2321F, -0.2124F, -0.1926F, -0.1729F, -0.1532F, -0.1335F, -0.1138F, -0.0941F, -0.0744F, -0.0547F, -0.0350F, -0.0153F, 0.0044F, 0.0241F, 0.0438F, 0.0635F, 0.0832F, 0.1029F, 0.1226F, 0.1423F, 0.1620F, 0.1817F, 0.2014F, 0.2211F, 0.2408F, 0.2606F, 0.2803F, 0.3000F, 0.3197F, 0.3394F, 0.3591F, 0.3788F, 0.3985F, 0.4182F, 0.4379F, 0.4576F, 0.4773F, 0.4970F, 0.5167F, 0.5364F, 0.5561F, 0.5758F, 0.5955F, 0.6152F, 0.6349F, 0.6546F, 0.6743F, 0.6941F, 0.7138F, 0.7335F, 0.7532F, 0.7729F, 0.7926F, 0.8123F, 0.8320F, 0.8517F, 0.8714F, 0.8911F, 0.9108F, 0.9305F, 0.9502F, 0.9699F, 0.9896F, 1.0093F, 1.0290F, 1.0487F, 1.0684F, 1.0881F, 1.0881F, 1.0684F, 1.0487F, 1.0290F, 1.0093F, 0.9896F, 0.9699F, 0.9502F, 0.9305F, 0.9108F, 0.8911F, 0.8714F, 0.8517F, 0.8320F, 0.8123F, 0.7926F, 0.7729F, 0.7532F, 0.7335F, 0.7138F, 0.6941F, 0.6743F, 0.6546F, 0.6349F, 0.6152F, 0.5955F, 0.5758F, 0.5561F, 0.5364F, 0.5167F, 0.4970F, 0.4773F, 0.4576F, 0.4379F, 0.4182F, 0.3985F, 0.3788F, 0.3591F, 0.3394F, 0.3197F, 0.3000F, 0.2803F, 0.2606F, 0.2408F, 0.2211F, 0.2014F, 0.1817F, 0.1620F, 0.1423F, 0.1226F, 0.1029F, 0.0832F, 0.0635F, 0.0438F, 0.0241F, 0.0044F, -0.0153F, -0.0350F, -0.0547F, -0.0744F, -0.0941F, -0.1138F, -0.1335F, -0.1532F, -0.1729F, -0.1926F, -0.2124F, -0.2321F, -0.2518F, -0.2715F, -0.2912F, -0.3109F, -0.3306F, -0.3503F, -0.3700F, -0.3897F, -0.4094F, -0.4291F, -0.4488F, -0.4685F, -0.4882F, -0.5079F, -0.5276F, -0.5473F, -0.5670F, -0.5867F, -0.6064F, -0.6261F, -0.6459F, -0.6656F, -0.6853F, -0.7050F, -0.7247F, -0.7444F, -0.7641F, -0.7838F, -0.8035F, -0.8232F, -0.8429F, -0.8626F, -0.8823F, -0.9020F },
        { -0.8666F, -0.8469F, -0.8272F, -0.8075F, -0.7878F, -0.7681F, -0.7484F, -0.7287F, -0.7090F, -0.6893F, -0.6696F, -0.6499F, -0.6302F, -0.6105F, -0.5908F, -0.5711F, -0.5514F, -0.5317F, -0.5120F, -0.4923F, -0.4725F, -0.4528F, -0.4331F, -0.4134F, -0.3937F, -0.3740F, -0.3543F, -0.3346F, -0.3149F, -0.2952F, -0.2755F, -0.2558F, -0.2361F, -0.2164F, -0.1967F, -0.1770F, -0.1573F, -0.1376F, -0.1179F, -0.0982F, -0.0785F, -0.0588F, -0.0391F, -0.0193F, 0.0004F, 0.0201F, 0.0398F, 0.0595F, 0.0792F, 0.0989F, 0.1186F, 0.1383F, 0.1580F, 0.1777F, 0.1974F, 0.2171F, 0.2368F, 0.2565F, 0.2762F, 0.2959F, 0.3156F, 0.3353F, 0.3550F, 0.3747F, 0.3944F, 0.4142F, 0.4339F, 0.4536F, 0.4733F, 0.4930F, 0.5127F, 0.5324F, 0.5521F, 0.5718F, 0.5915F, 0.6112F, 0.6309F, 0.6506F, 0.6703F, 0.6900F, 0.7097F, 0.7294F, 0.7491F, 0.7688F, 0.7885F, 0.8082F, 0.8279F, 0.8476F, 0.8674F, 0.8871F, 0.9068F, 0.9265F, 0.9462F, 0.9659F, 0.9856F, 1.0053F, 1.0250F, 1.0447F, 1.0644F, 1.0841F, 1.1038F, 1.1038F, 1.0841F, 1.0644F, 1.0447F, 1.0250F, 1.0053F, 0.9856F, 0.9659F, 0.9462F, 0.9265F, 0.9068F, 0.8871F, 0.8674F, 0.8476F, 0.8279F, 0.8082F, 0.7885F, 0.7688F, 0.7491F, 0.7294F, 0.7097F, 0.6900F, 0.6703F, 0.6506F, 0.6309F, 0.6112F, 0.5915F, 0.5718F, 0.5521F, 0.5324F, 0.5127F, 0.4930F, 0.4733F, 0.4536F, 0.4339F, 0.4142F, 0.3944F, 0.3747F, 0.3550F, 0.3353F, 0.3156F, 0.2959F, 0.2762F, 0.2565F, 0.2368F, 0.2171F, 0.1974F, 0.1777F, 0.1580F, 0.1383F, 0.1186F, 0.0989F, 0.0792F, 0.0595F, 0.0398F, 0.0201F, 0.0004F, -0.0193F, -0.0391F, -0.0588F, -0.0785F, -0.0982F, -0.1179F, -0.1376F, -0.1573F, -0.1770F, -0.1967F, -0.2164F, -0.2361F, -0.2558F, -0.2755F, -0.2952F, -0.3149F, -0.3346F, -0.3543F, -0.3740F, -0.3937F, -0.4134F, -0.4331F, -0.4528F, -0.4725F, -0.4923F, -0.5120F, -0.5317F, -0.5514F, -0.5711F, -0.5908F, -0.6105F, -0.6302F, -0.6499F, -0.6696F, -0.6893F, -0.7090F, -0.7287F, -0.7484F, -0.7681F, -0.7878F, -0.8075F, -0.8272F, -0.8469F, -0.8666F, -0.8863F },
        { -0.8514F, -0.8317F, -0.8120F, -0.7923F, -0.7726F, -0.7528F, -0.7331F, -0.7134F, -0.6937F, -0.6740F, -0.6543F, -0.6346F, -0.6149F, -0.5952F, -0.5755F, -0.5558F, -0.5361F, -0.5164F, -0.4967F, -0.4770F, -0.4573F, -0.4376F, -0.4179F, -0.3982F, -0.3785F, -0.3588F, -0.3391F, -0.3194F, -0.2996F, -0.2799F, -0.2602F, -0.2405F, -0.2208F, -0.2011F, -0.1814F, -0.1617F, -0.1420F, -0.1223F, -0.1026F, -0.0829F, -0.0632F, -0.0435F, -0.0238F, -0.0041F, 0.0156F, 0.0353F, 0.0550F, 0.0747F, 0.0944F, 0.1141F, 0.1339F, 0.1536F, 0.1733F, 0.1930F, 0.2127F, 0.2324F, 0.2521F, 0.2718F, 0.2915F, 0.3112F, 0.3309F, 0.3506F, 0.3703F, 0.3900F, 0.4097F, 0.4294F, 0.4491F, 0.4688F, 0.4885F, 0.5082F, 0.5279F, 0.5476F, 0.5673F, 0.5871F, 0.6068F, 0.6265F, 0.6462F, 0.6659F, 0.6856F, 0.7053F, 0.7250F, 0.7447F, 0.7644F, 0.7841F, 0.8038F, 0.8235F, 0.8432F, 0.8629F, 0.8826F, 0.9023F, 0.9220F, 0.9417F, 0.9614F, 0.9811F, 1.0008F, 1.0205F, 1.0403F, 1.0600F, 1.0797F, 1.0994F, 1.1191F, 1.1191F, 1.0994F, 1.0797F, 1.0600F, 1.0403F, 1.0205F, 1.0008F, 0.9811F, 0.9614F, 0.9417F, 0.9220F, 0.9023F, 0.8826F, 0.8629F, 0.8432F, 0.8235F, 0.8038F, 0.7841F, 0.7644F, 0.7447F, 0.7250F, 0.7053F, 0.6856F, 0.6659F, 0.6462F, 0.6265F, 0.6068F, 0.5871F, 0.5673F, 0.5476F, 0.5279F, 0.5082F, 0.4885F, 0.4688F, 0.4491F, 0.4294F, 0.4097F, 0.3900F, 0.3703F, 0.3506F, 0.3309F, 0.3112F, 0.2915F, 0.2718F, 0.2521F, 0.2324F, 0.2127F, 0.1930F, 0.1733F, 0.1536F, 0.1339F, 0.1141F, 0.0944F, 0.0747F, 0.0550F, 0.0353F, 0.0156F, -0.0041F, -0.0238F, -0.0435F, -0.0632F, -0.0829F, -0.1026F, -0.1223F, -0.1420F, -0.1617F, -0.1814F, -0.2011F, -0.2208F, -0.2405F, -0.2602F, -0.2799F, -0.2996F, -0.3194F, -0.3391F, -0.3588F, -0.3785F, -0.3982F, -0.4179F, -0.4376F, -0.4573F, -0.4770F, -0.4967F, -0.5164F, -0.5361F, -0.5558F, -0.5755F, -0.5952F, -0.6149F, -0.6346F, -0.6543F, -0.6740F, -0.6937F, -0.7134F, -0.7331F, -0.7528F, -0.7726F, -0.7923F, -0.8120F, -0.8317F, -0.8514F, -0.8711F },
        { -0.8365F, -0.8168F, -0.7971F, -0.7774F, -0.7577F, -0.7380F, -0.7183F, -0.6986F, -0.6789F, -0.6592F, -0.6395F, -0.6198F, -0.6001F, -0.5803F, -0.5606F, -0.5409F, -0.5212F, -0.5015F, -0.4818F, -0.4621F, -0.4424F, -0.4227F, -0.4030F, -0.3833F, -0.3636F, -0.3439F, -0.3242F, -0.3045F, -0.2848F, -0.2651F, -0.2454F, -0.2257F, -0.2060F, -0.1863F, -0.1666F, -0.1468F, -0.1271F, -0.1074F, -0.0877F, -0.0680F, -0.0483F, -0.0286F, -0.0089F, 0.0108F, 0.0305F, 0.0502F, 0.0699F, 0.0896F, 0.1093F, 0.1290F, 0.1487F, 0.1684F, 0.1881F, 0.2078F, 0.2275F, 0.2472F, 0.2669F, 0.2866F, 0.3064F, 0.3261F, 0.3458F, 0.3655F, 0.3852F, 0.4049F, 0.4246F, 0.4443F, 0.4640F, 0.4837F, 0.5034F, 0.5231F, 0.5428F, 0.5625F, 0.5822F, 0.6019F, 0.6216F, 0.6413F, 0.6610F, 0.6807F, 0.7004F, 0.7201F, 0.7399F, 0.7596F, 0.7793F, 0.7990F, 0.8187F, 0.8384F, 0.8581F, 0.8778F, 0.8975F, 0.9172F, 0.9369F, 0.9566F, 0.9763F, 0.9960F, 1.0157F, 1.0354F, 1.0551F, 1.0748F, 1.0945F, 1.1142F, 1.1339F, 1.1339F, 1.1142F, 1.0945F, 1.0748F, 1.0551F, 1.0354F, 1.0157F, 0.9960F, 0.9763F, 0.9566F, 0.9369F, 0.9172F, 0.8975F, 0.8778F, 0.8581F, 0.8384F, 0.8187F, 0.7990F, 0.7793F, 0.7596F, 0.7399F, 0.7201F, 0.7004F, 0.6807F, 0.6610F, 0.6413F, 0.6216F, 0.6019F, 0.5822F, 0.5625F, 0.5428F, 0.5231F, 0.5034F, 0.4837F, 0.4640F, 0.4443F, 0.4246F, 0.4049F, 0.3852F, 0.3655F, 0.3458F, 0.3261F, 0.3064F, 0.2866F, 0.2669F, 0.2472F, 0.2275F, 0.2078F, 0.1881F, 0.1684F, 0.1487F, 0.1290F, 0.1093F, 0.0896F, 0.0699F, 0.0502F, 0.0305F, 0.0108F, -0.0089F, -0.0286F, -0.0483F, -0.0680F, -0.0877F, -0.1074F, -0.1271F, -0.1468F, -0.1666F, -0.1863F, -0.2060F, -0.2257F, -0.2454F, -0.2651F, -0.2848F, -0.3045F, -0.3242F, -0.3439F, -0.3636F, -0.3833F, -0.4030F, -0.4227F, -0.4424F, -0.4621F, -0.4818F, -0.5015F, -0.5212F, -0.5409F, -0.5606F, -0.5803F, -0.6001F, -0.6198F, -0.6395F, -0.6592F, -0.6789F, -0.6986F, -0.7183F, -0.7380F, -0.7577F, -0.7774F, -0.7971F, -0.8168F, -0.8365F, -0.8562F },
        { -0.8220F, -0.8023F, -0.7826F, -0.7629F, -0.7432F, -0.7235F, -0.7038F, -0.6841F, -0.6644F, -0.6447F, -0.6250F, -0.6053F, -0.5856F, -0.5659F, -0.5462F, -0.5265F, -0.5068F, -0.4871F, -0.4674F, -0.4477F, -0.4279F, -0.4082F, -0.3885F, -0.3688F, -0.3491F, -0.3294F, -0.3097F, -0.2900F, -0.2703F, -0.2506F, -0.2309F, -0.2112F, -0.1915F, -0.1718F, -0.1521F, -0.1324F, -0.1127F, -0.0930F, -0.0733F, -0.0536F, -0.0339F, -0.0142F, 0.0055F, 0.0253F, 0.0450F, 0.0647F, 0.0844F, 0.1041F, 0.1238F, 0.1435F, 0.1632F, 0.1829F, 0.2026F, 0.2223F, 0.2420F, 0.2617F, 0.2814F, 0.3011F, 0.3208F, 0.3405F, 0.3602F, 0.3799F, 0.3996F, 0.4193F, 0.4390F, 0.4588F, 0.4785F, 0.4982F, 0.5179F, 0.5376F, 0.5573F, 0.5770F, 0.5967F, 0.6164F, 0.6361F, 0.6558F, 0.6755F, 0.6952F, 0.7149F, 0.7346F, 0.7543F, 0.7740F, 0.7937F, 0.8134F, 0.8331F, 0.8528F, 0.8725F, 0.8922F, 0.9120F, 0.9317F, 0.9514F, 0.9711F, 0.9908F, 1.0105F, 1.0302F, 1.0499F, 1.0696F, 1.0893F, 1.1090F, 1.1287F, 1.1484F, 1.1484F, 1.1287F, 1.1090F, 1.0893F, 1.0696F, 1.0499F, 1.0302F, 1.0105F, 0.9908F, 0.9711F, 0.9514F, 0.9317F, 0.9120F, 0.8922F, 0.8725F, 0.8528F, 0.8331F, 0.8134F, 0.7937F, 0.7740F, 0.7543F, 0.7346F, 0.7149F, 0.6952F, 0.6755F, 0.6558F, 0.6361F, 0.6164F, 0.5967F, 0.5770F, 0.5573F, 0.5376F, 0.5179F, 0.4982F, 0.4785F, 0.4588F, 0.4390F, 0.4193F, 0.3996F, 0.3799F, 0.3602F, 0.3405F, 0.3208F, 0.3011F, 0.2814F, 0.2617F, 0.2420F, 0.2223F, 0.2026F, 0.1829F, 0.1632F, 0.1435F, 0.1238F, 0.1041F, 0.0844F, 0.0647F, 0.0450F, 0.0253F, 0.0055F, -0.0142F, -0.0339F, -0.0536F, -0.0733F, -0.0930F, -0.1127F, -0.1324F, -0.1521F, -0.1718F, -0.1915F, -0.2112F, -0.2309F, -0.2506F, -0.2703F, -0.2900F, -0.3097F, -0.3294F, -0.3491F, -0.3688F, -0.3885F, -0.4082F, -0.4279F, -0.4477F, -0.4674F, -0.4871F, -0.5068F, -0.5265F, -0.5462F, -0.5659F, -0.5856F, -0.6053F, -0.6250F, -0.6447F, -0.6644F, -0.6841F, -0.7038F, -0.7235F, -0.7432F, -0.7629F, -0.7826F, -0.8023F, -0.8220F, -0.8417F },
        { -0.8080F, -0.7883F, -0.7686F, -0.7489F, -0.7292F, -0.7094F, -0.6897F, -0.6700F, -0.6503F, -0.6306F, -0.6109F, -0.5912F, -0.5715F, -0.5518F, -0.5321F, -0.5124F, -0.4927F, -0.4730F, -0.4533F, -0.4336F, -0.4139F, -0.3942F, -0.3745F, -0.3548F, -0.3351F, -0.3154F, -0.2957F, -0.2760F, -0.2562F, -0.2365F, -0.2168F, -0.1971F, -0.1774F, -0.1577F, -0.1380F, -0.1183F, -0.0986F, -0.0789F, -0.0592F, -0.0395F, -0.0198F, -0.0001F, 0.0196F, 0.0393F, 0.0590F, 0.0787F, 0.0984F, 0.1181F, 0.1378F, 0.1575F, 0.1773F, 0.1970F, 0.2167F, 0.2364F, 0.2561F, 0.2758F, 0.2955F, 0.3152F, 0.3349F, 0.3546F, 0.3743F, 0.3940F, 0.4137F, 0.4334F, 0.4531F, 0.4728F, 0.4925F, 0.5122F, 0.5319F, 0.5516F, 0.5713F, 0.5910F, 0.6107F, 0.6305F, 0.6502F, 0.6699F, 0.6896F, 0.7093F, 0.7290F, 0.7487F, 0.7684F, 0.7881F, 0.8078F, 0.8275F, 0.8472F, 0.8669F, 0.8866F, 0.9063F, 0.9260F, 0.9457F, 0.9654F, 0.9851F, 1.0048F, 1.0245F, 1.0442F, 1.0639F, 1.0837F, 1.1034F, 1.1231F, 1.1428F, 1.1625F, 1.1625F, 1.1428F, 1.1231F, 1.1034F, 1.0837F, 1.0639F, 1.0442F, 1.0245F, 1.0048F, 0.9851F, 0.9654F, 0.9457F, 0.9260F, 0.9063F, 0.8866F, 0.8669F, 0.8472F, 0.8275F, 0.8078F, 0.7881F, 0.7684F, 0.7487F, 0.7290F, 0.7093F, 0.6896F, 0.6699F, 0.6502F, 0.6305F, 0.6107F, 0.5910F, 0.5713F, 0.5516F, 0.5319F, 0.5122F, 0.4925F, 0.4728F, 0.4531F, 0.4334F, 0.4137F, 0.3940F, 0.3743F, 0.3546F, 0.3349F, 0.3152F, 0.2955F, 0.2758F, 0.2561F, 0.2364F, 0.2167F, 0.1970F, 0.1773F, 0.1575F, 0.1378F, 0.1181F, 0.0984F, 0.0787F, 0.0590F, 0.0393F, 0.0196F, -0.0001F, -0.0198F, -0.0395F, -0.0592F, -0.0789F, -0.0986F, -0.1183F, -0.1380F, -0.1577F, -0.1774F, -0.1971F, -0.2168F, -0.2365F, -0.2562F, -0.2760F, -0.2957F, -0.3154F, -0.3351F, -0.3548F, -0.3745F, -0.3942F, -0.4139F, -0.4336F, -0.4533F, -0.4730F, -0.4927F, -0.5124F, -0.5321F, -0.5518F, -0.5715F, -0.5912F, -0.6109F, -0.6306F, -0.6503F, -0.6700F, -0.6897F, -0.7094F, -0.7292F, -0.7489F, -0.7686F, -0.7883F, -0.8080F, -0.8277F },
        { -0.7943F, -0.7746F, -0.7549F, -0.7352F, -0.7155F, -0.6958F, -0.6761F, -0.6564F, -0.6367F, -0.6170F, -0.5973F, -0.5776F, -0.5579F, -0.5381F, -0.5184F, -0.4987F, -0.4790F, -0.4593F, -0.4396F, -0.4199F, -0.4002F, -0.3805F, -0.3608F, -0.3411F, -0.3214F, -0.3017F, -0.2820F, -0.2623F, -0.2426F, -0.2229F, -0.2032F, -0.1835F, -0.1638F, -0.1441F, -0.1244F, -0.1046F, -0.0849F, -0.0652F, -0.0455F, -0.0258F, -0.0061F, 0.0136F, 0.0333F, 0.0530F, 0.0727F, 0.0924F, 0.1121F, 0.1318F, 0.1515F, 0.1712F, 0.1909F, 0.2106F, 0.2303F, 0.2500F, 0.2697F, 0.2894F, 0.3091F, 0.3288F, 0.3486F, 0.3683F, 0.3880F, 0.4077F, 0.4274F, 0.4471F, 0.4668F, 0.4865F, 0.5062F, 0.5259F, 0.5456F, 0.5653F, 0.5850F, 0.6047F, 0.6244F, 0.6441F, 0.6638F, 0.6835F, 0.7032F, 0.7229F, 0.7426F, 0.7623F, 0.7821F, 0.8018F, 0.8215F, 0.8412F, 0.8609F, 0.8806F, 0.9003F, 0.9200F, 0.9397F, 0.9594F, 0.9791F, 0.9988F, 1.0185F, 1.0382F, 1.0579F, 1.0776F, 1.0973F, 1.1170F, 1.1367F, 1.1564F, 1.1761F, 1.1761F, 1.1564F, 1.1367F, 1.1170F, 1.0973F, 1.0776F, 1.0579F, 1.0382F, 1.0185F, 0.9988F, 0.9791F, 0.9594F, 0.9397F, 0.9200F, 0.9003F, 0.8806F, 0.8609F, 0.8412F, 0.8215F, 0.8018F, 0.7821F, 0.7623F, 0.7426F, 0.7229F, 0.7032F, 0.6835F, 0.6638F, 0.6441F, 0.6244F, 0.6047F, 0.5850F, 0.5653F, 0.5456F, 0.5259F, 0.5062F, 0.4865F, 0.4668F, 0.4471F, 0.4274F, 0.4077F, 0.3880F, 0.3683F, 0.3486F, 0.3288F, 0.3091F, 0.2894F, 0.2697F, 0.2500F, 0.2303F, 0.2106F, 0.1909F, 0.1712F, 0.1515F, 0.1318F, 0.1121F, 0.0924F, 0.0727F, 0.0530F, 0.0333F, 0.0136F, -0.0061F, -0.0258F, -0.0455F, -0.0652F, -0.0849F, -0.1046F, -0.1244F, -0.1441F, -0.1638F, -0.1835F, -0.2032F, -0.2229F, -0.2426F, -0.2623F, -0.2820F, -0.3017F, -0.3214F, -0.3411F, -0.3608F, -0.3805F, -0.4002F, -0.4199F, -0.4396F, -0.4593F, -0.4790F, -0.4987F, -0.5184F, -0.5381F, -0.5579F, -0.5776F, -0.5973F, -0.6170F, -0.6367F, -0.6564F, -0.6761F, -0.6958F, -0.7155F, -0.7352F, -0.7549F, -0.7746F, -0.7943F, -0.8140F },
        { -0.7810F, -0.7613F, -0.7416F, -0.7219F, -0.7022F, -0.6825F, -0.6628F, -0.6431F, -0.6234F, -0.6037F, -0.5840F, -0.5643F, -0.5446F, -0.5249F, -0.5052F, -0.4855F, -0.4658F, -0.4461F, -0.4264F, -0.4067F, -0.3869F, -0.3672F, -0.3475F, -0.3278F, -0.3081F, -0.2884F, -0.2687F, -0.2490F, -0.2293F, -0.2096F, -0.1899F, -0.1702F, -0.1505F, -0.1308F, -0.1111F, -0.0914F, -0.0717F, -0.0520F, -0.0323F, -0.0126F, 0.0071F, 0.0268F, 0.0465F, 0.0663F, 0.0860F, 0.1057F, 0.1254F, 0.1451F, 0.1648F, 0.1845F, 0.2042F, 0.2239F, 0.2436F, 0.2633F, 0.2830F, 0.3027F, 0.3224F, 0.3421F, 0.3618F, 0.3815F, 0.4012F, 0.4209F, 0.4406F, 0.4603F, 0.4800F, 0.4998F, 0.5195F, 0.5392F, 0.5589F, 0.5786F, 0.5983F, 0.6180F, 0.6377F, 0.6574F, 0.6771F, 0.6968F, 0.7165F, 0.7362F, 0.7559F, 0.7756F, 0.7953F, 0.8150F, 0.8347F, 0.8544F, 0.8741F, 0.8938F, 0.9135F, 0.9332F, 0.9530F, 0.9727F, 0.9924F, 1.0121F, 1.0318F, 1.0515F, 1.0712F, 1.0909F, 1.1106F, 1.1303F, 1.1500F, 1.1697F, 1.1894F, 1.1894F, 1.1697F, 1.1500F, 1.1303F, 1.1106F, 1.0909F, 1.0712F, 1.0515F, 1.0318F, 1.0121F, 0.9924F, 0.9727F, 0.9530F, 0.9332F, 0.9135F, 0.8938F, 0.8741F, 0.8544F, 0.8347F, 0.8150F, 0.7953F, 0.7756F, 0.7559F, 0.7362F, 0.7165F, 0.6968F, 0.6771F, 0.6574F, 0.6377F, 0.6180F, 0.5983F, 0.5786F, 0.5589F, 0.5392F, 0.5195F, 0.4998F, 0.4800F, 0.4603F, 0.4406F, 0.4209F, 0.4012F, 0.3815F, 0.3618F, 0.3421F, 0.3224F, 0.3027F, 0.2830F, 0.2633F, 0.2436F, 0.2239F, 0.2042F, 0.1845F, 0.1648F, 0.1451F, 0.1254F, 0.1057F, 0.0860F, 0.0663F, 0.0465F, 0.0268F, 0.0071F, -0.0126F, -0.0323F, -0.0520F, -0.0717F, -0.0914F, -0.1111F, -0.1308F, -0.1505F, -0.1702F, -0.1899F, -0.2096F, -0.2293F, -0.2490F, -0.2687F, -0.2884F, -0.3081F, -0.3278F, -0.3475F, -0.3672F, -0.3869F, -0.4067F, -0.4264F, -0.4461F, -0.4658F, -0.4855F, -0.5052F, -0.5249F, -0.5446F, -0.5643F, -0.5840F, -0.6037F, -0.6234F, -0.6431F, -0.6628F, -0.6825F, -0.7022F, -0.7219F, -0.7416F, -0.7613F, -0.7810F, -0.8007F },
        { -0.7682F, -0.7485F, -0.7288F, -0.7091F, -0.6894F, -0.6696F, -0.6499F, -0.6302F, -0.6105F, -0.5908F, -0.5711F, -0.5514F, -0.5317F, -0.5120F, -0.4923F, -0.4726F, -0.4529F, -0.4332F, -0.4135F, -0.3938F, -0.3741F, -0.3544F, -0.3347F, -0.3150F, -0.2953F, -0.2756F, -0.2559F, -0.2362F, -0.2164F, -0.1967F, -0.1770F, -0.1573F, -0.1376F, -0.1179F, -0.0982F, -0.0785F, -0.0588F, -0.0391F, -0.0194F, 0.0003F, 0.0200F, 0.0397F, 0.0594F, 0.0791F, 0.0988F, 0.1185F, 0.1382F, 0.1579F, 0.1776F, 0.1973F, 0.2171F, 0.2368F, 0.2565F, 0.2762F, 0.2959F, 0.3156F, 0.3353F, 0.3550F, 0.3747F, 0.3944F, 0.4141F, 0.4338F, 0.4535F, 0.4732F, 0.4929F, 0.5126F, 0.5323F, 0.5520F, 0.5717F, 0.5914F, 0.6111F, 0.6308F, 0.6505F, 0.6703F, 0.6900F, 0.7097F, 0.7294F, 0.7491F, 0.7688F, 0.7885F, 0.8082F, 0.8279F, 0.8476F, 0.8673F, 0.8870F, 0.9067F, 0.9264F, 0.9461F, 0.9658F, 0.9855F, 1.0052F, 1.0249F, 1.0446F, 1.0643F, 1.0840F, 1.1037F, 1.1235F, 1.1432F, 1.1629F, 1.1826F, 1.2023F, 1.2023F, 1.1826F, 1.1629F, 1.1432F, 1.1235F, 1.1037F, 1.0840F, 1.0643F, 1.0446F, 1.0249F, 1.0052F, 0.9855F, 0.9658F, 0.9461F, 0.9264F, 0.9067F, 0.8870F, 0.8673F, 0.8476F, 0.8279F, 0.8082F, 0.7885F, 0.7688F, 0.7491F, 0.7294F, 0.7097F, 0.6900F, 0.6703F, 0.6505F, 0.6308F, 0.6111F, 0.5914F, 0.5717F, 0.5520F, 0.5323F, 0.5126F, 0.4929F, 0.4732F, 0.4535F, 0.4338F, 0.4141F, 0.3944F, 0.3747F, 0.3550F, 0.3353F, 0.3156F, 0.2959F, 0.2762F, 0.2565F, 0.2368F, 0.2171F, 0.1973F, 0.1776F, 0.1579F, 0.1382F, 0.1185F, 0.0988F, 0.0791F, 0.0594F, 0.0397F, 0.0200F, 0.0003F, -0.0194F, -0.0391F, -0.0588F, -0.0785F, -0.0982F, -0.1179F, -0.1376F, -0.1573F, -0.1770F, -0.1967F, -0.2164F, -0.2362F, -0.2559F, -0.2756F, -0.2953F, -0.3150F, -0.3347F, -0.3544F, -0.3741F, -0.3938F, -0.4135F, -0.4332F, -0.4529F, -0.4726F, -0.4923F, -0.5120F, -0.5317F, -0.5514F, -0.5711F, -0.5908F, -0.6105F, -0.6302F, -0.6499F, -0.6696F, -0.6894F, -0.7091F, -0.7288F, -0.7485F, -0.7682F, -0.7879F },
        { -0.7557F, -0.7360F, -0.7163F, -0.6966F, -0.6769F, -0.6572F, -0.6375F, -0.6178F, -0.5981F, -0.5784F, -0.5587F, -0.5390F, -0.5193F, -0.4995F, -0.4798F, -0.4601F, -0.4404F, -0.4207F, -0.4010F, -0.3813F, -0.3616F, -0.3419F, -0.3222F, -0.3025F, -0.2828F, -0.2631F, -0.2434F, -0.2237F, -0.2040F, -0.1843F, -0.1646F, -0.1449F, -0.1252F, -0.1055F, -0.0858F, -0.0660F, -0.0463F, -0.0266F, -0.0069F, 0.0128F, 0.0325F, 0.0522F, 0.0719F, 0.0916F, 0.1113F, 0.1310F, 0.1507F, 0.1704F, 0.1901F, 0.2098F, 0.2295F, 0.2492F, 0.2689F, 0.2886F, 0.3083F, 0.3280F, 0.3477F, 0.3674F, 0.3872F, 0.4069F, 0.4266F, 0.4463F, 0.4660F, 0.4857F, 0.5054F, 0.5251F, 0.5448F, 0.5645F, 0.5842F, 0.6039F, 0.6236F, 0.6433F, 0.6630F, 0.6827F, 0.7024F, 0.7221F, 0.7418F, 0.7615F, 0.7812F, 0.8009F, 0.8207F, 0.8404F, 0.8601F, 0.8798F, 0.8995F, 0.9192F, 0.9389F, 0.9586F, 0.9783F, 0.9980F, 1.0177F, 1.0374F, 1.0571F, 1.0768F, 1.0965F, 1.1162F, 1.1359F, 1.1556F, 1.1753F, 1.1950F, 1.2147F, 1.2147F, 1.1950F, 1.1753F, 1.1556F, 1.1359F, 1.1162F, 1.0965F, 1.0768F, 1.0571F, 1.0374F, 1.0177F, 0.9980F, 0.9783F, 0.9586F, 0.9389F, 0.9192F, 0.8995F, 0.8798F, 0.8601F, 0.8404F, 0.8207F, 0.8009F, 0.7812F, 0.7615F, 0.7418F, 0.7221F, 0.7024F, 0.6827F, 0.6630F, 0.6433F, 0.6236F, 0.6039F, 0.5842F, 0.5645F, 0.5448F, 0.5251F, 0.5054F, 0.4857F, 0.4660F, 0.4463F, 0.4266F, 0.4069F, 0.3872F, 0.3674F, 0.3477F, 0.3280F, 0.3083F, 0.2886F, 0.2689F, 0.2492F, 0.2295F, 0.2098F, 0.1901F, 0.1704F, 0.1507F, 0.1310F, 0.1113F, 0.0916F, 0.0719F, 0.0522F, 0.0325F, 0.0128F, -0.0069F, -0.0266F, -0.0463F, -0.0660F, -0.0858F, -0.1055F, -0.1252F, -0.1449F, -0.1646F, -0.1843F, -0.2040F, -0.2237F, -0.2434F, -0.2631F, -0.2828F, -0.3025F, -0.3222F, -0.3419F, -0.3616F, -0.3813F, -0.4010F, -0.4207F, -0.4404F, -0.4601F, -0.4798F, -0.4995F, -0.5193F, -0.5390F, -0.5587F, -0.5784F, -0.5981F, -0.6178F, -0.6375F, -0.6572F, -0.6769F, -0.6966F, -0.7163F, -0.7360F, -0.7557F, -0.7754F },
        { -0.7436F, -0.7239F, -0.7042F, -0.6845F, -0.6648F, -0.6451F, -0.6254F, -0.6057F, -0.5860F, -0.5663F, -0.5466F, -0.5269F, -0.5072F, -0.4875F, -0.4678F, -0.4481F, -0.4284F, -0.4087F, -0.3890F, -0.3693F, -0.3495F, -0.3298F, -0.3101F, -0.2904F, -0.2707F, -0.2510F, -0.2313F, -0.2116F, -0.1919F, -0.1722F, -0.1525F, -0.1328F, -0.1131F, -0.0934F, -0.0737F, -0.0540F, -0.0343F, -0.0146F, 0.0051F, 0.0248F, 0.0445F, 0.0642F, 0.0839F, 0.1037F, 0.1234F, 0.1431F, 0.1628F, 0.1825F, 0.2022F, 0.2219F, 0.2416F, 0.2613F, 0.2810F, 0.3007F, 0.3204F, 0.3401F, 0.3598F, 0.3795F, 0.3992F, 0.4189F, 0.4386F, 0.4583F, 0.4780F, 0.4977F, 0.5174F, 0.5372F, 0.5569F, 0.5766F, 0.5963F, 0.6160F, 0.6357F, 0.6554F, 0.6751F, 0.6948F, 0.7145F, 0.7342F, 0.7539F, 0.7736F, 0.7933F, 0.8130F, 0.8327F, 0.8524F, 0.8721F, 0.8918F, 0.9115F, 0.9312F, 0.9509F, 0.9706F, 0.9904F, 1.0101F, 1.0298F, 1.0495F, 1.0692F, 1.0889F, 1.1086F, 1.1283F, 1.1480F, 1.1677F, 1.1874F, 1.2071F, 1.2268F, 1.2268F, 1.2071F, 1.1874F, 1.1677F, 1.1480F, 1.1283F, 1.1086F, 1.0889F, 1.0692F, 1.0495F, 1.0298F, 1.0101F, 0.9904F, 0.9706F, 0.9509F, 0.9312F, 0.9115F, 0.8918F, 0.8721F, 0.8524F, 0.8327F, 0.8130F, 0.7933F, 0.7736F, 0.7539F, 0.7342F, 0.7145F, 0.6948F, 0.6751F, 0.6554F, 0.6357F, 0.6160F, 0.5963F, 0.5766F, 0.5569F, 0.5372F, 0.5174F, 0.4977F, 0.4780F, 0.4583F, 0.4386F, 0.4189F, 0.3992F, 0.3795F, 0.3598F, 0.3401F, 0.3204F, 0.3007F, 0.2810F, 0.2613F, 0.2416F, 0.2219F, 0.2022F, 0.1825F, 0.1628F, 0.1431F, 0.1234F, 0.1037F, 0.0839F, 0.0642F, 0.0445F, 0.0248F, 0.0051F, -0.0146F, -0.0343F, -0.0540F, -0.0737F, -0.0934F, -0.1131F, -0.1328F, -0.1525F, -0.1722F, -0.1919F, -0.2116F, -0.2313F, -0.2510F, -0.2707F, -0.2904F, -0.3101F, -0.3298F, -0.3495F, -0.3693F, -0.3890F, -0.4087F, -0.4284F, -0.4481F, -0.4678F, -0.4875F, -0.5072F, -0.5269F, -0.5466F, -0.5663F, -0.5860F, -0.6057F, -0.6254F, -0.6451F, -0.6648F, -0.6845F, -0.7042F, -0.7239F, -0.7436F, -0.7633F },
        { -0.7320F, -0.7123F, -0.6926F, -0.6729F, -0.6532F, -0.6334F, -0.6137F, -0.5940F, -0.5743F, -0.5546F, -0.5349F, -0.5152F, -0.4955F, -0.4758F, -0.4561F, -0.4364F, -0.4167F, -0.3970F, -0.3773F, -0.3576F, -0.3379F, -0.3182F, -0.2985F, -0.2788F, -0.2591F, -0.2394F, -0.2197F, -0.2000F, -0.1802F, -0.1605F, -0.1408F, -0.1211F, -0.1014F, -0.0817F, -0.0620F, -0.0423F, -0.0226F, -0.0029F, 0.0168F, 0.0365F, 0.0562F, 0.0759F, 0.0956F, 0.1153F, 0.1350F, 0.1547F, 0.1744F, 0.1941F, 0.2138F, 0.2335F, 0.2533F, 0.2730F, 0.2927F, 0.3124F, 0.3321F, 0.3518F, 0.3715F, 0.3912F, 0.4109F, 0.4306F, 0.4503F, 0.4700F, 0.4897F, 0.5094F, 0.5291F, 0.5488F, 0.5685F, 0.5882F, 0.6079F, 0.6276F, 0.6473F, 0.6670F, 0.6867F, 0.7065F, 0.7262F, 0.7459F, 0.7656F, 0.7853F, 0.8050F, 0.8247F, 0.8444F, 0.8641F, 0.8838F, 0.9035F, 0.9232F, 0.9429F, 0.9626F, 0.9823F, 1.0020F, 1.0217F, 1.0414F, 1.0611F, 1.0808F, 1.1005F, 1.1202F, 1.1399F, 1.1597F, 1.1794F, 1.1991F, 1.2188F, 1.2385F, 1.2385F, 1.2188F, 1.1991F, 1.1794F, 1.1597F, 1.1399F, 1.1202F, 1.1005F, 1.0808F, 1.0611F, 1.0414F, 1.0217F, 1.0020F, 0.9823F, 0.9626F, 0.9429F, 0.9232F, 0.9035F, 0.8838F, 0.8641F, 0.8444F, 0.8247F, 0.8050F, 0.7853F, 0.7656F, 0.7459F, 0.7262F, 0.7065F, 0.6867F, 0.6670F, 0.6473F, 0.6276F, 0.6079F, 0.5882F, 0.5685F, 0.5488F, 0.5291F, 0.5094F, 0.4897F, 0.4700F, 0.4503F, 0.4306F, 0.4109F, 0.3912F, 0.3715F, 0.3518F, 0.3321F, 0.3124F, 0.2927F, 0.2730F, 0.2533F, 0.2335F, 0.2138F, 0.1941F, 0.1744F, 0.1547F, 0.1350F, 0.1153F, 0.0956F, 0.0759F, 0.0562F, 0.0365F, 0.0168F, -0.0029F, -0.0226F, -0.0423F, -0.0620F, -0.0817F, -0.1014F, -0.1211F, -0.1408F, -0.1605F, -0.1802F, -0.2000F, -0.2197F, -0.2394F, -0.2591F, -0.2788F, -0.2985F, -0.3182F, -0.3379F, -0.3576F, -0.3773F, -0.3970F, -0.4167F, -0.4364F, -0.4561F, -0.4758F, -0.4955F, -0.5152F, -0.5349F, -0.5546F, -0.5743F, -0.5940F, -0.6137F, -0.6334F, -0.6532F, -0.6729F, -0.6926F, -0.7123F, -0.7320F, -0.7517F },
        { -0.7207F, -0.7010F, -0.6813F, -0.6616F, -0.6419F, -0.6222F, -0.6025F, -0.5828F, -0.5631F, -0.5434F, -0.5237F, -0.5040F, -0.4843F, -0.4645F, -0.4448F, -0.4251F, -0.4054F, -0.3857F, -0.3660F, -0.3463F, -0.3266F, -0.3069F, -0.2872F, -0.2675F, -0.2478F, -0.2281F, -0.2084F, -0.1887F, -0.1690F, -0.1493F, -0.1296F, -0.1099F, -0.0902F, -0.0705F, -0.0508F, -0.0310F, -0.0113F, 0.0084F, 0.0281F, 0.0478F, 0.0675F, 0.0872F, 0.1069F, 0.1266F, 0.1463F, 0.1660F, 0.1857F, 0.2054F, 0.2251F, 0.2448F, 0.2645F, 0.2842F, 0.3039F, 0.3236F, 0.3433F, 0.3630F, 0.3827F, 0.4024F, 0.4222F, 0.4419F, 0.4616F, 0.4813F, 0.5010F, 0.5207F, 0.5404F, 0.5601F, 0.5798F, 0.5995F, 0.6192F, 0.6389F, 0.6586F, 0.6783F, 0.6980F, 0.7177F, 0.7374F, 0.7571F, 0.7768F, 0.7965F, 0.8162F, 0.8359F, 0.8557F, 0.8754F, 0.8951F, 0.9148F, 0.9345F, 0.9542F, 0.9739F, 0.9936F, 1.0133F, 1.0330F, 1.0527F, 1.0724F, 1.0921F, 1.1118F, 1.1315F, 1.1512F, 1.1709F, 1.1906F, 1.2103F, 1.2300F, 1.2497F, 1.2497F, 1.2300F, 1.2103F, 1.1906F, 1.1709F, 1.1512F, 1.1315F, 1.1118F, 1.0921F, 1.0724F, 1.0527F, 1.0330F, 1.0133F, 0.9936F, 0.9739F, 0.9542F, 0.9345F, 0.9148F, 0.8951F, 0.8754F, 0.8557F, 0.8359F, 0.8162F, 0.7965F, 0.7768F, 0.7571F, 0.7374F, 0.7177F, 0.6980F, 0.6783F, 0.6586F, 0.6389F, 0.6192F, 0.5995F, 0.5798F, 0.5601F, 0.5404F, 0.5207F, 0.5010F, 0.4813F, 0.4616F, 0.4419F, 0.4222F, 0.4024F, 0.3827F, 0.3630F, 0.3433F, 0.3236F, 0.3039F, 0.2842F, 0.2645F, 0.2448F, 0.2251F, 0.2054F, 0.1857F, 0.1660F, 0.1463F, 0.1266F, 0.1069F, 0.0872F, 0.0675F, 0.0478F, 0.0281F, 0.0084F, -0.0113F, -0.0310F, -0.0508F, -0.0705F, -0.0902F, -0.1099F, -0.1296F, -0.1493F, -0.1690F, -0.1887F, -0.2084F, -0.2281F, -0.2478F, -0.2675F, -0.2872F, -0.3069F, -0.3266F, -0.3463F, -0.3660F, -0.3857F, -0.4054F, -0.4251F, -0.4448F, -0.4645F, -0.4843F, -0.5040F, -0.5237F, -0.5434F, -0.5631F, -0.5828F, -0.6025F, -0.6222F, -0.6419F, -0.6616F, -0.6813F, -0.7010F, -0.7207F, -0.7404F },
        { -0.7098F, -0.6901F, -0.6704F, -0.6507F, -0.6310F, -0.6113F, -0.5916F, -0.5719F, -0.5522F, -0.5325F, -0.5128F, -0.4931F, -0.4734F, -0.4537F, -0.4340F, -0.4143F, -0.3946F, -0.3749F, -0.3552F, -0.3355F, -0.3157F, -0.2960F, -0.2763F, -0.2566F, -0.2369F, -0.2172F, -0.1975F, -0.1778F, -0.1581F, -0.1384F, -0.1187F, -0.0990F, -0.0793F, -0.0596F, -0.0399F, -0.0202F, -0.0005F, 0.0192F, 0.0389F, 0.0586F, 0.0783F, 0.0980F, 0.1177F, 0.1375F, 0.1572F, 0.1769F, 0.1966F, 0.2163F, 0.2360F, 0.2557F, 0.2754F, 0.2951F, 0.3148F, 0.3345F, 0.3542F, 0.3739F, 0.3936F, 0.4133F, 0.4330F, 0.4527F, 0.4724F, 0.4921F, 0.5118F, 0.5315F, 0.5512F, 0.5710F, 0.5907F, 0.6104F, 0.6301F, 0.6498F, 0.6695F, 0.6892F, 0.7089F, 0.7286F, 0.7483F, 0.7680F, 0.7877F, 0.8074F, 0.8271F, 0.8468F, 0.8665F, 0.8862F, 0.9059F, 0.9256F, 0.9453F, 0.9650F, 0.9847F, 1.0044F, 1.0242F, 1.0439F, 1.0636F, 1.0833F, 1.1030F, 1.1227F, 1.1424F, 1.1621F, 1.1818F, 1.2015F, 1.2212F, 1.2409F, 1.2606F, 1.2606F, 1.2409F, 1.2212F, 1.2015F, 1.1818F, 1.1621F, 1.1424F, 1.1227F, 1.1030F, 1.0833F, 1.0636F, 1.0439F, 1.0242F, 1.0044F, 0.9847F, 0.9650F, 0.9453F, 0.9256F, 0.9059F, 0.8862F, 0.8665F, 0.8468F, 0.8271F, 0.8074F, 0.7877F, 0.7680F, 0.7483F, 0.7286F, 0.7089F, 0.6892F, 0.6695F, 0.6498F, 0.6301F, 0.6104F, 0.5907F, 0.5710F, 0.5512F, 0.5315F, 0.5118F, 0.4921F, 0.4724F, 0.4527F, 0.4330F, 0.4133F, 0.3936F, 0.3739F, 0.3542F, 0.3345F, 0.3148F, 0.2951F, 0.2754F, 0.2557F, 0.2360F, 0.2163F, 0.1966F, 0.1769F, 0.1572F, 0.1375F, 0.1177F, 0.0980F, 0.0783F, 0.0586F, 0.0389F, 0.0192F, -0.0005F, -0.0202F, -0.0399F, -0.0596F, -0.0793F, -0.0990F, -0.1187F, -0.1384F, -0.1581F, -0.1778F, -0.1975F, -0.2172F, -0.2369F, -0.2566F, -0.2763F, -0.2960F, -0.3157F, -0.3355F, -0.3552F, -0.3749F, -0.3946F, -0.4143F, -0.4340F, -0.4537F, -0.4734F, -0.4931F, -0.5128F, -0.5325F, -0.5522F, -0.5719F, -0.5916F, -0.6113F, -0.6310F, -0.6507F, -0.6704F, -0.6901F, -0.7098F, -0.7295F },
        { -0.6994F, -0.6797F, -0.6600F, -0.6403F, -0.6206F, -0.6008F, -0.5811F, -0.5614F, -0.5417F, -0.5220F, -0.5023F, -0.4826F, -0.4629F, -0.4432F, -0.4235F, -0.4038F, -0.3841F, -0.3644F, -0.3447F, -0.3250F, -0.3053F, -0.2856F, -0.2659F, -0.2462F, -0.2265F, -0.2068F, -0.1871F, -0.1674F, -0.1476F, -0.1279F, -0.1082F, -0.0885F, -0.0688F, -0.0491F, -0.0294F, -0.0097F, 0.0100F, 0.0297F, 0.0494F, 0.0691F, 0.0888F, 0.1085F, 0.1282F, 0.1479F, 0.1676F, 0.1873F, 0.2070F, 0.2267F, 0.2464F, 0.2661F, 0.2859F, 0.3056F, 0.3253F, 0.3450F, 0.3647F, 0.3844F, 0.4041F, 0.4238F, 0.4435F, 0.4632F, 0.4829F, 0.5026F, 0.5223F, 0.5420F, 0.5617F, 0.5814F, 0.6011F, 0.6208F, 0.6405F, 0.6602F, 0.6799F, 0.6996F, 0.7193F, 0.7391F, 0.7588F, 0.7785F, 0.7982F, 0.8179F, 0.8376F, 0.8573F, 0.8770F, 0.8967F, 0.9164F, 0.9361F, 0.9558F, 0.9755F, 0.9952F, 1.0149F, 1.0346F, 1.0543F, 1.0740F, 1.0937F, 1.1134F, 1.1331F, 1.1528F, 1.1725F, 1.1923F, 1.2120F, 1.2317F, 1.2514F, 1.2711F, 1.2711F, 1.2514F, 1.2317F, 1.2120F, 1.1923F, 1.1725F, 1.1528F, 1.1331F, 1.1134F, 1.0937F, 1.0740F, 1.0543F, 1.0346F, 1.0149F, 0.9952F, 0.9755F, 0.9558F, 0.9361F, 0.9164F, 0.8967F, 0.8770F, 0.8573F, 0.8376F, 0.8179F, 0.7982F, 0.7785F, 0.7588F, 0.7391F, 0.7193F, 0.6996F, 0.6799F, 0.6602F, 0.6405F, 0.6208F, 0.6011F, 0.5814F, 0.5617F, 0.5420F, 0.5223F, 0.5026F, 0.4829F, 0.4632F, 0.4435F, 0.4238F, 0.4041F, 0.3844F, 0.3647F, 0.3450F, 0.3253F, 0.3056F, 0.2859F, 0.2661F, 0.2464F, 0.2267F, 0.2070F, 0.1873F, 0.1676F, 0.1479F, 0.1282F, 0.1085F, 0.0888F, 0.0691F, 0.0494F, 0.0297F, 0.0100F, -0.0097F, -0.0294F, -0.0491F, -0.0688F, -0.0885F, -0.1082F, -0.1279F, -0.1476F, -0.1674F, -0.1871F, -0.2068F, -0.2265F, -0.2462F, -0.2659F, -0.2856F, -0.3053F, -0.3250F, -0.3447F, -0.3644F, -0.3841F, -0.4038F, -0.4235F, -0.4432F, -0.4629F, -0.4826F, -0.5023F, -0.5220F, -0.5417F, -0.5614F, -0.5811F, -0.6008F, -0.6206F, -0.6403F, -0.6600F, -0.6797F, -0.6994F, -0.7191F },
        { -0.6893F, -0.6696F, -0.6499F, -0.6302F, -0.6105F, -0.5908F, -0.5711F, -0.5514F, -0.5317F, -0.5120F, -0.4923F, -0.4726F, -0.4529F, -0.4331F, -0.4134F, -0.3937F, -0.3740F, -0.3543F, -0.3346F, -0.3149F, -0.2952F, -0.2755F, -0.2558F, -0.2361F, -0.2164F, -0.1967F, -0.1770F, -0.1573F, -0.1376F, -0.1179F, -0.0982F, -0.0785F, -0.0588F, -0.0391F, -0.0194F, 0.0004F, 0.0201F, 0.0398F, 0.0595F, 0.0792F, 0.0989F, 0.1186F, 0.1383F, 0.1580F, 0.1777F, 0.1974F, 0.2171F, 0.2368F, 0.2565F, 0.2762F, 0.2959F, 0.3156F, 0.3353F, 0.3550F, 0.3747F, 0.3944F, 0.4141F, 0.4338F, 0.4536F, 0.4733F, 0.4930F, 0.5127F, 0.5324F, 0.5521F, 0.5718F, 0.5915F, 0.6112F, 0.6309F, 0.6506F, 0.6703F, 0.6900F, 0.7097F, 0.7294F, 0.7491F, 0.7688F, 0.7885F, 0.8082F, 0.8279F, 0.8476F, 0.8673F, 0.8871F, 0.9068F, 0.9265F, 0.9462F, 0.9659F, 0.9856F, 1.0053F, 1.0250F, 1.0447F, 1.0644F, 1.0841F, 1.1038F, 1.1235F, 1.1432F, 1.1629F, 1.1826F, 1.2023F, 1.2220F, 1.2417F, 1.2614F, 1.2811F, 1.2811F, 1.2614F, 1.2417F, 1.2220F, 1.2023F, 1.1826F, 1.1629F, 1.1432F, 1.1235F, 1.1038F, 1.0841F, 1.0644F, 1.0447F, 1.0250F, 1.0053F, 0.9856F, 0.9659F, 0.9462F, 0.9265F, 0.9068F, 0.8871F, 0.8673F, 0.8476F, 0.8279F, 0.8082F, 0.7885F, 0.7688F, 0.7491F, 0.7294F, 0.7097F, 0.6900F, 0.6703F, 0.6506F, 0.6309F, 0.6112F, 0.5915F, 0.5718F, 0.5521F, 0.5324F, 0.5127F, 0.4930F, 0.4733F, 0.4536F, 0.4338F, 0.4141F, 0.3944F, 0.3747F, 0.3550F, 0.3353F, 0.3156F, 0.2959F, 0.2762F, 0.2565F, 0.2368F, 0.2171F, 0.1974F, 0.1777F, 0.1580F, 0.1383F, 0.1186F, 0.0989F, 0.0792F, 0.0595F, 0.0398F, 0.0201F, 0.0004F, -0.0194F, -0.0391F, -0.0588F, -0.0785F, -0.0982F, -0.1179F, -0.1376F, -0.1573F, -0.1770F, -0.1967F, -0.2164F, -0.2361F, -0.2558F, -0.2755F, -0.2952F, -0.3149F, -0.3346F, -0.3543F, -0.3740F, -0.3937F, -0.4134F, -0.4331F, -0.4529F, -0.4726F, -0.4923F, -0.5120F, -0.5317F, -0.5514F, -0.5711F, -0.5908F, -0.6105F, -0.6302F, -0.6499F, -0.6696F, -0.6893F, -0.7090F },
        { -0.6796F, -0.6599F, -0.6402F, -0.6205F, -0.6008F, -0.5811F, -0.5614F, -0.5417F, -0.5220F, -0.5023F, -0.4826F, -0.4629F, -0.4432F, -0.4235F, -0.4038F, -0.3841F, -0.3644F, -0.3447F, -0.3250F, -0.3053F, -0.2855F, -0.2658F, -0.2461F, -0.2264F, -0.2067F, -0.1870F, -0.1673F, -0.1476F, -0.1279F, -0.1082F, -0.0885F, -0.0688F, -0.0491F, -0.0294F, -0.0097F, 0.0100F, 0.0297F, 0.0494F, 0.0691F, 0.0888F, 0.1085F, 0.1282F, 0.1479F, 0.1677F, 0.1874F, 0.2071F, 0.2268F, 0.2465F, 0.2662F, 0.2859F, 0.3056F, 0.3253F, 0.3450F, 0.3647F, 0.3844F, 0.4041F, 0.4238F, 0.4435F, 0.4632F, 0.4829F, 0.5026F, 0.5223F, 0.5420F, 0.5617F, 0.5814F, 0.6012F, 0.6209F, 0.6406F, 0.6603F, 0.6800F, 0.6997F, 0.7194F, 0.7391F, 0.7588F, 0.7785F, 0.7982F, 0.8179F, 0.8376F, 0.8573F, 0.8770F, 0.8967F, 0.9164F, 0.9361F, 0.9558F, 0.9755F, 0.9952F, 1.0149F, 1.0346F, 1.0544F, 1.0741F, 1.0938F, 1.1135F, 1.1332F, 1.1529F, 1.1726F, 1.1923F, 1.2120F, 1.2317F, 1.2514F, 1.2711F, 1.2908F, 1.2908F, 1.2711F, 1.2514F, 1.2317F, 1.2120F, 1.1923F, 1.1726F, 1.1529F, 1.1332F, 1.1135F, 1.0938F, 1.0741F, 1.0544F, 1.0346F, 1.0149F, 0.9952F, 0.9755F, 0.9558F, 0.9361F, 0.9164F, 0.8967F, 0.8770F, 0.8573F, 0.8376F, 0.8179F, 0.7982F, 0.7785F, 0.7588F, 0.7391F, 0.7194F, 0.6997F, 0.6800F, 0.6603F, 0.6406F, 0.6209F, 0.6012F, 0.5814F, 0.5617F, 0.5420F, 0.5223F, 0.5026F, 0.4829F, 0.4632F, 0.4435F, 0.4238F, 0.4041F, 0.3844F, 0.3647F, 0.3450F, 0.3253F, 0.3056F, 0.2859F, 0.2662F, 0.2465F, 0.2268F, 0.2071F, 0.1874F, 0.1677F, 0.1479F, 0.1282F, 0.1085F, 0.0888F, 0.0691F, 0.0494F, 0.0297F, 0.0100F, -0.0097F, -0.0294F, -0.0491F, -0.0688F, -0.0885F, -0.1082F, -0.1279F, -0.1476F, -0.1673F, -0.1870F, -0.2067F, -0.2264F, -0.2461F, -0.2658F, -0.2855F, -0.3053F, -0.3250F, -0.3447F, -0.3644F, -0.3841F, -0.4038F, -0.4235F, -0.4432F, -0.4629F, -0.4826F, -0.5023F, -0.5220F, -0.5417F, -0.5614F, -0.5811F, -0.6008F, -0.6205F, -0.6402F, -0.6599F, -0.6796F, -0.6993F },
        { -0.6704F, -0.6507F, -0.6310F, -0.6113F, -0.5916F, -0.5718F, -0.5521F, -0.5324F, -0.5127F, -0.4930F, -0.4733F, -0.4536F, -0.4339F, -0.4142F, -0.3945F, -0.3748F, -0.3551F, -0.3354F, -0.3157F, -0.2960F, -0.2763F, -0.2566F, -0.2369F, -0.2172F, -0.1975F, -0.1778F, -0.1581F, -0.1384F, -0.1186F, -0.0989F, -0.0792F, -0.0595F, -0.0398F, -0.0201F, -0.0004F, 0.0193F, 0.0390F, 0.0587F, 0.0784F, 0.0981F, 0.1178F, 0.1375F, 0.1572F, 0.1769F, 0.1966F, 0.2163F, 0.2360F, 0.2557F, 0.2754F, 0.2951F, 0.3149F, 0.3346F, 0.3543F, 0.3740F, 0.3937F, 0.4134F, 0.4331F, 0.4528F, 0.4725F, 0.4922F, 0.5119F, 0.5316F, 0.5513F, 0.5710F, 0.5907F, 0.6104F, 0.6301F, 0.6498F, 0.6695F, 0.6892F, 0.7089F, 0.7286F, 0.7483F, 0.7681F, 0.7878F, 0.8075F, 0.8272F, 0.8469F, 0.8666F, 0.8863F, 0.9060F, 0.9257F, 0.9454F, 0.9651F, 0.9848F, 1.0045F, 1.0242F, 1.0439F, 1.0636F, 1.0833F, 1.1030F, 1.1227F, 1.1424F, 1.1621F, 1.1818F, 1.2015F, 1.2213F, 1.2410F, 1.2607F, 1.2804F, 1.3001F, 1.3001F, 1.2804F, 1.2607F, 1.2410F, 1.2213F, 1.2015F, 1.1818F, 1.1621F, 1.1424F, 1.1227F, 1.1030F, 1.0833F, 1.0636F, 1.0439F, 1.0242F, 1.0045F, 0.9848F, 0.9651F, 0.9454F, 0.9257F, 0.9060F, 0.8863F, 0.8666F, 0.8469F, 0.8272F, 0.8075F, 0.7878F, 0.7681F, 0.7483F, 0.7286F, 0.7089F, 0.6892F, 0.6695F, 0.6498F, 0.6301F, 0.6104F, 0.5907F, 0.5710F, 0.5513F, 0.5316F, 0.5119F, 0.4922F, 0.4725F, 0.4528F, 0.4331F, 0.4134F, 0.3937F, 0.3740F, 0.3543F, 0.3346F, 0.3149F, 0.2951F, 0.2754F, 0.2557F, 0.2360F, 0.2163F, 0.1966F, 0.1769F, 0.1572F, 0.1375F, 0.1178F, 0.0981F, 0.0784F, 0.0587F, 0.0390F, 0.0193F, -0.0004F, -0.0201F, -0.0398F, -0.0595F, -0.0792F, -0.0989F, -0.1186F, -0.1384F, -0.1581F, -0.1778F, -0.1975F, -0.2172F, -0.2369F, -0.2566F, -0.2763F, -0.2960F, -0.3157F, -0.3354F, -0.3551F, -0.3748F, -0.3945F, -0.4142F, -0.4339F, -0.4536F, -0.4733F, -0.4930F, -0.5127F, -0.5324F, -0.5521F, -0.5718F, -0.5916F, -0.6113F, -0.6310F, -0.6507F, -0.6704F, -0.6901F },
        { -0.6615F, -0.6418F, -0.6221F, -0.6024F, -0.5827F, -0.5630F, -0.5433F, -0.5236F, -0.5039F, -0.4842F, -0.4645F, -0.4448F, -0.4251F, -0.4053F, -0.3856F, -0.3659F, -0.3462F, -0.3265F, -0.3068F, -0.2871F, -0.2674F, -0.2477F, -0.2280F, -0.2083F, -0.1886F, -0.1689F, -0.1492F, -0.1295F, -0.1098F, -0.0901F, -0.0704F, -0.0507F, -0.0310F, -0.0113F, 0.0084F, 0.0282F, 0.0479F, 0.0676F, 0.0873F, 0.1070F, 0.1267F, 0.1464F, 0.1661F, 0.1858F, 0.2055F, 0.2252F, 0.2449F, 0.2646F, 0.2843F, 0.3040F, 0.3237F, 0.3434F, 0.3631F, 0.3828F, 0.4025F, 0.4222F, 0.4419F, 0.4616F, 0.4814F, 0.5011F, 0.5208F, 0.5405F, 0.5602F, 0.5799F, 0.5996F, 0.6193F, 0.6390F, 0.6587F, 0.6784F, 0.6981F, 0.7178F, 0.7375F, 0.7572F, 0.7769F, 0.7966F, 0.8163F, 0.8360F, 0.8557F, 0.8754F, 0.8951F, 0.9149F, 0.9346F, 0.9543F, 0.9740F, 0.9937F, 1.0134F, 1.0331F, 1.0528F, 1.0725F, 1.0922F, 1.1119F, 1.1316F, 1.1513F, 1.1710F, 1.1907F, 1.2104F, 1.2301F, 1.2498F, 1.2695F, 1.2892F, 1.3089F, 1.3089F, 1.2892F, 1.2695F, 1.2498F, 1.2301F, 1.2104F, 1.1907F, 1.1710F, 1.1513F, 1.1316F, 1.1119F, 1.0922F, 1.0725F, 1.0528F, 1.0331F, 1.0134F, 0.9937F, 0.9740F, 0.9543F, 0.9346F, 0.9149F, 0.8951F, 0.8754F, 0.8557F, 0.8360F, 0.8163F, 0.7966F, 0.7769F, 0.7572F, 0.7375F, 0.7178F, 0.6981F, 0.6784F, 0.6587F, 0.6390F, 0.6193F, 0.5996F, 0.5799F, 0.5602F, 0.5405F, 0.5208F, 0.5011F, 0.4814F, 0.4616F, 0.4419F, 0.4222F, 0.4025F, 0.3828F, 0.3631F, 0.3434F, 0.3237F, 0.3040F, 0.2843F, 0.2646F, 0.2449F, 0.2252F, 0.2055F, 0.1858F, 0.1661F, 0.1464F, 0.1267F, 0.1070F, 0.0873F, 0.0676F, 0.0479F, 0.0282F, 0.0084F, -0.0113F, -0.0310F, -0.0507F, -0.0704F, -0.0901F, -0.1098F, -0.1295F, -0.1492F, -0.1689F, -0.1886F, -0.2083F, -0.2280F, -0.2477F, -0.2674F, -0.2871F, -0.3068F, -0.3265F, -0.3462F, -0.3659F, -0.3856F, -0.4053F, -0.4251F, -0.4448F, -0.4645F, -0.4842F, -0.5039F, -0.5236F, -0.5433F, -0.5630F, -0.5827F, -0.6024F, -0.6221F, -0.6418F, -0.6615F, -0.6812F },
        { -0.6530F, -0.6333F, -0.6136F, -0.5939F, -0.5742F, -0.5545F, -0.5348F, -0.5151F, -0.4954F, -0.4757F, -0.4560F, -0.4363F, -0.4166F, -0.3969F, -0.3772F, -0.3575F, -0.3378F, -0.3181F, -0.2984F, -0.2787F, -0.2589F, -0.2392F, -0.2195F, -0.1998F, -0.1801F, -0.1604F, -0.1407F, -0.1210F, -0.1013F, -0.0816F, -0.0619F, -0.0422F, -0.0225F, -0.0028F, 0.0169F, 0.0366F, 0.0563F, 0.0760F, 0.0957F, 0.1154F, 0.1351F, 0.1548F, 0.1745F, 0.1943F, 0.2140F, 0.2337F, 0.2534F, 0.2731F, 0.2928F, 0.3125F, 0.3322F, 0.3519F, 0.3716F, 0.3913F, 0.4110F, 0.4307F, 0.4504F, 0.4701F, 0.4898F, 0.5095F, 0.5292F, 0.5489F, 0.5686F, 0.5883F, 0.6080F, 0.6278F, 0.6475F, 0.6672F, 0.6869F, 0.7066F, 0.7263F, 0.7460F, 0.7657F, 0.7854F, 0.8051F, 0.8248F, 0.8445F, 0.8642F, 0.8839F, 0.9036F, 0.9233F, 0.9430F, 0.9627F, 0.9824F, 1.0021F, 1.0218F, 1.0415F, 1.0612F, 1.0810F, 1.1007F, 1.1204F, 1.1401F, 1.1598F, 1.1795F, 1.1992F, 1.2189F, 1.2386F, 1.2583F, 1.2780F, 1.2977F, 1.3174F, 1.3174F, 1.2977F, 1.2780F, 1.2583F, 1.2386F, 1.2189F, 1.1992F, 1.1795F, 1.1598F, 1.1401F, 1.1204F, 1.1007F, 1.0810F, 1.0612F, 1.0415F, 1.0218F, 1.0021F, 0.9824F, 0.9627F, 0.9430F, 0.9233F, 0.9036F, 0.8839F, 0.8642F, 0.8445F, 0.8248F, 0.8051F, 0.7854F, 0.7657F, 0.7460F, 0.7263F, 0.7066F, 0.6869F, 0.6672F, 0.6475F, 0.6278F, 0.6080F, 0.5883F, 0.5686F, 0.5489F, 0.5292F, 0.5095F, 0.4898F, 0.4701F, 0.4504F, 0.4307F, 0.4110F, 0.3913F, 0.3716F, 0.3519F, 0.3322F, 0.3125F, 0.2928F, 0.2731F, 0.2534F, 0.2337F, 0.2140F, 0.1943F, 0.1745F, 0.1548F, 0.1351F, 0.1154F, 0.0957F, 0.0760F, 0.0563F, 0.0366F, 0.0169F, -0.0028F, -0.0225F, -0.0422F, -0.0619F, -0.0816F, -0.1013F, -0.1210F, -0.1407F, -0.1604F, -0.1801F, -0.1998F, -0.2195F, -0.2392F, -0.2589F, -0.2787F, -0.2984F, -0.3181F, -0.3378F, -0.3575F, -0.3772F, -0.3969F, -0.4166F, -0.4363F, -0.4560F, -0.4757F, -0.4954F, -0.5151F, -0.5348F, -0.5545F, -0.5742F, -0.5939F, -0.6136F, -0.6333F, -0.6530F, -0.6727F },
        { -0.6450F, -0.6253F, -0.6056F, -0.5859F, -0.5662F, -0.5464F, -0.5267F, -0.5070F, -0.4873F, -0.4676F, -0.4479F, -0.4282F, -0.4085F, -0.3888F, -0.3691F, -0.3494F, -0.3297F, -0.3100F, -0.2903F, -0.2706F, -0.2509F, -0.2312F, -0.2115F, -0.1918F, -0.1721F, -0.1524F, -0.1327F, -0.1130F, -0.0932F, -0.0735F, -0.0538F, -0.0341F, -0.0144F, 0.0053F, 0.0250F, 0.0447F, 0.0644F, 0.0841F, 0.1038F, 0.1235F, 0.1432F, 0.1629F, 0.1826F, 0.2023F, 0.2220F, 0.2417F, 0.2614F, 0.2811F, 0.3008F, 0.3205F, 0.3403F, 0.3600F, 0.3797F, 0.3994F, 0.4191F, 0.4388F, 0.4585F, 0.4782F, 0.4979F, 0.5176F, 0.5373F, 0.5570F, 0.5767F, 0.5964F, 0.6161F, 0.6358F, 0.6555F, 0.6752F, 0.6949F, 0.7146F, 0.7343F, 0.7540F, 0.7737F, 0.7935F, 0.8132F, 0.8329F, 0.8526F, 0.8723F, 0.8920F, 0.9117F, 0.9314F, 0.9511F, 0.9708F, 0.9905F, 1.0102F, 1.0299F, 1.0496F, 1.0693F, 1.0890F, 1.1087F, 1.1284F, 1.1481F, 1.1678F, 1.1875F, 1.2072F, 1.2269F, 1.2467F, 1.2664F, 1.2861F, 1.3058F, 1.3255F, 1.3255F, 1.3058F, 1.2861F, 1.2664F, 1.2467F, 1.2269F, 1.2072F, 1.1875F, 1.1678F, 1.1481F, 1.1284F, 1.1087F, 1.0890F, 1.0693F, 1.0496F, 1.0299F, 1.0102F, 0.9905F, 0.9708F, 0.9511F, 0.9314F, 0.9117F, 0.8920F, 0.8723F, 0.8526F, 0.8329F, 0.8132F, 0.7935F, 0.7737F, 0.7540F, 0.7343F, 0.7146F, 0.6949F, 0.6752F, 0.6555F, 0.6358F, 0.6161F, 0.5964F, 0.5767F, 0.5570F, 0.5373F, 0.5176F, 0.4979F, 0.4782F, 0.4585F, 0.4388F, 0.4191F, 0.3994F, 0.3797F, 0.3600F, 0.3403F, 0.3205F, 0.3008F, 0.2811F, 0.2614F, 0.2417F, 0.2220F, 0.2023F, 0.1826F, 0.1629F, 0.1432F, 0.1235F, 0.1038F, 0.0841F, 0.0644F, 0.0447F, 0.0250F, 0.0053F, -0.0144F, -0.0341F, -0.0538F, -0.0735F, -0.0932F, -0.1130F, -0.1327F, -0.1524F, -0.1721F, -0.1918F, -0.2115F, -0.2312F, -0.2509F, -0.2706F, -0.2903F, -0.3100F, -0.3297F, -0.3494F, -0.3691F, -0.3888F, -0.4085F, -0.4282F, -0.4479F, -0.4676F, -0.4873F, -0.5070F, -0.5267F, -0.5464F, -0.5662F, -0.5859F, -0.6056F, -0.6253F, -0.6450F, -0.6647F },
        { -0.6373F, -0.6176F, -0.5979F, -0.5782F, -0.5585F, -0.5388F, -0.5191F, -0.4994F, -0.4797F, -0.4600F, -0.4403F, -0.4206F, -0.4009F, -0.3811F, -0.3614F, -0.3417F, -0.3220F, -0.3023F, -0.2826F, -0.2629F, -0.2432F, -0.2235F, -0.2038F, -0.1841F, -0.1644F, -0.1447F, -0.1250F, -0.1053F, -0.0856F, -0.0659F, -0.0462F, -0.0265F, -0.0068F, 0.0129F, 0.0326F, 0.0524F, 0.0721F, 0.0918F, 0.1115F, 0.1312F, 0.1509F, 0.1706F, 0.1903F, 0.2100F, 0.2297F, 0.2494F, 0.2691F, 0.2888F, 0.3085F, 0.3282F, 0.3479F, 0.3676F, 0.3873F, 0.4070F, 0.4267F, 0.4464F, 0.4661F, 0.4858F, 0.5056F, 0.5253F, 0.5450F, 0.5647F, 0.5844F, 0.6041F, 0.6238F, 0.6435F, 0.6632F, 0.6829F, 0.7026F, 0.7223F, 0.7420F, 0.7617F, 0.7814F, 0.8011F, 0.8208F, 0.8405F, 0.8602F, 0.8799F, 0.8996F, 0.9193F, 0.9391F, 0.9588F, 0.9785F, 0.9982F, 1.0179F, 1.0376F, 1.0573F, 1.0770F, 1.0967F, 1.1164F, 1.1361F, 1.1558F, 1.1755F, 1.1952F, 1.2149F, 1.2346F, 1.2543F, 1.2740F, 1.2937F, 1.3134F, 1.3331F, 1.3331F, 1.3134F, 1.2937F, 1.2740F, 1.2543F, 1.2346F, 1.2149F, 1.1952F, 1.1755F, 1.1558F, 1.1361F, 1.1164F, 1.0967F, 1.0770F, 1.0573F, 1.0376F, 1.0179F, 0.9982F, 0.9785F, 0.9588F, 0.9391F, 0.9193F, 0.8996F, 0.8799F, 0.8602F, 0.8405F, 0.8208F, 0.8011F, 0.7814F, 0.7617F, 0.7420F, 0.7223F, 0.7026F, 0.6829F, 0.6632F, 0.6435F, 0.6238F, 0.6041F, 0.5844F, 0.5647F, 0.5450F, 0.5253F, 0.5056F, 0.4858F, 0.4661F, 0.4464F, 0.4267F, 0.4070F, 0.3873F, 0.3676F, 0.3479F, 0.3282F, 0.3085F, 0.2888F, 0.2691F, 0.2494F, 0.2297F, 0.2100F, 0.1903F, 0.1706F, 0.1509F, 0.1312F, 0.1115F, 0.0918F, 0.0721F, 0.0524F, 0.0326F, 0.0129F, -0.0068F, -0.0265F, -0.0462F, -0.0659F, -0.0856F, -0.1053F, -0.1250F, -0.1447F, -0.1644F, -0.1841F, -0.2038F, -0.2235F, -0.2432F, -0.2629F, -0.2826F, -0.3023F, -0.3220F, -0.3417F, -0.3614F, -0.3811F, -0.4009F, -0.4206F, -0.4403F, -0.4600F, -0.4797F, -0.4994F, -0.5191F, -0.5388F, -0.5585F, -0.5782F, -0.5979F, -0.6176F, -0.6373F, -0.6570F },
        { -0.6300F, -0.6103F, -0.5906F, -0.5709F, -0.5512F, -0.5315F, -0.5118F, -0.4921F, -0.4724F, -0.4527F, -0.4330F, -0.4133F, -0.3936F, -0.3739F, -0.3542F, -0.3345F, -0.3148F, -0.2951F, -0.2754F, -0.2557F, -0.2359F, -0.2162F, -0.1965F, -0.1768F, -0.1571F, -0.1374F, -0.1177F, -0.0980F, -0.0783F, -0.0586F, -0.0389F, -0.0192F, 0.0005F, 0.0202F, 0.0399F, 0.0596F, 0.0793F, 0.0990F, 0.1187F, 0.1384F, 0.1581F, 0.1778F, 0.1975F, 0.2173F, 0.2370F, 0.2567F, 0.2764F, 0.2961F, 0.3158F, 0.3355F, 0.3552F, 0.3749F, 0.3946F, 0.4143F, 0.4340F, 0.4537F, 0.4734F, 0.4931F, 0.5128F, 0.5325F, 0.5522F, 0.5719F, 0.5916F, 0.6113F, 0.6310F, 0.6508F, 0.6705F, 0.6902F, 0.7099F, 0.7296F, 0.7493F, 0.7690F, 0.7887F, 0.8084F, 0.8281F, 0.8478F, 0.8675F, 0.8872F, 0.9069F, 0.9266F, 0.9463F, 0.9660F, 0.9857F, 1.0054F, 1.0251F, 1.0448F, 1.0645F, 1.0842F, 1.1040F, 1.1237F, 1.1434F, 1.1631F, 1.1828F, 1.2025F, 1.2222F, 1.2419F, 1.2616F, 1.2813F, 1.3010F, 1.3207F, 1.3404F, 1.3404F, 1.3207F, 1.3010F, 1.2813F, 1.2616F, 1.2419F, 1.2222F, 1.2025F, 1.1828F, 1.1631F, 1.1434F, 1.1237F, 1.1040F, 1.0842F, 1.0645F, 1.0448F, 1.0251F, 1.0054F, 0.9857F, 0.9660F, 0.9463F, 0.9266F, 0.9069F, 0.8872F, 0.8675F, 0.8478F, 0.8281F, 0.8084F, 0.7887F, 0.7690F, 0.7493F, 0.7296F, 0.7099F, 0.6902F, 0.6705F, 0.6508F, 0.6310F, 0.6113F, 0.5916F, 0.5719F, 0.5522F, 0.5325F, 0.5128F, 0.4931F, 0.4734F, 0.4537F, 0.4340F, 0.4143F, 0.3946F, 0.3749F, 0.3552F, 0.3355F, 0.3158F, 0.2961F, 0.2764F, 0.2567F, 0.2370F, 0.2173F, 0.1975F, 0.1778F, 0.1581F, 0.1384F, 0.1187F, 0.0990F, 0.0793F, 0.0596F, 0.0399F, 0.0202F, 0.0005F, -0.0192F, -0.0389F, -0.0586F, -0.0783F, -0.0980F, -0.1177F, -0.1374F, -0.1571F, -0.1768F, -0.1965F, -0.2162F, -0.2359F, -0.2557F, -0.2754F, -0.2951F, -0.3148F, -0.3345F, -0.3542F, -0.3739F, -0.3936F, -0.4133F, -0.4330F, -0.4527F, -0.4724F, -0.4921F, -0.5118F, -0.5315F, -0.5512F, -0.5709F, -0.5906F, -0.6103F, -0.6300F, -0.6497F },
        { -0.6232F, -0.6035F, -0.5838F, -0.5641F, -0.5444F, -0.5246F, -0.5049F, -0.4852F, -0.4655F, -0.4458F, -0.4261F, -0.4064F, -0.3867F, -0.3670F, -0.3473F, -0.3276F, -0.3079F, -0.2882F, -0.2685F, -0.2488F, -0.2291F, -0.2094F, -0.1897F, -0.1700F, -0.1503F, -0.1306F, -0.1109F, -0.0912F, -0.0714F, -0.0517F, -0.0320F, -0.0123F, 0.0074F, 0.0271F, 0.0468F, 0.0665F, 0.0862F, 0.1059F, 0.1256F, 0.1453F, 0.1650F, 0.1847F, 0.2044F, 0.2241F, 0.2438F, 0.2635F, 0.2832F, 0.3029F, 0.3226F, 0.3423F, 0.3621F, 0.3818F, 0.4015F, 0.4212F, 0.4409F, 0.4606F, 0.4803F, 0.5000F, 0.5197F, 0.5394F, 0.5591F, 0.5788F, 0.5985F, 0.6182F, 0.6379F, 0.6576F, 0.6773F, 0.6970F, 0.7167F, 0.7364F, 0.7561F, 0.7758F, 0.7955F, 0.8153F, 0.8350F, 0.8547F, 0.8744F, 0.8941F, 0.9138F, 0.9335F, 0.9532F, 0.9729F, 0.9926F, 1.0123F, 1.0320F, 1.0517F, 1.0714F, 1.0911F, 1.1108F, 1.1305F, 1.1502F, 1.1699F, 1.1896F, 1.2093F, 1.2290F, 1.2487F, 1.2685F, 1.2882F, 1.3079F, 1.3276F, 1.3473F, 1.3473F, 1.3276F, 1.3079F, 1.2882F, 1.2685F, 1.2487F, 1.2290F, 1.2093F, 1.1896F, 1.1699F, 1.1502F, 1.1305F, 1.1108F, 1.0911F, 1.0714F, 1.0517F, 1.0320F, 1.0123F, 0.9926F, 0.9729F, 0.9532F, 0.9335F, 0.9138F, 0.8941F, 0.8744F, 0.8547F, 0.8350F, 0.8153F, 0.7955F, 0.7758F, 0.7561F, 0.7364F, 0.7167F, 0.6970F, 0.6773F, 0.6576F, 0.6379F, 0.6182F, 0.5985F, 0.5788F, 0.5591F, 0.5394F, 0.5197F, 0.5000F, 0.4803F, 0.4606F, 0.4409F, 0.4212F, 0.4015F, 0.3818F, 0.3621F, 0.3423F, 0.3226F, 0.3029F, 0.2832F, 0.2635F, 0.2438F, 0.2241F, 0.2044F, 0.1847F, 0.1650F, 0.1453F, 0.1256F, 0.1059F, 0.0862F, 0.0665F, 0.0468F, 0.0271F, 0.0074F, -0.0123F, -0.0320F, -0.0517F, -0.0714F, -0.0912F, -0.1109F, -0.1306F, -0.1503F, -0.1700F, -0.1897F, -0.2094F, -0.2291F, -0.2488F, -0.2685F, -0.2882F, -0.3079F, -0.3276F, -0.3473F, -0.3670F, -0.3867F, -0.4064F, -0.4261F, -0.4458F, -0.4655F, -0.4852F, -0.5049F, -0.5246F, -0.5444F, -0.5641F, -0.5838F, -0.6035F, -0.6232F, -0.6429F },
        { -0.6167F, -0.5970F, -0.5773F, -0.5576F, -0.5379F, -0.5182F, -0.4985F, -0.4788F, -0.4591F, -0.4394F, -0.4197F, -0.4000F, -0.3803F, -0.3605F, -0.3408F, -0.3211F, -0.3014F, -0.2817F, -0.2620F, -0.2423F, -0.2226F, -0.2029F, -0.1832F, -0.1635F, -0.1438F, -0.1241F, -0.1044F, -0.0847F, -0.0650F, -0.0453F, -0.0256F, -0.0059F, 0.0138F, 0.0335F, 0.0532F, 0.0730F, 0.0927F, 0.1124F, 0.1321F, 0.1518F, 0.1715F, 0.1912F, 0.2109F, 0.2306F, 0.2503F, 0.2700F, 0.2897F, 0.3094F, 0.3291F, 0.3488F, 0.3685F, 0.3882F, 0.4079F, 0.4276F, 0.4473F, 0.4670F, 0.4867F, 0.5064F, 0.5262F, 0.5459F, 0.5656F, 0.5853F, 0.6050F, 0.6247F, 0.6444F, 0.6641F, 0.6838F, 0.7035F, 0.7232F, 0.7429F, 0.7626F, 0.7823F, 0.8020F, 0.8217F, 0.8414F, 0.8611F, 0.8808F, 0.9005F, 0.9202F, 0.9399F, 0.9597F, 0.9794F, 0.9991F, 1.0188F, 1.0385F, 1.0582F, 1.0779F, 1.0976F, 1.1173F, 1.1370F, 1.1567F, 1.1764F, 1.1961F, 1.2158F, 1.2355F, 1.2552F, 1.2749F, 1.2946F, 1.3143F, 1.3340F, 1.3537F, 1.3537F, 1.3340F, 1.3143F, 1.2946F, 1.2749F, 1.2552F, 1.2355F, 1.2158F, 1.1961F, 1.1764F, 1.1567F, 1.1370F, 1.1173F, 1.0976F, 1.0779F, 1.0582F, 1.0385F, 1.0188F, 0.9991F, 0.9794F, 0.9597F, 0.9399F, 0.9202F, 0.9005F, 0.8808F, 0.8611F, 0.8414F, 0.8217F, 0.8020F, 0.7823F, 0.7626F, 0.7429F, 0.7232F, 0.7035F, 0.6838F, 0.6641F, 0.6444F, 0.6247F, 0.6050F, 0.5853F, 0.5656F, 0.5459F, 0.5262F, 0.5064F, 0.4867F, 0.4670F, 0.4473F, 0.4276F, 0.4079F, 0.3882F, 0.3685F, 0.3488F, 0.3291F, 0.3094F, 0.2897F, 0.2700F, 0.2503F, 0.2306F, 0.2109F, 0.1912F, 0.1715F, 0.1518F, 0.1321F, 0.1124F, 0.0927F, 0.0730F, 0.0532F, 0.0335F, 0.0138F, -0.0059F, -0.0256F, -0.0453F, -0.0650F, -0.0847F, -0.1044F, -0.1241F, -0.1438F, -0.1635F, -0.1832F, -0.2029F, -0.2226F, -0.2423F, -0.2620F, -0.2817F, -0.3014F, -0.3211F, -0.3408F, -0.3605F, -0.3803F, -0.4000F, -0.4197F, -0.4394F, -0.4591F, -0.4788F, -0.4985F, -0.5182F, -0.5379F, -0.5576F, -0.5773F, -0.5970F, -0.6167F, -0.6364F },
        { -0.6106F, -0.5909F, -0.5712F, -0.5515F, -0.5318F, -0.5121F, -0.4924F, -0.4727F, -0.4530F, -0.4333F, -0.4136F, -0.3939F, -0.3742F, -0.3545F, -0.3348F, -0.3151F, -0.2954F, -0.2757F, -0.2560F, -0.2363F, -0.2165F, -0.1968F, -0.1771F, -0.1574F, -0.1377F, -0.1180F, -0.0983F, -0.0786F, -0.0589F, -0.0392F, -0.0195F, 0.0002F, 0.0199F, 0.0396F, 0.0593F, 0.0790F, 0.0987F, 0.1184F, 0.1381F, 0.1578F, 0.1775F, 0.1972F, 0.2169F, 0.2367F, 0.2564F, 0.2761F, 0.2958F, 0.3155F, 0.3352F, 0.3549F, 0.3746F, 0.3943F, 0.4140F, 0.4337F, 0.4534F, 0.4731F, 0.4928F, 0.5125F, 0.5322F, 0.5519F, 0.5716F, 0.5913F, 0.6110F, 0.6307F, 0.6504F, 0.6702F, 0.6899F, 0.7096F, 0.7293F, 0.7490F, 0.7687F, 0.7884F, 0.8081F, 0.8278F, 0.8475F, 0.8672F, 0.8869F, 0.9066F, 0.9263F, 0.9460F, 0.9657F, 0.9854F, 1.0051F, 1.0248F, 1.0445F, 1.0642F, 1.0839F, 1.1036F, 1.1234F, 1.1431F, 1.1628F, 1.1825F, 1.2022F, 1.2219F, 1.2416F, 1.2613F, 1.2810F, 1.3007F, 1.3204F, 1.3401F, 1.3598F, 1.3598F, 1.3401F, 1.3204F, 1.3007F, 1.2810F, 1.2613F, 1.2416F, 1.2219F, 1.2022F, 1.1825F, 1.1628F, 1.1431F, 1.1234F, 1.1036F, 1.0839F, 1.0642F, 1.0445F, 1.0248F, 1.0051F, 0.9854F, 0.9657F, 0.9460F, 0.9263F, 0.9066F, 0.8869F, 0.8672F, 0.8475F, 0.8278F, 0.8081F, 0.7884F, 0.7687F, 0.7490F, 0.7293F, 0.7096F, 0.6899F, 0.6702F, 0.6504F, 0.6307F, 0.6110F, 0.5913F, 0.5716F, 0.5519F, 0.5322F, 0.5125F, 0.4928F, 0.4731F, 0.4534F, 0.4337F, 0.4140F, 0.3943F, 0.3746F, 0.3549F, 0.3352F, 0.3155F, 0.2958F, 0.2761F, 0.2564F, 0.2367F, 0.2169F, 0.1972F, 0.1775F, 0.1578F, 0.1381F, 0.1184F, 0.0987F, 0.0790F, 0.0593F, 0.0396F, 0.0199F, 0.0002F, -0.0195F, -0.0392F, -0.0589F, -0.0786F, -0.0983F, -0.1180F, -0.1377F, -0.1574F, -0.1771F, -0.1968F, -0.2165F, -0.2363F, -0.2560F, -0.2757F, -0.2954F, -0.3151F, -0.3348F, -0.3545F, -0.3742F, -0.3939F, -0.4136F, -0.4333F, -0.4530F, -0.4727F, -0.4924F, -0.5121F, -0.5318F, -0.5515F, -0.5712F, -0.5909F, -0.6106F, -0.6303F },
        { -0.6050F, -0.5853F, -0.5656F, -0.5459F, -0.5262F, -0.5064F, -0.4867F, -0.4670F, -0.4473F, -0.4276F, -0.4079F, -0.3882F, -0.3685F, -0.3488F, -0.3291F, -0.3094F, -0.2897F, -0.2700F, -0.2503F, -0.2306F, -0.2109F, -0.1912F, -0.1715F, -0.1518F, -0.1321F, -0.1124F, -0.0927F, -0.0730F, -0.0532F, -0.0335F, -0.0138F, 0.0059F, 0.0256F, 0.0453F, 0.0650F, 0.0847F, 0.1044F, 0.1241F, 0.1438F, 0.1635F, 0.1832F, 0.2029F, 0.2226F, 0.2423F, 0.2620F, 0.2817F, 0.3014F, 0.3211F, 0.3408F, 0.3605F, 0.3803F, 0.4000F, 0.4197F, 0.4394F, 0.4591F, 0.4788F, 0.4985F, 0.5182F, 0.5379F, 0.5576F, 0.5773F, 0.5970F, 0.6167F, 0.6364F, 0.6561F, 0.6758F, 0.6955F, 0.7152F, 0.7349F, 0.7546F, 0.7743F, 0.7940F, 0.8137F, 0.8335F, 0.8532F, 0.8729F, 0.8926F, 0.9123F, 0.9320F, 0.9517F, 0.9714F, 0.9911F, 1.0108F, 1.0305F, 1.0502F, 1.0699F, 1.0896F, 1.1093F, 1.1290F, 1.1487F, 1.1684F, 1.1881F, 1.2078F, 1.2275F, 1.2472F, 1.2669F, 1.2867F, 1.3064F, 1.3261F, 1.3458F, 1.3655F, 1.3655F, 1.3458F, 1.3261F, 1.3064F, 1.2867F, 1.2669F, 1.2472F, 1.2275F, 1.2078F, 1.1881F, 1.1684F, 1.1487F, 1.1290F, 1.1093F, 1.0896F, 1.0699F, 1.0502F, 1.0305F, 1.0108F, 0.9911F, 0.9714F, 0.9517F, 0.9320F, 0.9123F, 0.8926F, 0.8729F, 0.8532F, 0.8335F, 0.8137F, 0.7940F, 0.7743F, 0.7546F, 0.7349F, 0.7152F, 0.6955F, 0.6758F, 0.6561F, 0.6364F, 0.6167F, 0.5970F, 0.5773F, 0.5576F, 0.5379F, 0.5182F, 0.4985F, 0.4788F, 0.4591F, 0.4394F, 0.4197F, 0.4000F, 0.3803F, 0.3605F, 0.3408F, 0.3211F, 0.3014F, 0.2817F, 0.2620F, 0.2423F, 0.2226F, 0.2029F, 0.1832F, 0.1635F, 0.1438F, 0.1241F, 0.1044F, 0.0847F, 0.0650F, 0.0453F, 0.0256F, 0.0059F, -0.0138F, -0.0335F, -0.0532F, -0.0730F, -0.0927F, -0.1124F, -0.1321F, -0.1518F, -0.1715F, -0.1912F, -0.2109F, -0.2306F, -0.2503F, -0.2700F, -0.2897F, -0.3094F, -0.3291F, -0.3488F, -0.3685F, -0.3882F, -0.4079F, -0.4276F, -0.4473F, -0.4670F, -0.4867F, -0.5064F, -0.5262F, -0.5459F, -0.5656F, -0.5853F, -0.6050F, -0.6247F },
        { -0.5997F, -0.5800F, -0.5603F, -0.5406F, -0.5209F, -0.5012F, -0.4815F, -0.4618F, -0.4421F, -0.4224F, -0.4027F, -0.3830F, -0.3633F, -0.3435F, -0.3238F, -0.3041F, -0.2844F, -0.2647F, -0.2450F, -0.2253F, -0.2056F, -0.1859F, -0.1662F, -0.1465F, -0.1268F, -0.1071F, -0.0874F, -0.0677F, -0.0480F, -0.0283F, -0.0086F, 0.0111F, 0.0308F, 0.0505F, 0.0702F, 0.0900F, 0.1097F, 0.1294F, 0.1491F, 0.1688F, 0.1885F, 0.2082F, 0.2279F, 0.2476F, 0.2673F, 0.2870F, 0.3067F, 0.3264F, 0.3461F, 0.3658F, 0.3855F, 0.4052F, 0.4249F, 0.4446F, 0.4643F, 0.4840F, 0.5037F, 0.5234F, 0.5432F, 0.5629F, 0.5826F, 0.6023F, 0.6220F, 0.6417F, 0.6614F, 0.6811F, 0.7008F, 0.7205F, 0.7402F, 0.7599F, 0.7796F, 0.7993F, 0.8190F, 0.8387F, 0.8584F, 0.8781F, 0.8978F, 0.9175F, 0.9372F, 0.9569F, 0.9767F, 0.9964F, 1.0161F, 1.0358F, 1.0555F, 1.0752F, 1.0949F, 1.1146F, 1.1343F, 1.1540F, 1.1737F, 1.1934F, 1.2131F, 1.2328F, 1.2525F, 1.2722F, 1.2919F, 1.3116F, 1.3313F, 1.3510F, 1.3707F, 1.3707F, 1.3510F, 1.3313F, 1.3116F, 1.2919F, 1.2722F, 1.2525F, 1.2328F, 1.2131F, 1.1934F, 1.1737F, 1.1540F, 1.1343F, 1.1146F, 1.0949F, 1.0752F, 1.0555F, 1.0358F, 1.0161F, 0.9964F, 0.9767F, 0.9569F, 0.9372F, 0.9175F, 0.8978F, 0.8781F, 0.8584F, 0.8387F, 0.8190F, 0.7993F, 0.7796F, 0.7599F, 0.7402F, 0.7205F, 0.7008F, 0.6811F, 0.6614F, 0.6417F, 0.6220F, 0.6023F, 0.5826F, 0.5629F, 0.5432F, 0.5234F, 0.5037F, 0.4840F, 0.4643F, 0.4446F, 0.4249F, 0.4052F, 0.3855F, 0.3658F, 0.3461F, 0.3264F, 0.3067F, 0.2870F, 0.2673F, 0.2476F, 0.2279F, 0.2082F, 0.1885F, 0.1688F, 0.1491F, 0.1294F, 0.1097F, 0.0900F, 0.0702F, 0.0505F, 0.0308F, 0.0111F, -0.0086F, -0.0283F, -0.0480F, -0.0677F, -0.0874F, -0.1071F, -0.1268F, -0.1465F, -0.1662F, -0.1859F, -0.2056F, -0.2253F, -0.2450F, -0.2647F, -0.2844F, -0.3041F, -0.3238F, -0.3435F, -0.3633F, -0.3830F, -0.4027F, -0.4224F, -0.4421F, -0.4618F, -0.4815F, -0.5012F, -0.5209F, -0.5406F, -0.5603F, -0.5800F, -0.5997F, -0.6194F },
        { -0.5948F, -0.5751F, -0.5554F, -0.5357F, -0.5160F, -0.4963F, -0.4766F, -0.4569F, -0.4372F, -0.4175F, -0.3978F, -0.3781F, -0.3584F, -0.3387F, -0.3190F, -0.2993F, -0.2796F, -0.2599F, -0.2402F, -0.2205F, -0.2007F, -0.1810F, -0.1613F, -0.1416F, -0.1219F, -0.1022F, -0.0825F, -0.0628F, -0.0431F, -0.0234F, -0.0037F, 0.0160F, 0.0357F, 0.0554F, 0.0751F, 0.0948F, 0.1145F, 0.1342F, 0.1539F, 0.1736F, 0.1933F, 0.2130F, 0.2327F, 0.2525F, 0.2722F, 0.2919F, 0.3116F, 0.3313F, 0.3510F, 0.3707F, 0.3904F, 0.4101F, 0.4298F, 0.4495F, 0.4692F, 0.4889F, 0.5086F, 0.5283F, 0.5480F, 0.5677F, 0.5874F, 0.6071F, 0.6268F, 0.6465F, 0.6662F, 0.6860F, 0.7057F, 0.7254F, 0.7451F, 0.7648F, 0.7845F, 0.8042F, 0.8239F, 0.8436F, 0.8633F, 0.8830F, 0.9027F, 0.9224F, 0.9421F, 0.9618F, 0.9815F, 1.0012F, 1.0209F, 1.0406F, 1.0603F, 1.0800F, 1.0997F, 1.1194F, 1.1392F, 1.1589F, 1.1786F, 1.1983F, 1.2180F, 1.2377F, 1.2574F, 1.2771F, 1.2968F, 1.3165F, 1.3362F, 1.3559F, 1.3756F, 1.3756F, 1.3559F, 1.3362F, 1.3165F, 1.2968F, 1.2771F, 1.2574F, 1.2377F, 1.2180F, 1.1983F, 1.1786F, 1.1589F, 1.1392F, 1.1194F, 1.0997F, 1.0800F, 1.0603F, 1.0406F, 1.0209F, 1.0012F, 0.9815F, 0.9618F, 0.9421F, 0.9224F, 0.9027F, 0.8830F, 0.8633F, 0.8436F, 0.8239F, 0.8042F, 0.7845F, 0.7648F, 0.7451F, 0.7254F, 0.7057F, 0.6860F, 0.6662F, 0.6465F, 0.6268F, 0.6071F, 0.5874F, 0.5677F, 0.5480F, 0.5283F, 0.5086F, 0.4889F, 0.4692F, 0.4495F, 0.4298F, 0.4101F, 0.3904F, 0.3707F, 0.3510F, 0.3313F, 0.3116F, 0.2919F, 0.2722F, 0.2525F, 0.2327F, 0.2130F, 0.1933F, 0.1736F, 0.1539F, 0.1342F, 0.1145F, 0.0948F, 0.0751F, 0.0554F, 0.0357F, 0.0160F, -0.0037F, -0.0234F, -0.0431F, -0.0628F, -0.0825F, -0.1022F, -0.1219F, -0.1416F, -0.1613F, -0.1810F, -0.2007F, -0.2205F, -0.2402F, -0.2599F, -0.2796F, -0.2993F, -0.3190F, -0.3387F, -0.3584F, -0.3781F, -0.3978F, -0.4175F, -0.4372F, -0.4569F, -0.4766F, -0.4963F, -0.5160F, -0.5357F, -0.5554F, -0.5751F, -0.5948F, -0.6145F },
        { -0.5904F, -0.5707F, -0.5510F, -0.5313F, -0.5116F, -0.4918F, -0.4721F, -0.4524F, -0.4327F, -0.4130F, -0.3933F, -0.3736F, -0.3539F, -0.3342F, -0.3145F, -0.2948F, -0.2751F, -0.2554F, -0.2357F, -0.2160F, -0.1963F, -0.1766F, -0.1569F, -0.1372F, -0.1175F, -0.0978F, -0.0781F, -0.0584F, -0.0386F, -0.0189F, 0.0008F, 0.0205F, 0.0402F, 0.0599F, 0.0796F, 0.0993F, 0.1190F, 0.1387F, 0.1584F, 0.1781F, 0.1978F, 0.2175F, 0.2372F, 0.2569F, 0.2766F, 0.2963F, 0.3160F, 0.3357F, 0.3554F, 0.3751F, 0.3949F, 0.4146F, 0.4343F, 0.4540F, 0.4737F, 0.4934F, 0.5131F, 0.5328F, 0.5525F, 0.5722F, 0.5919F, 0.6116F, 0.6313F, 0.6510F, 0.6707F, 0.6904F, 0.7101F, 0.7298F, 0.7495F, 0.7692F, 0.7889F, 0.8086F, 0.8283F, 0.8481F, 0.8678F, 0.8875F, 0.9072F, 0.9269F, 0.9466F, 0.9663F, 0.9860F, 1.0057F, 1.0254F, 1.0451F, 1.0648F, 1.0845F, 1.1042F, 1.1239F, 1.1436F, 1.1633F, 1.1830F, 1.2027F, 1.2224F, 1.2421F, 1.2618F, 1.2815F, 1.3013F, 1.3210F, 1.3407F, 1.3604F, 1.3801F, 1.3801F, 1.3604F, 1.3407F, 1.3210F, 1.3013F, 1.2815F, 1.2618F, 1.2421F, 1.2224F, 1.2027F, 1.1830F, 1.1633F, 1.1436F, 1.1239F, 1.1042F, 1.0845F, 1.0648F, 1.0451F, 1.0254F, 1.0057F, 0.9860F, 0.9663F, 0.9466F, 0.9269F, 0.9072F, 0.8875F, 0.8678F, 0.8481F, 0.8283F, 0.8086F, 0.7889F, 0.7692F, 0.7495F, 0.7298F, 0.7101F, 0.6904F, 0.6707F, 0.6510F, 0.6313F, 0.6116F, 0.5919F, 0.5722F, 0.5525F, 0.5328F, 0.5131F, 0.4934F, 0.4737F, 0.4540F, 0.4343F, 0.4146F, 0.3949F, 0.3751F, 0.3554F, 0.3357F, 0.3160F, 0.2963F, 0.2766F, 0.2569F, 0.2372F, 0.2175F, 0.1978F, 0.1781F, 0.1584F, 0.1387F, 0.1190F, 0.0993F, 0.0796F, 0.0599F, 0.0402F, 0.0205F, 0.0008F, -0.0189F, -0.0386F, -0.0584F, -0.0781F, -0.0978F, -0.1175F, -0.1372F, -0.1569F, -0.1766F, -0.1963F, -0.2160F, -0.2357F, -0.2554F, -0.2751F, -0.2948F, -0.3145F, -0.3342F, -0.3539F, -0.3736F, -0.3933F, -0.4130F, -0.4327F, -0.4524F, -0.4721F, -0.4918F, -0.5116F, -0.5313F, -0.5510F, -0.5707F, -0.5904F, -0.6101F },
        { -0.5863F, -0.5666F, -0.5469F, -0.5272F, -0.5075F, -0.4878F, -0.4681F, -0.4484F, -0.4287F, -0.4090F, -0.3893F, -0.3696F, -0.3499F, -0.3301F, -0.3104F, -0.2907F, -0.2710F, -0.2513F, -0.2316F, -0.2119F, -0.1922F, -0.1725F, -0.1528F, -0.1331F, -0.1134F, -0.0937F, -0.0740F, -0.0543F, -0.0346F, -0.0149F, 0.0048F, 0.0245F, 0.0442F, 0.0639F, 0.0836F, 0.1034F, 0.1231F, 0.1428F, 0.1625F, 0.1822F, 0.2019F, 0.2216F, 0.2413F, 0.2610F, 0.2807F, 0.3004F, 0.3201F, 0.3398F, 0.3595F, 0.3792F, 0.3989F, 0.4186F, 0.4383F, 0.4580F, 0.4777F, 0.4974F, 0.5171F, 0.5368F, 0.5566F, 0.5763F, 0.5960F, 0.6157F, 0.6354F, 0.6551F, 0.6748F, 0.6945F, 0.7142F, 0.7339F, 0.7536F, 0.7733F, 0.7930F, 0.8127F, 0.8324F, 0.8521F, 0.8718F, 0.8915F, 0.9112F, 0.9309F, 0.9506F, 0.9703F, 0.9901F, 1.0098F, 1.0295F, 1.0492F, 1.0689F, 1.0886F, 1.1083F, 1.1280F, 1.1477F, 1.1674F, 1.1871F, 1.2068F, 1.2265F, 1.2462F, 1.2659F, 1.2856F, 1.3053F, 1.3250F, 1.3447F, 1.3644F, 1.3841F, 1.3841F, 1.3644F, 1.3447F, 1.3250F, 1.3053F, 1.2856F, 1.2659F, 1.2462F, 1.2265F, 1.2068F, 1.1871F, 1.1674F, 1.1477F, 1.1280F, 1.1083F, 1.0886F, 1.0689F, 1.0492F, 1.0295F, 1.0098F, 0.9901F, 0.9703F, 0.9506F, 0.9309F, 0.9112F, 0.8915F, 0.8718F, 0.8521F, 0.8324F, 0.8127F, 0.7930F, 0.7733F, 0.7536F, 0.7339F, 0.7142F, 0.6945F, 0.6748F, 0.6551F, 0.6354F, 0.6157F, 0.5960F, 0.5763F, 0.5566F, 0.5368F, 0.5171F, 0.4974F, 0.4777F, 0.4580F, 0.4383F, 0.4186F, 0.3989F, 0.3792F, 0.3595F, 0.3398F, 0.3201F, 0.3004F, 0.2807F, 0.2610F, 0.2413F, 0.2216F, 0.2019F, 0.1822F, 0.1625F, 0.1428F, 0.1231F, 0.1034F, 0.0836F, 0.0639F, 0.0442F, 0.0245F, 0.0048F, -0.0149F, -0.0346F, -0.0543F, -0.0740F, -0.0937F, -0.1134F, -0.1331F, -0.1528F, -0.1725F, -0.1922F, -0.2119F, -0.2316F, -0.2513F, -0.2710F, -0.2907F, -0.3104F, -0.3301F, -0.3499F, -0.3696F, -0.3893F, -0.4090F, -0.4287F, -0.4484F, -0.4681F, -0.4878F, -0.5075F, -0.5272F, -0.5469F, -0.5666F, -0.5863F, -0.6060F },
        { -0.5826F, -0.5629F, -0.5432F, -0.5235F, -0.5038F, -0.4841F, -0.4644F, -0.4447F, -0.4250F, -0.4053F, -0.3856F, -0.3659F, -0.3462F, -0.3265F, -0.3068F, -0.2871F, -0.2674F, -0.2477F, -0.2280F, -0.2083F, -0.1885F, -0.1688F, -0.1491F, -0.1294F, -0.1097F, -0.0900F, -0.0703F, -0.0506F, -0.0309F, -0.0112F, 0.0085F, 0.0282F, 0.0479F, 0.0676F, 0.0873F, 0.1070F, 0.1267F, 0.1464F, 0.1661F, 0.1858F, 0.2055F, 0.2252F, 0.2449F, 0.2647F, 0.2844F, 0.3041F, 0.3238F, 0.3435F, 0.3632F, 0.3829F, 0.4026F, 0.4223F, 0.4420F, 0.4617F, 0.4814F, 0.5011F, 0.5208F, 0.5405F, 0.5602F, 0.5799F, 0.5996F, 0.6193F, 0.6390F, 0.6587F, 0.6784F, 0.6982F, 0.7179F, 0.7376F, 0.7573F, 0.7770F, 0.7967F, 0.8164F, 0.8361F, 0.8558F, 0.8755F, 0.8952F, 0.9149F, 0.9346F, 0.9543F, 0.9740F, 0.9937F, 1.0134F, 1.0331F, 1.0528F, 1.0725F, 1.0922F, 1.1119F, 1.1316F, 1.1514F, 1.1711F, 1.1908F, 1.2105F, 1.2302F, 1.2499F, 1.2696F, 1.2893F, 1.3090F, 1.3287F, 1.3484F, 1.3681F, 1.3878F, 1.3878F, 1.3681F, 1.3484F, 1.3287F, 1.3090F, 1.2893F, 1.2696F, 1.2499F, 1.2302F, 1.2105F, 1.1908F, 1.1711F, 1.1514F, 1.1316F, 1.1119F, 1.0922F, 1.0725F, 1.0528F, 1.0331F, 1.0134F, 0.9937F, 0.9740F, 0.9543F, 0.9346F, 0.9149F, 0.8952F, 0.8755F, 0.8558F, 0.8361F, 0.8164F, 0.7967F, 0.7770F, 0.7573F, 0.7376F, 0.7179F, 0.6982F, 0.6784F, 0.6587F, 0.6390F, 0.6193F, 0.5996F, 0.5799F, 0.5602F, 0.5405F, 0.5208F, 0.5011F, 0.4814F, 0.4617F, 0.4420F, 0.4223F, 0.4026F, 0.3829F, 0.3632F, 0.3435F, 0.3238F, 0.3041F, 0.2844F, 0.2647F, 0.2449F, 0.2252F, 0.2055F, 0.1858F, 0.1661F, 0.1464F, 0.1267F, 0.1070F, 0.0873F, 0.0676F, 0.0479F, 0.0282F, 0.0085F, -0.0112F, -0.0309F, -0.0506F, -0.0703F, -0.0900F, -0.1097F, -0.1294F, -0.1491F, -0.1688F, -0.1885F, -0.2083F, -0.2280F, -0.2477F, -0.2674F, -0.2871F, -0.3068F, -0.3265F, -0.3462F, -0.3659F, -0.3856F, -0.4053F, -0.4250F, -0.4447F, -0.4644F, -0.4841F, -0.5038F, -0.5235F, -0.5432F, -0.5629F, -0.5826F, -0.6023F },
        { -0.5794F, -0.5597F, -0.5400F, -0.5203F, -0.5006F, -0.4808F, -0.4611F, -0.4414F, -0.4217F, -0.4020F, -0.3823F, -0.3626F, -0.3429F, -0.3232F, -0.3035F, -0.2838F, -0.2641F, -0.2444F, -0.2247F, -0.2050F, -0.1853F, -0.1656F, -0.1459F, -0.1262F, -0.1065F, -0.0868F, -0.0671F, -0.0474F, -0.0276F, -0.0079F, 0.0118F, 0.0315F, 0.0512F, 0.0709F, 0.0906F, 0.1103F, 0.1300F, 0.1497F, 0.1694F, 0.1891F, 0.2088F, 0.2285F, 0.2482F, 0.2679F, 0.2876F, 0.3073F, 0.3270F, 0.3467F, 0.3664F, 0.3861F, 0.4059F, 0.4256F, 0.4453F, 0.4650F, 0.4847F, 0.5044F, 0.5241F, 0.5438F, 0.5635F, 0.5832F, 0.6029F, 0.6226F, 0.6423F, 0.6620F, 0.6817F, 0.7014F, 0.7211F, 0.7408F, 0.7605F, 0.7802F, 0.7999F, 0.8196F, 0.8393F, 0.8591F, 0.8788F, 0.8985F, 0.9182F, 0.9379F, 0.9576F, 0.9773F, 0.9970F, 1.0167F, 1.0364F, 1.0561F, 1.0758F, 1.0955F, 1.1152F, 1.1349F, 1.1546F, 1.1743F, 1.1940F, 1.2137F, 1.2334F, 1.2531F, 1.2728F, 1.2925F, 1.3123F, 1.3320F, 1.3517F, 1.3714F, 1.3911F, 1.3911F, 1.3714F, 1.3517F, 1.3320F, 1.3123F, 1.2925F, 1.2728F, 1.2531F, 1.2334F, 1.2137F, 1.1940F, 1.1743F, 1.1546F, 1.1349F, 1.1152F, 1.0955F, 1.0758F, 1.0561F, 1.0364F, 1.0167F, 0.9970F, 0.9773F, 0.9576F, 0.9379F, 0.9182F, 0.8985F, 0.8788F, 0.8591F, 0.8393F, 0.8196F, 0.7999F, 0.7802F, 0.7605F, 0.7408F, 0.7211F, 0.7014F, 0.6817F, 0.6620F, 0.6423F, 0.6226F, 0.6029F, 0.5832F, 0.5635F, 0.5438F, 0.5241F, 0.5044F, 0.4847F, 0.4650F, 0.4453F, 0.4256F, 0.4059F, 0.3861F, 0.3664F, 0.3467F, 0.3270F, 0.3073F, 0.2876F, 0.2679F, 0.2482F, 0.2285F, 0.2088F, 0.1891F, 0.1694F, 0.1497F, 0.1300F, 0.1103F, 0.0906F, 0.0709F, 0.0512F, 0.0315F, 0.0118F, -0.0079F, -0.0276F, -0.0474F, -0.0671F, -0.0868F, -0.1065F, -0.1262F, -0.1459F, -0.1656F, -0.1853F, -0.2050F, -0.2247F, -0.2444F, -0.2641F, -0.2838F, -0.3035F, -0.3232F, -0.3429F, -0.3626F, -0.3823F, -0.4020F, -0.4217F, -0.4414F, -0.4611F, -0.4808F, -0.5006F, -0.5203F, -0.5400F, -0.5597F, -0.5794F, -0.5991F },
        { -0.5765F, -0.5568F, -0.5371F, -0.5174F, -0.4977F, -0.4780F, -0.4583F, -0.4386F, -0.4189F, -0.3992F, -0.3795F, -0.3598F, -0.3401F, -0.3203F, -0.3006F, -0.2809F, -0.2612F, -0.2415F, -0.2218F, -0.2021F, -0.1824F, -0.1627F, -0.1430F, -0.1233F, -0.1036F, -0.0839F, -0.0642F, -0.0445F, -0.0248F, -0.0051F, 0.0146F, 0.0343F, 0.0540F, 0.0737F, 0.0934F, 0.1132F, 0.1329F, 0.1526F, 0.1723F, 0.1920F, 0.2117F, 0.2314F, 0.2511F, 0.2708F, 0.2905F, 0.3102F, 0.3299F, 0.3496F, 0.3693F, 0.3890F, 0.4087F, 0.4284F, 0.4481F, 0.4678F, 0.4875F, 0.5072F, 0.5269F, 0.5466F, 0.5664F, 0.5861F, 0.6058F, 0.6255F, 0.6452F, 0.6649F, 0.6846F, 0.7043F, 0.7240F, 0.7437F, 0.7634F, 0.7831F, 0.8028F, 0.8225F, 0.8422F, 0.8619F, 0.8816F, 0.9013F, 0.9210F, 0.9407F, 0.9604F, 0.9801F, 0.9999F, 1.0196F, 1.0393F, 1.0590F, 1.0787F, 1.0984F, 1.1181F, 1.1378F, 1.1575F, 1.1772F, 1.1969F, 1.2166F, 1.2363F, 1.2560F, 1.2757F, 1.2954F, 1.3151F, 1.3348F, 1.3545F, 1.3742F, 1.3939F, 1.3939F, 1.3742F, 1.3545F, 1.3348F, 1.3151F, 1.2954F, 1.2757F, 1.2560F, 1.2363F, 1.2166F, 1.1969F, 1.1772F, 1.1575F, 1.1378F, 1.1181F, 1.0984F, 1.0787F, 1.0590F, 1.0393F, 1.0196F, 0.9999F, 0.9801F, 0.9604F, 0.9407F, 0.9210F, 0.9013F, 0.8816F, 0.8619F, 0.8422F, 0.8225F, 0.8028F, 0.7831F, 0.7634F, 0.7437F, 0.7240F, 0.7043F, 0.6846F, 0.6649F, 0.6452F, 0.6255F, 0.6058F, 0.5861F, 0.5664F, 0.5466F, 0.5269F, 0.5072F, 0.4875F, 0.4678F, 0.4481F, 0.4284F, 0.4087F, 0.3890F, 0.3693F, 0.3496F, 0.3299F, 0.3102F, 0.2905F, 0.2708F, 0.2511F, 0.2314F, 0.2117F, 0.1920F, 0.1723F, 0.1526F, 0.1329F, 0.1132F, 0.0934F, 0.0737F, 0.0540F, 0.0343F, 0.0146F, -0.0051F, -0.0248F, -0.0445F, -0.0642F, -0.0839F, -0.1036F, -0.1233F, -0.1430F, -0.1627F, -0.1824F, -0.2021F, -0.2218F, -0.2415F, -0.2612F, -0.2809F, -0.3006F, -0.3203F, -0.3401F, -0.3598F, -0.3795F, -0.3992F, -0.4189F, -0.4386F, -0.4583F, -0.4780F, -0.4977F, -0.5174F, -0.5371F, -0.5568F, -0.5765F, -0.5962F },
        { -0.5740F, -0.5543F, -0.5346F, -0.5149F, -0.4952F, -0.4755F, -0.4558F, -0.4361F, -0.4164F, -0.3967F, -0.3770F, -0.3573F, -0.3376F, -0.3179F, -0.2982F, -0.2785F, -0.2588F, -0.2391F, -0.2194F, -0.1997F, -0.1799F, -0.1602F, -0.1405F, -0.1208F, -0.1011F, -0.0814F, -0.0617F, -0.0420F, -0.0223F, -0.0026F, 0.0171F, 0.0368F, 0.0565F, 0.0762F, 0.0959F, 0.1156F, 0.1353F, 0.1550F, 0.1747F, 0.1944F, 0.2141F, 0.2338F, 0.2535F, 0.2733F, 0.2930F, 0.3127F, 0.3324F, 0.3521F, 0.3718F, 0.3915F, 0.4112F, 0.4309F, 0.4506F, 0.4703F, 0.4900F, 0.5097F, 0.5294F, 0.5491F, 0.5688F, 0.5885F, 0.6082F, 0.6279F, 0.6476F, 0.6673F, 0.6870F, 0.7068F, 0.7265F, 0.7462F, 0.7659F, 0.7856F, 0.8053F, 0.8250F, 0.8447F, 0.8644F, 0.8841F, 0.9038F, 0.9235F, 0.9432F, 0.9629F, 0.9826F, 1.0023F, 1.0220F, 1.0417F, 1.0614F, 1.0811F, 1.1008F, 1.1205F, 1.1402F, 1.1600F, 1.1797F, 1.1994F, 1.2191F, 1.2388F, 1.2585F, 1.2782F, 1.2979F, 1.3176F, 1.3373F, 1.3570F, 1.3767F, 1.3964F, 1.3964F, 1.3767F, 1.3570F, 1.3373F, 1.3176F, 1.2979F, 1.2782F, 1.2585F, 1.2388F, 1.2191F, 1.1994F, 1.1797F, 1.1600F, 1.1402F, 1.1205F, 1.1008F, 1.0811F, 1.0614F, 1.0417F, 1.0220F, 1.0023F, 0.9826F, 0.9629F, 0.9432F, 0.9235F, 0.9038F, 0.8841F, 0.8644F, 0.8447F, 0.8250F, 0.8053F, 0.7856F, 0.7659F, 0.7462F, 0.7265F, 0.7068F, 0.6870F, 0.6673F, 0.6476F, 0.6279F, 0.6082F, 0.5885F, 0.5688F, 0.5491F, 0.5294F, 0.5097F, 0.4900F, 0.4703F, 0.4506F, 0.4309F, 0.4112F, 0.3915F, 0.3718F, 0.3521F, 0.3324F, 0.3127F, 0.2930F, 0.2733F, 0.2535F, 0.2338F, 0.2141F, 0.1944F, 0.1747F, 0.1550F, 0.1353F, 0.1156F, 0.0959F, 0.0762F, 0.0565F, 0.0368F, 0.0171F, -0.0026F, -0.0223F, -0.0420F, -0.0617F, -0.0814F, -0.1011F, -0.1208F, -0.1405F, -0.1602F, -0.1799F, -0.1997F, -0.2194F, -0.2391F, -0.2588F, -0.2785F, -0.2982F, -0.3179F, -0.3376F, -0.3573F, -0.3770F, -0.3967F, -0.4164F, -0.4361F, -0.4558F, -0.4755F, -0.4952F, -0.5149F, -0.5346F, -0.5543F, -0.5740F, -0.5937F },
        { -0.5720F, -0.5523F, -0.5326F, -0.5129F, -0.4932F, -0.4734F, -0.4537F, -0.4340F, -0.4143F, -0.3946F, -0.3749F, -0.3552F, -0.3355F, -0.3158F, -0.2961F, -0.2764F, -0.2567F, -0.2370F, -0.2173F, -0.1976F, -0.1779F, -0.1582F, -0.1385F, -0.1188F, -0.0991F, -0.0794F, -0.0597F, -0.0400F, -0.0202F, -0.0005F, 0.0192F, 0.0389F, 0.0586F, 0.0783F, 0.0980F, 0.1177F, 0.1374F, 0.1571F, 0.1768F, 0.1965F, 0.2162F, 0.2359F, 0.2556F, 0.2753F, 0.2950F, 0.3147F, 0.3344F, 0.3541F, 0.3738F, 0.3935F, 0.4133F, 0.4330F, 0.4527F, 0.4724F, 0.4921F, 0.5118F, 0.5315F, 0.5512F, 0.5709F, 0.5906F, 0.6103F, 0.6300F, 0.6497F, 0.6694F, 0.6891F, 0.7088F, 0.7285F, 0.7482F, 0.7679F, 0.7876F, 0.8073F, 0.8270F, 0.8467F, 0.8665F, 0.8862F, 0.9059F, 0.9256F, 0.9453F, 0.9650F, 0.9847F, 1.0044F, 1.0241F, 1.0438F, 1.0635F, 1.0832F, 1.1029F, 1.1226F, 1.1423F, 1.1620F, 1.1817F, 1.2014F, 1.2211F, 1.2408F, 1.2605F, 1.2802F, 1.2999F, 1.3197F, 1.3394F, 1.3591F, 1.3788F, 1.3985F, 1.3985F, 1.3788F, 1.3591F, 1.3394F, 1.3197F, 1.2999F, 1.2802F, 1.2605F, 1.2408F, 1.2211F, 1.2014F, 1.1817F, 1.1620F, 1.1423F, 1.1226F, 1.1029F, 1.0832F, 1.0635F, 1.0438F, 1.0241F, 1.0044F, 0.9847F, 0.9650F, 0.9453F, 0.9256F, 0.9059F, 0.8862F, 0.8665F, 0.8467F, 0.8270F, 0.8073F, 0.7876F, 0.7679F, 0.7482F, 0.7285F, 0.7088F, 0.6891F, 0.6694F, 0.6497F, 0.6300F, 0.6103F, 0.5906F, 0.5709F, 0.5512F, 0.5315F, 0.5118F, 0.4921F, 0.4724F, 0.4527F, 0.4330F, 0.4133F, 0.3935F, 0.3738F, 0.3541F, 0.3344F, 0.3147F, 0.2950F, 0.2753F, 0.2556F, 0.2359F, 0.2162F, 0.1965F, 0.1768F, 0.1571F, 0.1374F, 0.1177F, 0.0980F, 0.0783F, 0.0586F, 0.0389F, 0.0192F, -0.0005F, -0.0202F, -0.0400F, -0.0597F, -0.0794F, -0.0991F, -0.1188F, -0.1385F, -0.1582F, -0.1779F, -0.1976F, -0.2173F, -0.2370F, -0.2567F, -0.2764F, -0.2961F, -0.3158F, -0.3355F, -0.3552F, -0.3749F, -0.3946F, -0.4143F, -0.4340F, -0.4537F, -0.4734F, -0.4932F, -0.5129F, -0.5326F, -0.5523F, -0.5720F, -0.5917F },
        { -0.5703F, -0.5506F, -0.5309F, -0.5112F, -0.4915F, -0.4718F, -0.4521F, -0.4324F, -0.4127F, -0.3930F, -0.3733F, -0.3536F, -0.3339F, -0.3141F, -0.2944F, -0.2747F, -0.2550F, -0.2353F, -0.2156F, -0.1959F, -0.1762F, -0.1565F, -0.1368F, -0.1171F, -0.0974F, -0.0777F, -0.0580F, -0.0383F, -0.0186F, 0.0011F, 0.0208F, 0.0405F, 0.0602F, 0.0799F, 0.0996F, 0.1194F, 0.1391F, 0.1588F, 0.1785F, 0.1982F, 0.2179F, 0.2376F, 0.2573F, 0.2770F, 0.2967F, 0.3164F, 0.3361F, 0.3558F, 0.3755F, 0.3952F, 0.4149F, 0.4346F, 0.4543F, 0.4740F, 0.4937F, 0.5134F, 0.5331F, 0.5528F, 0.5726F, 0.5923F, 0.6120F, 0.6317F, 0.6514F, 0.6711F, 0.6908F, 0.7105F, 0.7302F, 0.7499F, 0.7696F, 0.7893F, 0.8090F, 0.8287F, 0.8484F, 0.8681F, 0.8878F, 0.9075F, 0.9272F, 0.9469F, 0.9666F, 0.9863F, 1.0061F, 1.0258F, 1.0455F, 1.0652F, 1.0849F, 1.1046F, 1.1243F, 1.1440F, 1.1637F, 1.1834F, 1.2031F, 1.2228F, 1.2425F, 1.2622F, 1.2819F, 1.3016F, 1.3213F, 1.3410F, 1.3607F, 1.3804F, 1.4001F, 1.4001F, 1.3804F, 1.3607F, 1.3410F, 1.3213F, 1.3016F, 1.2819F, 1.2622F, 1.2425F, 1.2228F, 1.2031F, 1.1834F, 1.1637F, 1.1440F, 1.1243F, 1.1046F, 1.0849F, 1.0652F, 1.0455F, 1.0258F, 1.0061F, 0.9863F, 0.9666F, 0.9469F, 0.9272F, 0.9075F, 0.8878F, 0.8681F, 0.8484F, 0.8287F, 0.8090F, 0.7893F, 0.7696F, 0.7499F, 0.7302F, 0.7105F, 0.6908F, 0.6711F, 0.6514F, 0.6317F, 0.6120F, 0.5923F, 0.5726F, 0.5528F, 0.5331F, 0.5134F, 0.4937F, 0.4740F, 0.4543F, 0.4346F, 0.4149F, 0.3952F, 0.3755F, 0.3558F, 0.3361F, 0.3164F, 0.2967F, 0.2770F, 0.2573F, 0.2376F, 0.2179F, 0.1982F, 0.1785F, 0.1588F, 0.1391F, 0.1194F, 0.0996F, 0.0799F, 0.0602F, 0.0405F, 0.0208F, 0.0011F, -0.0186F, -0.0383F, -0.0580F, -0.0777F, -0.0974F, -0.1171F, -0.1368F, -0.1565F, -0.1762F, -0.1959F, -0.2156F, -0.2353F, -0.2550F, -0.2747F, -0.2944F, -0.3141F, -0.3339F, -0.3536F, -0.3733F, -0.3930F, -0.4127F, -0.4324F, -0.4521F, -0.4718F, -0.4915F, -0.5112F, -0.5309F, -0.5506F, -0.5703F, -0.5900F },
        { -0.5690F, -0.5493F, -0.5296F, -0.5099F, -0.4902F, -0.4705F, -0.4508F, -0.4311F, -0.4114F, -0.3917F, -0.3720F, -0.3523F, -0.3326F, -0.3129F, -0.2932F, -0.2735F, -0.2538F, -0.2341F, -0.2144F, -0.1947F, -0.1749F, -0.1552F, -0.1355F, -0.1158F, -0.0961F, -0.0764F, -0.0567F, -0.0370F, -0.0173F, 0.0024F, 0.0221F, 0.0418F, 0.0615F, 0.0812F, 0.1009F, 0.1206F, 0.1403F, 0.1600F, 0.1797F, 0.1994F, 0.2191F, 0.2388F, 0.2585F, 0.2783F, 0.2980F, 0.3177F, 0.3374F, 0.3571F, 0.3768F, 0.3965F, 0.4162F, 0.4359F, 0.4556F, 0.4753F, 0.4950F, 0.5147F, 0.5344F, 0.5541F, 0.5738F, 0.5935F, 0.6132F, 0.6329F, 0.6526F, 0.6723F, 0.6920F, 0.7118F, 0.7315F, 0.7512F, 0.7709F, 0.7906F, 0.8103F, 0.8300F, 0.8497F, 0.8694F, 0.8891F, 0.9088F, 0.9285F, 0.9482F, 0.9679F, 0.9876F, 1.0073F, 1.0270F, 1.0467F, 1.0664F, 1.0861F, 1.1058F, 1.1255F, 1.1452F, 1.1650F, 1.1847F, 1.2044F, 1.2241F, 1.2438F, 1.2635F, 1.2832F, 1.3029F, 1.3226F, 1.3423F, 1.3620F, 1.3817F, 1.4014F, 1.4014F, 1.3817F, 1.3620F, 1.3423F, 1.3226F, 1.3029F, 1.2832F, 1.2635F, 1.2438F, 1.2241F, 1.2044F, 1.1847F, 1.1650F, 1.1452F, 1.1255F, 1.1058F, 1.0861F, 1.0664F, 1.0467F, 1.0270F, 1.0073F, 0.9876F, 0.9679F, 0.9482F, 0.9285F, 0.9088F, 0.8891F, 0.8694F, 0.8497F, 0.8300F, 0.8103F, 0.7906F, 0.7709F, 0.7512F, 0.7315F, 0.7118F, 0.6920F, 0.6723F, 0.6526F, 0.6329F, 0.6132F, 0.5935F, 0.5738F, 0.5541F, 0.5344F, 0.5147F, 0.4950F, 0.4753F, 0.4556F, 0.4359F, 0.4162F, 0.3965F, 0.3768F, 0.3571F, 0.3374F, 0.3177F, 0.2980F, 0.2783F, 0.2585F, 0.2388F, 0.2191F, 0.1994F, 0.1797F, 0.1600F, 0.1403F, 0.1206F, 0.1009F, 0.0812F, 0.0615F, 0.0418F, 0.0221F, 0.0024F, -0.0173F, -0.0370F, -0.0567F, -0.0764F, -0.0961F, -0.1158F, -0.1355F, -0.1552F, -0.1749F, -0.1947F, -0.2144F, -0.2341F, -0.2538F, -0.2735F, -0.2932F, -0.3129F, -0.3326F, -0.3523F, -0.3720F, -0.3917F, -0.4114F, -0.4311F, -0.4508F, -0.4705F, -0.4902F, -0.5099F, -0.5296F, -0.5493F, -0.5690F, -0.5887F },
        { -0.5682F, -0.5485F, -0.5288F, -0.5091F, -0.4894F, -0.4696F, -0.4499F, -0.4302F, -0.4105F, -0.3908F, -0.3711F, -0.3514F, -0.3317F, -0.3120F, -0.2923F, -0.2726F, -0.2529F, -0.2332F, -0.2135F, -0.1938F, -0.1741F, -0.1544F, -0.1347F, -0.1150F, -0.0953F, -0.0756F, -0.0559F, -0.0362F, -0.0164F, 0.0033F, 0.0230F, 0.0427F, 0.0624F, 0.0821F, 0.1018F, 0.1215F, 0.1412F, 0.1609F, 0.1806F, 0.2003F, 0.2200F, 0.2397F, 0.2594F, 0.2791F, 0.2988F, 0.3185F, 0.3382F, 0.3579F, 0.3776F, 0.3973F, 0.4171F, 0.4368F, 0.4565F, 0.4762F, 0.4959F, 0.5156F, 0.5353F, 0.5550F, 0.5747F, 0.5944F, 0.6141F, 0.6338F, 0.6535F, 0.6732F, 0.6929F, 0.7126F, 0.7323F, 0.7520F, 0.7717F, 0.7914F, 0.8111F, 0.8308F, 0.8505F, 0.8703F, 0.8900F, 0.9097F, 0.9294F, 0.9491F, 0.9688F, 0.9885F, 1.0082F, 1.0279F, 1.0476F, 1.0673F, 1.0870F, 1.1067F, 1.1264F, 1.1461F, 1.1658F, 1.1855F, 1.2052F, 1.2249F, 1.2446F, 1.2643F, 1.2840F, 1.3037F, 1.3235F, 1.3432F, 1.3629F, 1.3826F, 1.4023F, 1.4023F, 1.3826F, 1.3629F, 1.3432F, 1.3235F, 1.3037F, 1.2840F, 1.2643F, 1.2446F, 1.2249F, 1.2052F, 1.1855F, 1.1658F, 1.1461F, 1.1264F, 1.1067F, 1.0870F, 1.0673F, 1.0476F, 1.0279F, 1.0082F, 0.9885F, 0.9688F, 0.9491F, 0.9294F, 0.9097F, 0.8900F, 0.8703F, 0.8505F, 0.8308F, 0.8111F, 0.7914F, 0.7717F, 0.7520F, 0.7323F, 0.7126F, 0.6929F, 0.6732F, 0.6535F, 0.6338F, 0.6141F, 0.5944F, 0.5747F, 0.5550F, 0.5353F, 0.5156F, 0.4959F, 0.4762F, 0.4565F, 0.4368F, 0.4171F, 0.3973F, 0.3776F, 0.3579F, 0.3382F, 0.3185F, 0.2988F, 0.2791F, 0.2594F, 0.2397F, 0.2200F, 0.2003F, 0.1806F, 0.1609F, 0.1412F, 0.1215F, 0.1018F, 0.0821F, 0.0624F, 0.0427F, 0.0230F, 0.0033F, -0.0164F, -0.0362F, -0.0559F, -0.0756F, -0.0953F, -0.1150F, -0.1347F, -0.1544F, -0.1741F, -0.1938F, -0.2135F, -0.2332F, -0.2529F, -0.2726F, -0.2923F, -0.3120F, -0.3317F, -0.3514F, -0.3711F, -0.3908F, -0.4105F, -0.4302F, -0.4499F, -0.4696F, -0.4894F, -0.5091F, -0.5288F, -0.5485F, -0.5682F, -0.5879F },
        { -0.5677F, -0.5480F, -0.5283F, -0.5086F, -0.4889F, -0.4692F, -0.4495F, -0.4298F, -0.4101F, -0.3904F, -0.3707F, -0.3510F, -0.3313F, -0.3115F, -0.2918F, -0.2721F, -0.2524F, -0.2327F, -0.2130F, -0.1933F, -0.1736F, -0.1539F, -0.1342F, -0.1145F, -0.0948F, -0.0751F, -0.0554F, -0.0357F, -0.0160F, 0.0037F, 0.0234F, 0.0431F, 0.0628F, 0.0825F, 0.1022F, 0.1220F, 0.1417F, 0.1614F, 0.1811F, 0.2008F, 0.2205F, 0.2402F, 0.2599F, 0.2796F, 0.2993F, 0.3190F, 0.3387F, 0.3584F, 0.3781F, 0.3978F, 0.4175F, 0.4372F, 0.4569F, 0.4766F, 0.4963F, 0.5160F, 0.5357F, 0.5554F, 0.5752F, 0.5949F, 0.6146F, 0.6343F, 0.6540F, 0.6737F, 0.6934F, 0.7131F, 0.7328F, 0.7525F, 0.7722F, 0.7919F, 0.8116F, 0.8313F, 0.8510F, 0.8707F, 0.8904F, 0.9101F, 0.9298F, 0.9495F, 0.9692F, 0.9889F, 1.0087F, 1.0284F, 1.0481F, 1.0678F, 1.0875F, 1.1072F, 1.1269F, 1.1466F, 1.1663F, 1.1860F, 1.2057F, 1.2254F, 1.2451F, 1.2648F, 1.2845F, 1.3042F, 1.3239F, 1.3436F, 1.3633F, 1.3830F, 1.4027F, 1.4027F, 1.3830F, 1.3633F, 1.3436F, 1.3239F, 1.3042F, 1.2845F, 1.2648F, 1.2451F, 1.2254F, 1.2057F, 1.1860F, 1.1663F, 1.1466F, 1.1269F, 1.1072F, 1.0875F, 1.0678F, 1.0481F, 1.0284F, 1.0087F, 0.9889F, 0.9692F, 0.9495F, 0.9298F, 0.9101F, 0.8904F, 0.8707F, 0.8510F, 0.8313F, 0.8116F, 0.7919F, 0.7722F, 0.7525F, 0.7328F, 0.7131F, 0.6934F, 0.6737F, 0.6540F, 0.6343F, 0.6146F, 0.5949F, 0.5752F, 0.5554F, 0.5357F, 0.5160F, 0.4963F, 0.4766F, 0.4569F, 0.4372F, 0.4175F, 0.3978F, 0.3781F, 0.3584F, 0.3387F, 0.3190F, 0.2993F, 0.2796F, 0.2599F, 0.2402F, 0.2205F, 0.2008F, 0.1811F, 0.1614F, 0.1417F, 0.1220F, 0.1022F, 0.0825F, 0.0628F, 0.0431F, 0.0234F, 0.0037F, -0.0160F, -0.0357F, -0.0554F, -0.0751F, -0.0948F, -0.1145F, -0.1342F, -0.1539F, -0.1736F, -0.1933F, -0.2130F, -0.2327F, -0.2524F, -0.2721F, -0.2918F, -0.3115F, -0.3313F, -0.3510F, -0.3707F, -0.3904F, -0.4101F, -0.4298F, -0.4495F, -0.4692F, -0.4889F, -0.5086F, -0.5283F, -0.5480F, -0.5677F, -0.5874F },
        { -0.5676F, -0.5479F, -0.5282F, -0.5085F, -0.4888F, -0.4691F, -0.4494F, -0.4297F, -0.4100F, -0.3903F, -0.3706F, -0.3509F, -0.3312F, -0.3115F, -0.2918F, -0.2721F, -0.2524F, -0.2327F, -0.2130F, -0.1933F, -0.1735F, -0.1538F, -0.1341F, -0.1144F, -0.0947F, -0.0750F, -0.0553F, -0.0356F, -0.0159F, 0.0038F, 0.0235F, 0.0432F, 0.0629F, 0.0826F, 0.1023F, 0.1220F, 0.1417F, 0.1614F, 0.1811F, 0.2008F, 0.2205F, 0.2402F, 0.2599F, 0.2797F, 0.2994F, 0.3191F, 0.3388F, 0.3585F, 0.3782F, 0.3979F, 0.4176F, 0.4373F, 0.4570F, 0.4767F, 0.4964F, 0.5161F, 0.5358F, 0.5555F, 0.5752F, 0.5949F, 0.6146F, 0.6343F, 0.6540F, 0.6737F, 0.6934F, 0.7132F, 0.7329F, 0.7526F, 0.7723F, 0.7920F, 0.8117F, 0.8314F, 0.8511F, 0.8708F, 0.8905F, 0.9102F, 0.9299F, 0.9496F, 0.9693F, 0.9890F, 1.0087F, 1.0284F, 1.0481F, 1.0678F, 1.0875F, 1.1072F, 1.1269F, 1.1466F, 1.1664F, 1.1861F, 1.2058F, 1.2255F, 1.2452F, 1.2649F, 1.2846F, 1.3043F, 1.3240F, 1.3437F, 1.3634F, 1.3831F, 1.4028F, 1.4028F, 1.3831F, 1.3634F, 1.3437F, 1.3240F, 1.3043F, 1.2846F, 1.2649F, 1.2452F, 1.2255F, 1.2058F, 1.1861F, 1.1664F, 1.1466F, 1.1269F, 1.1072F, 1.0875F, 1.0678F, 1.0481F, 1.0284F, 1.0087F, 0.9890F, 0.9693F, 0.9496F, 0.9299F, 0.9102F, 0.8905F, 0.8708F, 0.8511F, 0.8314F, 0.8117F, 0.7920F, 0.7723F, 0.7526F, 0.7329F, 0.7132F, 0.6934F, 0.6737F, 0.6540F, 0.6343F, 0.6146F, 0.5949F, 0.5752F, 0.5555F, 0.5358F, 0.5161F, 0.4964F, 0.4767F, 0.4570F, 0.4373F, 0.4176F, 0.3979F, 0.3782F, 0.3585F, 0.3388F, 0.3191F, 0.2994F, 0.2797F, 0.2599F, 0.2402F, 0.2205F, 0.2008F, 0.1811F, 0.1614F, 0.1417F, 0.1220F, 0.1023F, 0.0826F, 0.0629F, 0.0432F, 0.0235F, 0.0038F, -0.0159F, -0.0356F, -0.0553F, -0.0750F, -0.0947F, -0.1144F, -0.1341F, -0.1538F, -0.1735F, -0.1933F, -0.2130F, -0.2327F, -0.2524F, -0.2721F, -0.2918F, -0.3115F, -0.3312F, -0.3509F, -0.3706F, -0.3903F, -0.4100F, -0.4297F, -0.4494F, -0.4691F, -0.4888F, -0.5085F, -0.5282F, -0.5479F, -0.5676F, -0.5873F },
        { -0.5680F, -0.5483F, -0.5286F, -0.5089F, -0.4892F, -0.4694F, -0.4497F, -0.4300F, -0.4103F, -0.3906F, -0.3709F, -0.3512F, -0.3315F, -0.3118F, -0.2921F, -0.2724F, -0.2527F, -0.2330F, -0.2133F, -0.1936F, -0.1739F, -0.1542F, -0.1345F, -0.1148F, -0.0951F, -0.0754F, -0.0557F, -0.0360F, -0.0162F, 0.0035F, 0.0232F, 0.0429F, 0.0626F, 0.0823F, 0.1020F, 0.1217F, 0.1414F, 0.1611F, 0.1808F, 0.2005F, 0.2202F, 0.2399F, 0.2596F, 0.2793F, 0.2990F, 0.3187F, 0.3384F, 0.3581F, 0.3778F, 0.3975F, 0.4173F, 0.4370F, 0.4567F, 0.4764F, 0.4961F, 0.5158F, 0.5355F, 0.5552F, 0.5749F, 0.5946F, 0.6143F, 0.6340F, 0.6537F, 0.6734F, 0.6931F, 0.7128F, 0.7325F, 0.7522F, 0.7719F, 0.7916F, 0.8113F, 0.8310F, 0.8507F, 0.8705F, 0.8902F, 0.9099F, 0.9296F, 0.9493F, 0.9690F, 0.9887F, 1.0084F, 1.0281F, 1.0478F, 1.0675F, 1.0872F, 1.1069F, 1.1266F, 1.1463F, 1.1660F, 1.1857F, 1.2054F, 1.2251F, 1.2448F, 1.2645F, 1.2842F, 1.3039F, 1.3237F, 1.3434F, 1.3631F, 1.3828F, 1.4025F, 1.4025F, 1.3828F, 1.3631F, 1.3434F, 1.3237F, 1.3039F, 1.2842F, 1.2645F, 1.2448F, 1.2251F, 1.2054F, 1.1857F, 1.1660F, 1.1463F, 1.1266F, 1.1069F, 1.0872F, 1.0675F, 1.0478F, 1.0281F, 1.0084F, 0.9887F, 0.9690F, 0.9493F, 0.9296F, 0.9099F, 0.8902F, 0.8705F, 0.8507F, 0.8310F, 0.8113F, 0.7916F, 0.7719F, 0.7522F, 0.7325F, 0.7128F, 0.6931F, 0.6734F, 0.6537F, 0.6340F, 0.6143F, 0.5946F, 0.5749F, 0.5552F, 0.5355F, 0.5158F, 0.4961F, 0.4764F, 0.4567F, 0.4370F, 0.4173F, 0.3975F, 0.3778F, 0.3581F, 0.3384F, 0.3187F, 0.2990F, 0.2793F, 0.2596F, 0.2399F, 0.2202F, 0.2005F, 0.1808F, 0.1611F, 0.1414F, 0.1217F, 0.1020F, 0.0823F, 0.0626F, 0.0429F, 0.0232F, 0.0035F, -0.0162F, -0.0360F, -0.0557F, -0.0754F, -0.0951F, -0.1148F, -0.1345F, -0.1542F, -0.1739F, -0.1936F, -0.2133F, -0.2330F, -0.2527F, -0.2724F, -0.2921F, -0.3118F, -0.3315F, -0.3512F, -0.3709F, -0.3906F, -0.4103F, -0.4300F, -0.4497F, -0.4694F, -0.4892F, -0.5089F, -0.5286F, -0.5483F, -0.5680F, -0.5877F },
        { -0.5687F, -0.5490F, -0.5293F, -0.5096F, -0.4899F, -0.4702F, -0.4505F, -0.4308F, -0.4111F, -0.3914F, -0.3717F, -0.3520F, -0.3323F, -0.3125F, -0.2928F, -0.2731F, -0.2534F, -0.2337F, -0.2140F, -0.1943F, -0.1746F, -0.1549F, -0.1352F, -0.1155F, -0.0958F, -0.0761F, -0.0564F, -0.0367F, -0.0170F, 0.0027F, 0.0224F, 0.0421F, 0.0618F, 0.0815F, 0.1012F, 0.1210F, 0.1407F, 0.1604F, 0.1801F, 0.1998F, 0.2195F, 0.2392F, 0.2589F, 0.2786F, 0.2983F, 0.3180F, 0.3377F, 0.3574F, 0.3771F, 0.3968F, 0.4165F, 0.4362F, 0.4559F, 0.4756F, 0.4953F, 0.5150F, 0.5347F, 0.5544F, 0.5742F, 0.5939F, 0.6136F, 0.6333F, 0.6530F, 0.6727F, 0.6924F, 0.7121F, 0.7318F, 0.7515F, 0.7712F, 0.7909F, 0.8106F, 0.8303F, 0.8500F, 0.8697F, 0.8894F, 0.9091F, 0.9288F, 0.9485F, 0.9682F, 0.9879F, 1.0077F, 1.0274F, 1.0471F, 1.0668F, 1.0865F, 1.1062F, 1.1259F, 1.1456F, 1.1653F, 1.1850F, 1.2047F, 1.2244F, 1.2441F, 1.2638F, 1.2835F, 1.3032F, 1.3229F, 1.3426F, 1.3623F, 1.3820F, 1.4017F, 1.4017F, 1.3820F, 1.3623F, 1.3426F, 1.3229F, 1.3032F, 1.2835F, 1.2638F, 1.2441F, 1.2244F, 1.2047F, 1.1850F, 1.1653F, 1.1456F, 1.1259F, 1.1062F, 1.0865F, 1.0668F, 1.0471F, 1.0274F, 1.0077F, 0.9879F, 0.9682F, 0.9485F, 0.9288F, 0.9091F, 0.8894F, 0.8697F, 0.8500F, 0.8303F, 0.8106F, 0.7909F, 0.7712F, 0.7515F, 0.7318F, 0.7121F, 0.6924F, 0.6727F, 0.6530F, 0.6333F, 0.6136F, 0.5939F, 0.5742F, 0.5544F, 0.5347F, 0.5150F, 0.4953F, 0.4756F, 0.4559F, 0.4362F, 0.4165F, 0.3968F, 0.3771F, 0.3574F, 0.3377F, 0.3180F, 0.2983F, 0.2786F, 0.2589F, 0.2392F, 0.2195F, 0.1998F, 0.1801F, 0.1604F, 0.1407F, 0.1210F, 0.1012F, 0.0815F, 0.0618F, 0.0421F, 0.0224F, 0.0027F, -0.0170F, -0.0367F, -0.0564F, -0.0761F, -0.0958F, -0.1155F, -0.1352F, -0.1549F, -0.1746F, -0.1943F, -0.2140F, -0.2337F, -0.2534F, -0.2731F, -0.2928F, -0.3125F, -0.3323F, -0.3520F, -0.3717F, -0.3914F, -0.4111F, -0.4308F, -0.4505F, -0.4702F, -0.4899F, -0.5096F, -0.5293F, -0.5490F, -0.5687F, -0.5884F },
        { -0.5698F, -0.5501F, -0.5304F, -0.5107F, -0.4910F, -0.4713F, -0.4516F, -0.4319F, -0.4122F, -0.3925F, -0.3728F, -0.3531F, -0.3334F, -0.3137F, -0.2940F, -0.2743F, -0.2546F, -0.2349F, -0.2152F, -0.1955F, -0.1757F, -0.1560F, -0.1363F, -0.1166F, -0.0969F, -0.0772F, -0.0575F, -0.0378F, -0.0181F, 0.0016F, 0.0213F, 0.0410F, 0.0607F, 0.0804F, 0.1001F, 0.1198F, 0.1395F, 0.1592F, 0.1789F, 0.1986F, 0.2183F, 0.2380F, 0.2577F, 0.2775F, 0.2972F, 0.3169F, 0.3366F, 0.3563F, 0.3760F, 0.3957F, 0.4154F, 0.4351F, 0.4548F, 0.4745F, 0.4942F, 0.5139F, 0.5336F, 0.5533F, 0.5730F, 0.5927F, 0.6124F, 0.6321F, 0.6518F, 0.6715F, 0.6912F, 0.7110F, 0.7307F, 0.7504F, 0.7701F, 0.7898F, 0.8095F, 0.8292F, 0.8489F, 0.8686F, 0.8883F, 0.9080F, 0.9277F, 0.9474F, 0.9671F, 0.9868F, 1.0065F, 1.0262F, 1.0459F, 1.0656F, 1.0853F, 1.1050F, 1.1247F, 1.1444F, 1.1642F, 1.1839F, 1.2036F, 1.2233F, 1.2430F, 1.2627F, 1.2824F, 1.3021F, 1.3218F, 1.3415F, 1.3612F, 1.3809F, 1.4006F, 1.4006F, 1.3809F, 1.3612F, 1.3415F, 1.3218F, 1.3021F, 1.2824F, 1.2627F, 1.2430F, 1.2233F, 1.2036F, 1.1839F, 1.1642F, 1.1444F, 1.1247F, 1.1050F, 1.0853F, 1.0656F, 1.0459F, 1.0262F, 1.0065F, 0.9868F, 0.9671F, 0.9474F, 0.9277F, 0.9080F, 0.8883F, 0.8686F, 0.8489F, 0.8292F, 0.8095F, 0.7898F, 0.7701F, 0.7504F, 0.7307F, 0.7110F, 0.6912F, 0.6715F, 0.6518F, 0.6321F, 0.6124F, 0.5927F, 0.5730F, 0.5533F, 0.5336F, 0.5139F, 0.4942F, 0.4745F, 0.4548F, 0.4351F, 0.4154F, 0.3957F, 0.3760F, 0.3563F, 0.3366F, 0.3169F, 0.2972F, 0.2775F, 0.2577F, 0.2380F, 0.2183F, 0.1986F, 0.1789F, 0.1592F, 0.1395F, 0.1198F, 0.1001F, 0.0804F, 0.0607F, 0.0410F, 0.0213F, 0.0016F, -0.0181F, -0.0378F, -0.0575F, -0.0772F, -0.0969F, -0.1166F, -0.1363F, -0.1560F, -0.1757F, -0.1955F, -0.2152F, -0.2349F, -0.2546F, -0.2743F, -0.2940F, -0.3137F, -0.3334F, -0.3531F, -0.3728F, -0.3925F, -0.4122F, -0.4319F, -0.4516F, -0.4713F, -0.4910F, -0.5107F, -0.5304F, -0.5501F, -0.5698F, -0.5895F },
        { -0.5714F, -0.5517F, -0.5320F, -0.5123F, -0.4926F, -0.4728F, -0.4531F, -0.4334F, -0.4137F, -0.3940F, -0.3743F, -0.3546F, -0.3349F, -0.3152F, -0.2955F, -0.2758F, -0.2561F, -0.2364F, -0.2167F, -0.1970F, -0.1773F, -0.1576F, -0.1379F, -0.1182F, -0.0985F, -0.0788F, -0.0591F, -0.0394F, -0.0196F, 0.0001F, 0.0198F, 0.0395F, 0.0592F, 0.0789F, 0.0986F, 0.1183F, 0.1380F, 0.1577F, 0.1774F, 0.1971F, 0.2168F, 0.2365F, 0.2562F, 0.2759F, 0.2956F, 0.3153F, 0.3350F, 0.3547F, 0.3744F, 0.3941F, 0.4139F, 0.4336F, 0.4533F, 0.4730F, 0.4927F, 0.5124F, 0.5321F, 0.5518F, 0.5715F, 0.5912F, 0.6109F, 0.6306F, 0.6503F, 0.6700F, 0.6897F, 0.7094F, 0.7291F, 0.7488F, 0.7685F, 0.7882F, 0.8079F, 0.8276F, 0.8473F, 0.8671F, 0.8868F, 0.9065F, 0.9262F, 0.9459F, 0.9656F, 0.9853F, 1.0050F, 1.0247F, 1.0444F, 1.0641F, 1.0838F, 1.1035F, 1.1232F, 1.1429F, 1.1626F, 1.1823F, 1.2020F, 1.2217F, 1.2414F, 1.2611F, 1.2808F, 1.3005F, 1.3203F, 1.3400F, 1.3597F, 1.3794F, 1.3991F, 1.3991F, 1.3794F, 1.3597F, 1.3400F, 1.3203F, 1.3005F, 1.2808F, 1.2611F, 1.2414F, 1.2217F, 1.2020F, 1.1823F, 1.1626F, 1.1429F, 1.1232F, 1.1035F, 1.0838F, 1.0641F, 1.0444F, 1.0247F, 1.0050F, 0.9853F, 0.9656F, 0.9459F, 0.9262F, 0.9065F, 0.8868F, 0.8671F, 0.8473F, 0.8276F, 0.8079F, 0.7882F, 0.7685F, 0.7488F, 0.7291F, 0.7094F, 0.6897F, 0.6700F, 0.6503F, 0.6306F, 0.6109F, 0.5912F, 0.5715F, 0.5518F, 0.5321F, 0.5124F, 0.4927F, 0.4730F, 0.4533F, 0.4336F, 0.4139F, 0.3941F, 0.3744F, 0.3547F, 0.3350F, 0.3153F, 0.2956F, 0.2759F, 0.2562F, 0.2365F, 0.2168F, 0.1971F, 0.1774F, 0.1577F, 0.1380F, 0.1183F, 0.0986F, 0.0789F, 0.0592F, 0.0395F, 0.0198F, 0.0001F, -0.0196F, -0.0394F, -0.0591F, -0.0788F, -0.0985F, -0.1182F, -0.1379F, -0.1576F, -0.1773F, -0.1970F, -0.2167F, -0.2364F, -0.2561F, -0.2758F, -0.2955F, -0.3152F, -0.3349F, -0.3546F, -0.3743F, -0.3940F, -0.4137F, -0.4334F, -0.4531F, -0.4728F, -0.4926F, -0.5123F, -0.5320F, -0.5517F, -0.5714F, -0.5911F },
        { -0.5733F, -0.5536F, -0.5339F, -0.5142F, -0.4945F, -0.4748F, -0.4551F, -0.4354F, -0.4157F, -0.3960F, -0.3763F, -0.3566F, -0.3369F, -0.3171F, -0.2974F, -0.2777F, -0.2580F, -0.2383F, -0.2186F, -0.1989F, -0.1792F, -0.1595F, -0.1398F, -0.1201F, -0.1004F, -0.0807F, -0.0610F, -0.0413F, -0.0216F, -0.0019F, 0.0178F, 0.0375F, 0.0572F, 0.0769F, 0.0966F, 0.1164F, 0.1361F, 0.1558F, 0.1755F, 0.1952F, 0.2149F, 0.2346F, 0.2543F, 0.2740F, 0.2937F, 0.3134F, 0.3331F, 0.3528F, 0.3725F, 0.3922F, 0.4119F, 0.4316F, 0.4513F, 0.4710F, 0.4907F, 0.5104F, 0.5301F, 0.5498F, 0.5696F, 0.5893F, 0.6090F, 0.6287F, 0.6484F, 0.6681F, 0.6878F, 0.7075F, 0.7272F, 0.7469F, 0.7666F, 0.7863F, 0.8060F, 0.8257F, 0.8454F, 0.8651F, 0.8848F, 0.9045F, 0.9242F, 0.9439F, 0.9636F, 0.9833F, 1.0031F, 1.0228F, 1.0425F, 1.0622F, 1.0819F, 1.1016F, 1.1213F, 1.1410F, 1.1607F, 1.1804F, 1.2001F, 1.2198F, 1.2395F, 1.2592F, 1.2789F, 1.2986F, 1.3183F, 1.3380F, 1.3577F, 1.3774F, 1.3971F, 1.3971F, 1.3774F, 1.3577F, 1.3380F, 1.3183F, 1.2986F, 1.2789F, 1.2592F, 1.2395F, 1.2198F, 1.2001F, 1.1804F, 1.1607F, 1.1410F, 1.1213F, 1.1016F, 1.0819F, 1.0622F, 1.0425F, 1.0228F, 1.0031F, 0.9833F, 0.9636F, 0.9439F, 0.9242F, 0.9045F, 0.8848F, 0.8651F, 0.8454F, 0.8257F, 0.8060F, 0.7863F, 0.7666F, 0.7469F, 0.7272F, 0.7075F, 0.6878F, 0.6681F, 0.6484F, 0.6287F, 0.6090F, 0.5893F, 0.5696F, 0.5498F, 0.5301F, 0.5104F, 0.4907F, 0.4710F, 0.4513F, 0.4316F, 0.4119F, 0.3922F, 0.3725F, 0.3528F, 0.3331F, 0.3134F, 0.2937F, 0.2740F, 0.2543F, 0.2346F, 0.2149F, 0.1952F, 0.1755F, 0.1558F, 0.1361F, 0.1164F, 0.0966F, 0.0769F, 0.0572F, 0.0375F, 0.0178F, -0.0019F, -0.0216F, -0.0413F, -0.0610F, -0.0807F, -0.1004F, -0.1201F, -0.1398F, -0.1595F, -0.1792F, -0.1989F, -0.2186F, -0.2383F, -0.2580F, -0.2777F, -0.2974F, -0.3171F, -0.3369F, -0.3566F, -0.3763F, -0.3960F, -0.4157F, -0.4354F, -0.4551F, -0.4748F, -0.4945F, -0.5142F, -0.5339F, -0.5536F, -0.5733F, -0.5930F },
        { -0.5756F, -0.5559F, -0.5362F, -0.5165F, -0.4968F, -0.4771F, -0.4574F, -0.4377F, -0.4180F, -0.3983F, -0.3786F, -0.3589F, -0.3392F, -0.3195F, -0.2998F, -0.2801F, -0.2604F, -0.2407F, -0.2210F, -0.2013F, -0.1815F, -0.1618F, -0.1421F, -0.1224F, -0.1027F, -0.0830F, -0.0633F, -0.0436F, -0.0239F, -0.0042F, 0.0155F, 0.0352F, 0.0549F, 0.0746F, 0.0943F, 0.1140F, 0.1337F, 0.1534F, 0.1731F, 0.1928F, 0.2125F, 0.2322F, 0.2519F, 0.2717F, 0.2914F, 0.3111F, 0.3308F, 0.3505F, 0.3702F, 0.3899F, 0.4096F, 0.4293F, 0.4490F, 0.4687F, 0.4884F, 0.5081F, 0.5278F, 0.5475F, 0.5672F, 0.5869F, 0.6066F, 0.6263F, 0.6460F, 0.6657F, 0.6854F, 0.7052F, 0.7249F, 0.7446F, 0.7643F, 0.7840F, 0.8037F, 0.8234F, 0.8431F, 0.8628F, 0.8825F, 0.9022F, 0.9219F, 0.9416F, 0.9613F, 0.9810F, 1.0007F, 1.0204F, 1.0401F, 1.0598F, 1.0795F, 1.0992F, 1.1189F, 1.1386F, 1.1584F, 1.1781F, 1.1978F, 1.2175F, 1.2372F, 1.2569F, 1.2766F, 1.2963F, 1.3160F, 1.3357F, 1.3554F, 1.3751F, 1.3948F, 1.3948F, 1.3751F, 1.3554F, 1.3357F, 1.3160F, 1.2963F, 1.2766F, 1.2569F, 1.2372F, 1.2175F, 1.1978F, 1.1781F, 1.1584F, 1.1386F, 1.1189F, 1.0992F, 1.0795F, 1.0598F, 1.0401F, 1.0204F, 1.0007F, 0.9810F, 0.9613F, 0.9416F, 0.9219F, 0.9022F, 0.8825F, 0.8628F, 0.8431F, 0.8234F, 0.8037F, 0.7840F, 0.7643F, 0.7446F, 0.7249F, 0.7052F, 0.6854F, 0.6657F, 0.6460F, 0.6263F, 0.6066F, 0.5869F, 0.5672F, 0.5475F, 0.5278F, 0.5081F, 0.4884F, 0.4687F, 0.4490F, 0.4293F, 0.4096F, 0.3899F, 0.3702F, 0.3505F, 0.3308F, 0.3111F, 0.2914F, 0.2717F, 0.2519F, 0.2322F, 0.2125F, 0.1928F, 0.1731F, 0.1534F, 0.1337F, 0.1140F, 0.0943F, 0.0746F, 0.0549F, 0.0352F, 0.0155F, -0.0042F, -0.0239F, -0.0436F, -0.0633F, -0.0830F, -0.1027F, -0.1224F, -0.1421F, -0.1618F, -0.1815F, -0.2013F, -0.2210F, -0.2407F, -0.2604F, -0.2801F, -0.2998F, -0.3195F, -0.3392F, -0.3589F, -0.3786F, -0.3983F, -0.4180F, -0.4377F, -0.4574F, -0.4771F, -0.4968F, -0.5165F, -0.5362F, -0.5559F, -0.5756F, -0.5953F },
        { -0.5784F, -0.5587F, -0.5390F, -0.5193F, -0.4996F, -0.4798F, -0.4601F, -0.4404F, -0.4207F, -0.4010F, -0.3813F, -0.3616F, -0.3419F, -0.3222F, -0.3025F, -0.2828F, -0.2631F, -0.2434F, -0.2237F, -0.2040F, -0.1843F, -0.1646F, -0.1449F, -0.1252F, -0.1055F, -0.0858F, -0.0661F, -0.0464F, -0.0266F, -0.0069F, 0.0128F, 0.0325F, 0.0522F, 0.0719F, 0.0916F, 0.1113F, 0.1310F, 0.1507F, 0.1704F, 0.1901F, 0.2098F, 0.2295F, 0.2492F, 0.2689F, 0.2886F, 0.3083F, 0.3280F, 0.3477F, 0.3674F, 0.3871F, 0.4069F, 0.4266F, 0.4463F, 0.4660F, 0.4857F, 0.5054F, 0.5251F, 0.5448F, 0.5645F, 0.5842F, 0.6039F, 0.6236F, 0.6433F, 0.6630F, 0.6827F, 0.7024F, 0.7221F, 0.7418F, 0.7615F, 0.7812F, 0.8009F, 0.8206F, 0.8403F, 0.8601F, 0.8798F, 0.8995F, 0.9192F, 0.9389F, 0.9586F, 0.9783F, 0.9980F, 1.0177F, 1.0374F, 1.0571F, 1.0768F, 1.0965F, 1.1162F, 1.1359F, 1.1556F, 1.1753F, 1.1950F, 1.2147F, 1.2344F, 1.2541F, 1.2738F, 1.2935F, 1.3133F, 1.3330F, 1.3527F, 1.3724F, 1.3921F, 1.3921F, 1.3724F, 1.3527F, 1.3330F, 1.3133F, 1.2935F, 1.2738F, 1.2541F, 1.2344F, 1.2147F, 1.1950F, 1.1753F, 1.1556F, 1.1359F, 1.1162F, 1.0965F, 1.0768F, 1.0571F, 1.0374F, 1.0177F, 0.9980F, 0.9783F, 0.9586F, 0.9389F, 0.9192F, 0.8995F, 0.8798F, 0.8601F, 0.8403F, 0.8206F, 0.8009F, 0.7812F, 0.7615F, 0.7418F, 0.7221F, 0.7024F, 0.6827F, 0.6630F, 0.6433F, 0.6236F, 0.6039F, 0.5842F, 0.5645F, 0.5448F, 0.5251F, 0.5054F, 0.4857F, 0.4660F, 0.4463F, 0.4266F, 0.4069F, 0.3871F, 0.3674F, 0.3477F, 0.3280F, 0.3083F, 0.2886F, 0.2689F, 0.2492F, 0.2295F, 0.2098F, 0.1901F, 0.1704F, 0.1507F, 0.1310F, 0.1113F, 0.0916F, 0.0719F, 0.0522F, 0.0325F, 0.0128F, -0.0069F, -0.0266F, -0.0464F, -0.0661F, -0.0858F, -0.1055F, -0.1252F, -0.1449F, -0.1646F, -0.1843F, -0.2040F, -0.2237F, -0.2434F, -0.2631F, -0.2828F, -0.3025F, -0.3222F, -0.3419F, -0.3616F, -0.3813F, -0.4010F, -0.4207F, -0.4404F, -0.4601F, -0.4798F, -0.4996F, -0.5193F, -0.5390F, -0.5587F, -0.5784F, -0.5981F },
        { -0.5815F, -0.5618F, -0.5421F, -0.5224F, -0.5027F, -0.4830F, -0.4633F, -0.4436F, -0.4239F, -0.4042F, -0.3845F, -0.3648F, -0.3451F, -0.3253F, -0.3056F, -0.2859F, -0.2662F, -0.2465F, -0.2268F, -0.2071F, -0.1874F, -0.1677F, -0.1480F, -0.1283F, -0.1086F, -0.0889F, -0.0692F, -0.0495F, -0.0298F, -0.0101F, 0.0096F, 0.0293F, 0.0490F, 0.0687F, 0.0884F, 0.1082F, 0.1279F, 0.1476F, 0.1673F, 0.1870F, 0.2067F, 0.2264F, 0.2461F, 0.2658F, 0.2855F, 0.3052F, 0.3249F, 0.3446F, 0.3643F, 0.3840F, 0.4037F, 0.4234F, 0.4431F, 0.4628F, 0.4825F, 0.5022F, 0.5219F, 0.5416F, 0.5614F, 0.5811F, 0.6008F, 0.6205F, 0.6402F, 0.6599F, 0.6796F, 0.6993F, 0.7190F, 0.7387F, 0.7584F, 0.7781F, 0.7978F, 0.8175F, 0.8372F, 0.8569F, 0.8766F, 0.8963F, 0.9160F, 0.9357F, 0.9554F, 0.9751F, 0.9949F, 1.0146F, 1.0343F, 1.0540F, 1.0737F, 1.0934F, 1.1131F, 1.1328F, 1.1525F, 1.1722F, 1.1919F, 1.2116F, 1.2313F, 1.2510F, 1.2707F, 1.2904F, 1.3101F, 1.3298F, 1.3495F, 1.3692F, 1.3889F, 1.3889F, 1.3692F, 1.3495F, 1.3298F, 1.3101F, 1.2904F, 1.2707F, 1.2510F, 1.2313F, 1.2116F, 1.1919F, 1.1722F, 1.1525F, 1.1328F, 1.1131F, 1.0934F, 1.0737F, 1.0540F, 1.0343F, 1.0146F, 0.9949F, 0.9751F, 0.9554F, 0.9357F, 0.9160F, 0.8963F, 0.8766F, 0.8569F, 0.8372F, 0.8175F, 0.7978F, 0.7781F, 0.7584F, 0.7387F, 0.7190F, 0.6993F, 0.6796F, 0.6599F, 0.6402F, 0.6205F, 0.6008F, 0.5811F, 0.5614F, 0.5416F, 0.5219F, 0.5022F, 0.4825F, 0.4628F, 0.4431F, 0.4234F, 0.4037F, 0.3840F, 0.3643F, 0.3446F, 0.3249F, 0.3052F, 0.2855F, 0.2658F, 0.2461F, 0.2264F, 0.2067F, 0.1870F, 0.1673F, 0.1476F, 0.1279F, 0.1082F, 0.0884F, 0.0687F, 0.0490F, 0.0293F, 0.0096F, -0.0101F, -0.0298F, -0.0495F, -0.0692F, -0.0889F, -0.1086F, -0.1283F, -0.1480F, -0.1677F, -0.1874F, -0.2071F, -0.2268F, -0.2465F, -0.2662F, -0.2859F, -0.3056F, -0.3253F, -0.3451F, -0.3648F, -0.3845F, -0.4042F, -0.4239F, -0.4436F, -0.4633F, -0.4830F, -0.5027F, -0.5224F, -0.5421F, -0.5618F, -0.5815F, -0.6012F },
        { -0.5850F, -0.5653F, -0.5456F, -0.5259F, -0.5062F, -0.4865F, -0.4668F, -0.4471F, -0.4274F, -0.4077F, -0.3880F, -0.3683F, -0.3486F, -0.3289F, -0.3092F, -0.2895F, -0.2698F, -0.2501F, -0.2304F, -0.2107F, -0.1909F, -0.1712F, -0.1515F, -0.1318F, -0.1121F, -0.0924F, -0.0727F, -0.0530F, -0.0333F, -0.0136F, 0.0061F, 0.0258F, 0.0455F, 0.0652F, 0.0849F, 0.1046F, 0.1243F, 0.1440F, 0.1637F, 0.1834F, 0.2031F, 0.2228F, 0.2425F, 0.2623F, 0.2820F, 0.3017F, 0.3214F, 0.3411F, 0.3608F, 0.3805F, 0.4002F, 0.4199F, 0.4396F, 0.4593F, 0.4790F, 0.4987F, 0.5184F, 0.5381F, 0.5578F, 0.5775F, 0.5972F, 0.6169F, 0.6366F, 0.6563F, 0.6760F, 0.6958F, 0.7155F, 0.7352F, 0.7549F, 0.7746F, 0.7943F, 0.8140F, 0.8337F, 0.8534F, 0.8731F, 0.8928F, 0.9125F, 0.9322F, 0.9519F, 0.9716F, 0.9913F, 1.0110F, 1.0307F, 1.0504F, 1.0701F, 1.0898F, 1.1095F, 1.1292F, 1.1490F, 1.1687F, 1.1884F, 1.2081F, 1.2278F, 1.2475F, 1.2672F, 1.2869F, 1.3066F, 1.3263F, 1.3460F, 1.3657F, 1.3854F, 1.3854F, 1.3657F, 1.3460F, 1.3263F, 1.3066F, 1.2869F, 1.2672F, 1.2475F, 1.2278F, 1.2081F, 1.1884F, 1.1687F, 1.1490F, 1.1292F, 1.1095F, 1.0898F, 1.0701F, 1.0504F, 1.0307F, 1.0110F, 0.9913F, 0.9716F, 0.9519F, 0.9322F, 0.9125F, 0.8928F, 0.8731F, 0.8534F, 0.8337F, 0.8140F, 0.7943F, 0.7746F, 0.7549F, 0.7352F, 0.7155F, 0.6958F, 0.6760F, 0.6563F, 0.6366F, 0.6169F, 0.5972F, 0.5775F, 0.5578F, 0.5381F, 0.5184F, 0.4987F, 0.4790F, 0.4593F, 0.4396F, 0.4199F, 0.4002F, 0.3805F, 0.3608F, 0.3411F, 0.3214F, 0.3017F, 0.2820F, 0.2623F, 0.2425F, 0.2228F, 0.2031F, 0.1834F, 0.1637F, 0.1440F, 0.1243F, 0.1046F, 0.0849F, 0.0652F, 0.0455F, 0.0258F, 0.0061F, -0.0136F, -0.0333F, -0.0530F, -0.0727F, -0.0924F, -0.1121F, -0.1318F, -0.1515F, -0.1712F, -0.1909F, -0.2107F, -0.2304F, -0.2501F, -0.2698F, -0.2895F, -0.3092F, -0.3289F, -0.3486F, -0.3683F, -0.3880F, -0.4077F, -0.4274F, -0.4471F, -0.4668F, -0.4865F, -0.5062F, -0.5259F, -0.5456F, -0.5653F, -0.5850F, -0.6047F },
        { -0.5890F, -0.5693F, -0.5496F, -0.5299F, -0.5102F, -0.4904F, -0.4707F, -0.4510F, -0.4313F, -0.4116F, -0.3919F, -0.3722F, -0.3525F, -0.3328F, -0.3131F, -0.2934F, -0.2737F, -0.2540F, -0.2343F, -0.2146F, -0.1949F, -0.1752F, -0.1555F, -0.1358F, -0.1161F, -0.0964F, -0.0767F, -0.0570F, -0.0372F, -0.0175F, 0.0022F, 0.0219F, 0.0416F, 0.0613F, 0.0810F, 0.1007F, 0.1204F, 0.1401F, 0.1598F, 0.1795F, 0.1992F, 0.2189F, 0.2386F, 0.2583F, 0.2780F, 0.2977F, 0.3174F, 0.3371F, 0.3568F, 0.3765F, 0.3963F, 0.4160F, 0.4357F, 0.4554F, 0.4751F, 0.4948F, 0.5145F, 0.5342F, 0.5539F, 0.5736F, 0.5933F, 0.6130F, 0.6327F, 0.6524F, 0.6721F, 0.6918F, 0.7115F, 0.7312F, 0.7509F, 0.7706F, 0.7903F, 0.8100F, 0.8297F, 0.8495F, 0.8692F, 0.8889F, 0.9086F, 0.9283F, 0.9480F, 0.9677F, 0.9874F, 1.0071F, 1.0268F, 1.0465F, 1.0662F, 1.0859F, 1.1056F, 1.1253F, 1.1450F, 1.1647F, 1.1844F, 1.2041F, 1.2238F, 1.2435F, 1.2632F, 1.2829F, 1.3027F, 1.3224F, 1.3421F, 1.3618F, 1.3815F, 1.3815F, 1.3618F, 1.3421F, 1.3224F, 1.3027F, 1.2829F, 1.2632F, 1.2435F, 1.2238F, 1.2041F, 1.1844F, 1.1647F, 1.1450F, 1.1253F, 1.1056F, 1.0859F, 1.0662F, 1.0465F, 1.0268F, 1.0071F, 0.9874F, 0.9677F, 0.9480F, 0.9283F, 0.9086F, 0.8889F, 0.8692F, 0.8495F, 0.8297F, 0.8100F, 0.7903F, 0.7706F, 0.7509F, 0.7312F, 0.7115F, 0.6918F, 0.6721F, 0.6524F, 0.6327F, 0.6130F, 0.5933F, 0.5736F, 0.5539F, 0.5342F, 0.5145F, 0.4948F, 0.4751F, 0.4554F, 0.4357F, 0.4160F, 0.3963F, 0.3765F, 0.3568F, 0.3371F, 0.3174F, 0.2977F, 0.2780F, 0.2583F, 0.2386F, 0.2189F, 0.1992F, 0.1795F, 0.1598F, 0.1401F, 0.1204F, 0.1007F, 0.0810F, 0.0613F, 0.0416F, 0.0219F, 0.0022F, -0.0175F, -0.0372F, -0.0570F, -0.0767F, -0.0964F, -0.1161F, -0.1358F, -0.1555F, -0.1752F, -0.1949F, -0.2146F, -0.2343F, -0.2540F, -0.2737F, -0.2934F, -0.3131F, -0.3328F, -0.3525F, -0.3722F, -0.3919F, -0.4116F, -0.4313F, -0.4510F, -0.4707F, -0.4904F, -0.5102F, -0.5299F, -0.5496F, -0.5693F, -0.5890F, -0.6087F },
