/*From file:  model_weights_rear_noise_2.13.9_DT*/

#ifndef USSMGR_REAR_NOISERNN_H_
#define USSMGR_REAR_NOISERNN_H_

/* ------- Rear Noise mode weights -------*/
static const float32_t f_Rear_uss_dnn_outer_input_layer_weight_Noise[12][6]= {
{    1.980832f,      0.907861f,      -0.155798f,      -0.528684f,      -0.159336f,      -4.438600f},
{    0.001977f,      -0.998659f,      0.369000f,      -0.900131f,      0.004247f,      -3.236118f},
{    -0.373353f,      -0.264445f,      -0.037219f,      1.335531f,      0.118448f,      -1.607939f},
{    -0.387721f,      -1.847862f,      1.207539f,      0.531760f,      -0.093387f,      -3.122677f},
{    0.663276f,      0.665672f,      -0.328260f,      0.623726f,      0.042366f,      -4.028216f},
{    -1.386955f,      1.456827f,      0.575638f,      -0.190566f,      0.423035f,      -1.734425f},
{    -1.716873f,      2.015872f,      -0.118375f,      0.985203f,      -0.160080f,      -4.580535f},
{    1.095019f,      0.379961f,      -0.054862f,      -1.155639f,      0.146468f,      -3.076647f},
{    -0.292634f,      2.740385f,      0.431710f,      1.022034f,      0.004108f,      -1.089551f},
{    0.146682f,      -0.660986f,      0.070982f,      -1.160744f,      0.076244f,      -1.928128f},
{    0.871103f,      -0.796483f,      -0.135253f,      -1.208964f,      0.234375f,      -4.340954f},
{    0.714367f,      -0.771041f,      -0.182502f,      -1.652662f,      -0.006498f,      -1.874495f}};

static const float32_t f_Rear_uss_dnn_outer_input_layer_bias_Noise[12]= 
{    -2.174819f,      -0.214773f,      -1.358787f,      -1.737991f,      -1.555779f,      -0.814628f,      -1.980656f,      -0.406570f,      -0.828353f,      -0.261478f,      -1.335524f,      -0.546496f};

static const float32_t f_Rear_uss_dnn_outer_output_layer_weight_Noise[4][12]= {
{    -0.503679f,      -0.242295f,      0.019346f,      -0.327596f,      -0.640026f,      -0.494960f,      0.056003f,      0.454230f,      -0.262293f,      -0.231013f,      0.603818f,      -0.411963f},
{    -1.358517f,      -0.590309f,      -0.686830f,      -0.254353f,      0.116079f,      -0.717004f,      -0.371354f,      1.382211f,      0.094842f,      -0.300286f,      0.260134f,      -0.467491f},
{    0.123738f,      0.377557f,      -0.298560f,      -0.129662f,      0.151456f,      0.204038f,      -0.323850f,      0.455494f,      -1.006597f,      -0.870759f,      -0.623841f,      -0.557671f},
{    -0.172208f,      0.572558f,      -0.067824f,      -1.389894f,      -0.403509f,      -0.077895f,      -1.434835f,      -0.634856f,      -0.262874f,      0.180976f,      -1.132545f,      -0.185230f}};

static const float32_t f_Rear_uss_dnn_outer_output_layer_bias_Noise[4]= 
{    0.327668f,      -0.589054f,      0.205423f,      -1.245444f};

static const float32_t f_Rear_uss_dnn_inner_input_layer_weight_Noise[12][6]= {
{    -0.705695f,      0.667785f,      -0.154956f,      0.836811f,      0.090288f,      -4.083620f},
{    0.561047f,      -0.177789f,      0.017580f,      -0.361173f,      -0.145866f,      -4.315462f},
{    0.406125f,      0.243636f,      0.067279f,      -1.328792f,      0.113090f,      -4.977374f},
{    1.715663f,      0.554415f,      -0.239805f,      1.468507f,      -0.100866f,      -4.062575f},
{    0.124927f,      0.125395f,      0.151417f,      0.423808f,      0.073870f,      -4.921083f},
{    -1.953782f,      0.132255f,      -0.026607f,      -0.333014f,      0.009481f,      -4.863932f},
{    0.521226f,      -0.455216f,      0.096521f,      -1.486577f,      0.015726f,      -0.931380f},
{    -1.421182f,      -0.252863f,      -0.229018f,      0.411981f,      -0.063486f,      -5.628977f},
{    -1.236166f,      0.823029f,      0.058737f,      -0.305671f,      -0.040280f,      -3.987354f},
{    -0.008125f,      0.487164f,      -0.017815f,      -0.311056f,      -0.045477f,      -4.672976f},
{    1.085356f,      -0.819147f,      0.108148f,      -0.284897f,      -0.006999f,      -5.658415f},
{    0.232899f,      0.583212f,      0.332273f,      0.318043f,      -0.051331f,      -4.672161f}};

static const float32_t f_Rear_uss_dnn_inner_input_layer_bias_Noise[12]= 
{    -3.511078f,      -4.094759f,      -3.112056f,      -0.017975f,      -1.887281f,      -1.981981f,      -0.035034f,      -2.300669f,      -2.152560f,      -1.437080f,      -1.673305f,      -0.260630f};

static const float32_t f_Rear_uss_dnn_inner_output_layer_weight_Noise[4][12]= {
{    -0.148335f,      -0.250193f,      -0.418863f,      -1.427400f,      -0.676093f,      -0.315102f,      -0.003803f,      -3.117260f,      0.311139f,      -1.476026f,      -0.863458f,      -1.742988f},
{    -0.103115f,      0.074458f,      0.242469f,      -0.207963f,      -0.821222f,      -0.724476f,      -0.322616f,      -0.097810f,      -0.269953f,      -0.745278f,      -0.556979f,      -0.239850f},
{    -1.528166f,      -0.006696f,      1.335646f,      -0.896175f,      -0.306934f,      0.243514f,      -2.110395f,      -1.042214f,      0.581398f,      0.862595f,      -0.722058f,      -1.648119f},
{    0.496315f,      0.318378f,      -0.122090f,      -0.251537f,      0.459139f,      -0.064128f,      0.076068f,      0.197755f,      0.188374f,      0.273046f,      -0.060768f,      -0.010015f}};

static const float32_t f_Rear_uss_dnn_inner_output_layer_bias_Noise[4]= 
{    0.163131f,      0.442580f,      -1.891431f,      0.368723f};

static const float32_t f_Rear_vel_dnn_input_layer_weight_Noise[2]= 
{    1.618826f,    0.363038f};

static const float32_t f_Rear_vel_dnn_input_layer_bias_Noise[2]= 
{    -2.568288f,      0.256922f};

static const float32_t f_Rear_vel_dnn_output_layer_weight_Noise[2]= 
{    -1.600899f,      -0.203920f};

static const float32_t f_Rear_vel_dnn_output_layer_bias_Noise=     0.683739f;

static const float32_t f_Rear_temp_dnn_input_layer_weight_Noise[2]= 
{    -3.623498f,    -1.446110f};

static const float32_t f_Rear_temp_dnn_input_layer_bias_Noise[2]= 
{    -3.060175f,      3.484606f};

static const float32_t f_Rear_temp_dnn_output_layer_weight_Noise[2]= 
{    -6.566019f,      3.120178f};

static const float32_t f_Rear_temp_dnn_output_layer_bias_Noise=     -0.483932f;

static const float32_t f_Rear_input_layer_weight_Noise[32][18]= {
{    0.768421f,      -1.176334f,      1.130717f,      0.458664f,      0.031678f,      0.597259f,      -0.599337f,      -0.693921f,      0.406444f,      0.053000f,      0.431022f,      0.100610f,      0.667678f,      1.292493f,      0.681548f,      -1.144940f,      -0.398961f,      -2.989383f},
{    0.169838f,      1.825987f,      -0.284763f,      2.612573f,      -0.576043f,      -0.590028f,      0.954604f,      -2.309878f,      -0.442081f,      -0.653153f,      1.475408f,      -1.451076f,      1.128791f,      2.258894f,      0.559462f,      2.197033f,      -8.575657f,      -0.174847f},
{    0.474639f,      0.269804f,      0.164798f,      2.102340f,      -0.303036f,      -1.101692f,      0.955684f,      -1.797668f,      -0.871338f,      -0.384427f,      -1.529025f,      -0.308978f,      -0.696270f,      0.905914f,      -0.919753f,      2.516794f,      2.283728f,      0.195783f},
{    -0.432956f,      4.833485f,      -1.668934f,      0.894398f,      -0.760603f,      -0.555324f,      -1.205040f,      -1.445823f,      0.806297f,      -1.178224f,      0.750099f,      -1.996744f,      2.478534f,      0.680166f,      -2.095314f,      -0.031938f,      1.381517f,      -0.063900f},
{    -0.900238f,      -0.637146f,      0.763926f,      2.431043f,      -0.694925f,      -0.654643f,      0.345333f,      -0.810043f,      -1.404936f,      -0.980769f,      -0.266523f,      -0.375162f,      -1.345194f,      -0.035614f,      0.183641f,      1.235398f,      4.916110f,      -2.743432f},
{    0.450592f,      -1.003829f,      0.739355f,      1.209643f,      0.058991f,      0.113813f,      0.591552f,      -0.176368f,      0.514497f,      0.523571f,      -0.645245f,      -0.761618f,      0.465236f,      -0.707431f,      1.127187f,      0.349572f,      -0.506552f,      -1.856187f},
{    -0.504402f,      -2.102848f,      -2.497377f,      1.794653f,      0.079490f,      0.360961f,      0.952167f,      -0.133970f,      0.015312f,      0.201691f,      1.022139f,      -0.087090f,      -2.047146f,      -1.584455f,      -1.289186f,      1.722913f,      -4.005649f,      -0.170808f},
{    -0.410696f,      0.831536f,      -0.088724f,      0.984412f,      -0.005786f,      0.053867f,      1.044814f,      -0.068325f,      -0.152139f,      0.110317f,      0.205392f,      -0.093781f,      -0.193591f,      0.642902f,      -0.186058f,      1.053261f,      0.050200f,      1.107637f},
{    -2.122881f,      0.138451f,      1.046379f,      -0.229917f,      0.050963f,      -0.117788f,      0.284947f,      0.297725f,      -1.667265f,      -0.264111f,      -0.353962f,      -0.788943f,      -1.732106f,      -0.395753f,      1.406129f,      0.250833f,      1.221379f,      -0.194666f},
{    0.148956f,      0.592246f,      0.688371f,      2.775851f,      0.281226f,      -1.055564f,      0.630937f,      -0.135736f,      -0.061632f,      -0.468623f,      0.135317f,      0.059322f,      1.145875f,      -0.289413f,      -1.478748f,      -1.511271f,      -8.581716f,      -3.225022f},
{    0.330119f,      -0.526128f,      -0.633116f,      -0.358263f,      0.041113f,      -0.897953f,      -0.191891f,      0.056080f,      -3.284112f,      -0.567300f,      0.733666f,      -0.177227f,      -1.236441f,      1.471461f,      -0.487896f,      -0.269192f,      0.779369f,      -0.983390f},
{    2.432360f,      -0.279399f,      -1.568923f,      -0.280539f,      0.142295f,      -1.220137f,      -1.468099f,      -0.115962f,      -2.128030f,      -3.129721f,      -1.624940f,      -0.136569f,      1.123700f,      0.156706f,      -1.145763f,      -1.197245f,      -4.429208f,      -0.246307f},
{    -1.604355f,      -0.533916f,      -0.412863f,      2.506511f,      -0.590765f,      -2.044667f,      -0.612430f,      -0.388050f,      -0.336598f,      -1.121789f,      0.006980f,      -0.962885f,      0.194385f,      -1.470014f,      -1.362723f,      0.745096f,      -1.605024f,      -0.822924f},
{    0.677430f,      1.151600f,      0.308618f,      -1.722591f,      -0.283380f,      -0.870150f,      0.217763f,      -0.023408f,      1.385495f,      0.962561f,      1.643984f,      -1.087876f,      0.358375f,      1.966133f,      2.108577f,      -1.795182f,      1.161614f,      -4.082090f},
{    -0.365493f,      -0.229742f,      0.193859f,      0.119335f,      -0.948172f,      -1.349164f,      4.406385f,      -1.134963f,      -0.735172f,      0.433271f,      2.827349f,      -1.526387f,      -0.205704f,      -0.389368f,      0.230855f,      0.041626f,      -0.871414f,      1.618129f},
{    0.314342f,      -0.693914f,      -0.045614f,      0.582131f,      0.210727f,      0.235411f,      -1.097202f,      0.133973f,      0.072807f,      0.099696f,      -1.234153f,      0.111168f,      0.408886f,      -0.604885f,      -0.196624f,      0.285693f,      -0.025690f,      -2.621190f},
{    0.882771f,      -0.769324f,      -0.420228f,      -0.049821f,      -0.135279f,      -0.079902f,      -0.102155f,      0.051492f,      -0.062477f,      -0.049134f,      -0.051292f,      0.020184f,      1.228587f,      -1.040162f,      -0.558954f,      0.244276f,      -0.457650f,      -6.529881f},
{    1.310649f,      4.710205f,      1.558092f,      2.282186f,      0.430087f,      0.362517f,      1.285104f,      -0.867957f,      -2.412989f,      0.099454f,      0.155621f,      -0.692511f,      2.026551f,      3.483404f,      1.251377f,      1.507189f,      -3.898563f,      -2.436623f},
{    -0.435375f,      0.818050f,      -1.321567f,      0.327212f,      -3.839762f,      0.507222f,      0.761855f,      -0.111019f,      -0.085993f,      0.187293f,      -0.441960f,      -0.000505f,      1.135010f,      -0.131586f,      -1.803674f,      -0.556464f,      -2.837146f,      -0.782921f},
{    -0.142461f,      1.067011f,      -0.371674f,      0.934248f,      -0.300191f,      -0.117543f,      0.624218f,      -2.987362f,      -0.780990f,      -0.578913f,      0.311943f,      -3.580234f,      -0.343455f,      0.378986f,      0.026291f,      1.421760f,      0.698981f,      0.552985f},
{    -0.166088f,      0.549372f,      -2.623096f,      0.692155f,      -0.137460f,      -1.675847f,      0.413875f,      -0.044937f,      -0.304333f,      -1.881822f,      0.273366f,      -0.033953f,      -0.124225f,      0.228028f,      -2.067429f,      0.751866f,      1.802409f,      0.968048f},
{    0.002190f,      -0.544134f,      0.145778f,      -0.025011f,      0.253181f,      -0.634825f,      0.013563f,      0.122663f,      -0.477863f,      -0.072249f,      -0.087701f,      0.062931f,      -0.880939f,      -0.212397f,      -0.201560f,      0.141765f,      -2.029180f,      -4.152966f},
{    -2.621977f,      -1.142617f,      0.639579f,      3.194929f,      -0.435205f,      -0.984152f,      -0.113964f,      -0.298161f,      -1.721406f,      -0.886939f,      0.466678f,      -0.344253f,      -2.084672f,      -0.657621f,      0.443325f,      2.191328f,      1.358625f,      -2.779032f},
{    1.648210f,      -0.267515f,      -1.159752f,      1.580254f,      0.937326f,      -0.374937f,      -1.840815f,      -0.068309f,      0.800319f,      -0.682711f,      -1.729462f,      -0.138164f,      0.788703f,      0.503658f,      -1.619201f,      2.064074f,      -3.786964f,      -1.487464f},
{    0.984600f,      1.139257f,      -1.451337f,      -1.318077f,      0.910650f,      -0.505006f,      0.386150f,      0.162365f,      0.745707f,      0.233115f,      0.405092f,      0.004157f,      -0.644660f,      2.524490f,      0.307439f,      0.615641f,      -0.888725f,      -3.642988f},
{    -1.100489f,      -0.315889f,      0.023450f,      0.598201f,      -0.428447f,      -3.263219f,      0.436958f,      -0.316564f,      -0.863599f,      -3.791674f,      0.754810f,      -0.408076f,      -1.396598f,      0.367737f,      -0.092150f,      0.213073f,      -2.630041f,      1.140953f},
{    -0.774962f,      -1.878509f,      -0.090383f,      0.737581f,      -0.490423f,      -0.188561f,      2.356309f,      -0.916121f,      -0.547578f,      0.144550f,      2.083386f,      -1.123941f,      -0.653613f,      -1.921031f,      0.024624f,      0.506273f,      -1.543527f,      0.194549f},
{    0.580266f,      -0.508537f,      -0.510796f,      0.556072f,      0.343645f,      -0.127271f,      -0.211371f,      0.073840f,      0.264741f,      -0.133024f,      1.364176f,      -0.761275f,      -0.624328f,      -0.358034f,      0.681968f,      -0.523848f,      0.887941f,      -1.660705f},
{    0.372020f,      -0.477806f,      0.315570f,      -0.142312f,      -0.041935f,      -0.032314f,      -0.054685f,      0.015493f,      0.013721f,      0.030689f,      0.145967f,      0.029896f,      0.155089f,      -0.372664f,      0.360596f,      -0.173861f,      -0.428283f,      -8.121242f},
{    0.780314f,      1.261928f,      -1.331400f,      -3.122136f,      -0.527090f,      -1.911872f,      -0.913967f,      -0.038923f,      0.027897f,      -0.526666f,      1.887645f,      -0.134836f,      1.099782f,      0.839156f,      -0.752526f,      -2.723995f,      -1.840458f,      0.094487f},
{    -1.189508f,      3.062639f,      0.774897f,      1.546121f,      1.110801f,      0.174596f,      -1.852612f,      -0.043440f,      1.112910f,      0.010487f,      -2.077314f,      -0.098272f,      -0.553054f,      2.605803f,      1.030402f,      1.222544f,      1.774745f,      -3.393139f},
{    -0.702899f,      -0.911400f,      1.943814f,      -0.217037f,      -0.190524f,      0.561460f,      2.319672f,      -2.562512f,      -0.112568f,      -0.033461f,      0.141581f,      0.296896f,      -0.842110f,      -0.769638f,      -0.238766f,      0.223895f,      3.386379f,      -0.296413f}};

static const float32_t f_Rear_input_layer_bias_Noise[32]= 
{    1.412143f,      0.501265f,      -0.233205f,      0.499167f,      -1.593632f,      1.670357f,      -1.491316f,      -3.828494f,      1.296487f,      -1.626128f,      1.747695f,      -1.632949f,      -2.023576f,      -0.595349f,      -0.915481f,      1.299537f,      2.505304f,      -0.822644f,      0.901177f,      -0.141099f,      -5.061884f,      0.451684f,      -0.355358f,      -1.847662f,      -1.188439f,      -4.272335f,      0.730686f,      2.565237f,      1.611208f,      0.287906f,      0.866252f,      -0.291753f};

static const float32_t f_Rear_hidden_layer_weight_Noise[14][32]= {
{    -0.267565f,      -0.753895f,      -0.086719f,      -0.989306f,      0.182306f,      -0.007346f,      0.091849f,      -1.686228f,      0.274463f,      0.401114f,      -0.473148f,      -0.030933f,      1.135030f,      -0.703075f,      -0.218646f,      -0.093015f,      0.654998f,      -0.710306f,      -0.143006f,      -1.293821f,      0.023151f,      0.235096f,      0.267226f,      0.003876f,      -0.764795f,      0.962274f,      -0.316550f,      -0.002587f,      -0.584500f,      0.045410f,      -0.608393f,      0.265849f},
{    -0.533752f,      0.358383f,      0.833347f,      0.176355f,      0.349705f,      1.319020f,      0.059715f,      -0.184463f,      0.166945f,      -1.011726f,      1.448249f,      -1.952168f,      0.875715f,      -0.332073f,      0.278906f,      -1.247960f,      -0.827295f,      0.303258f,      -0.467477f,      0.966614f,      0.616406f,      0.731163f,      -0.302475f,      0.088842f,      -0.995629f,      -0.223862f,      -0.268910f,      -0.055194f,      0.159525f,      -1.523852f,      -0.329359f,      0.145340f},
{    -0.313811f,      0.507994f,      0.609673f,      0.231919f,      1.421996f,      -0.526402f,      -0.430933f,      1.216441f,      0.586274f,      -0.332997f,      0.556329f,      -0.905392f,      -1.158772f,      0.994445f,      0.198977f,      -1.982749f,      0.502197f,      0.261138f,      0.048257f,      -0.609231f,      1.315092f,      0.481067f,      -0.159598f,      0.373317f,      0.275025f,      0.341997f,      0.409889f,      0.025688f,      1.141496f,      -0.591733f,      1.514229f,      0.505355f},
{    0.773990f,      0.008784f,      0.109447f,      0.471272f,      1.504426f,      0.692212f,      -0.583485f,      -0.127717f,      -0.225366f,      0.730804f,      0.060446f,      -0.158967f,      -0.439718f,      0.204729f,      0.160068f,      0.311177f,      1.198537f,      0.058185f,      0.025045f,      0.960272f,      -0.277291f,      0.200750f,      -0.488110f,      0.356875f,      0.819086f,      0.820258f,      0.942381f,      0.431056f,      -2.728326f,      -0.086000f,      -0.297197f,      0.002484f},
{    -0.344375f,      1.025515f,      -0.508475f,      0.637356f,      -0.288232f,      0.758903f,      -0.607319f,      -1.252394f,      -0.012768f,      0.250603f,      -0.862715f,      -0.087082f,      -1.004843f,      0.375198f,      -2.679310f,      -4.958566f,      -0.235453f,      0.933985f,      -1.353773f,      0.560822f,      -1.416574f,      -0.888081f,      -0.974728f,      -0.096273f,      0.127010f,      -0.060910f,      0.918066f,      -0.016348f,      -0.404210f,      -0.244546f,      -0.991322f,      0.024127f},
{    -0.690170f,      -0.046184f,      -0.734260f,      0.003287f,      0.419216f,      -0.385824f,      -0.478435f,      -1.429795f,      0.007433f,      1.018446f,      0.131984f,      0.055216f,      -0.151591f,      1.068977f,      -1.398951f,      -0.276047f,      0.702917f,      0.642950f,      0.131614f,      -0.533938f,      -0.913343f,      -0.196278f,      0.423886f,      0.108493f,      1.033574f,      0.130820f,      -0.552594f,      -0.736359f,      1.714234f,      -0.080797f,      0.419848f,      -0.007218f},
{    0.003527f,      1.335360f,      0.737450f,      -0.292096f,      0.684890f,      -1.045180f,      -0.090014f,      0.751454f,      -0.187926f,      0.533190f,      -0.061988f,      -1.117461f,      -0.435251f,      1.278546f,      0.530351f,      0.385455f,      -0.361360f,      0.475927f,      -0.078470f,      0.618067f,      0.284700f,      -0.568254f,      0.455093f,      0.150898f,      0.210581f,      -1.512240f,      0.089182f,      0.470924f,      1.327756f,      -0.366671f,      -0.640140f,      -0.211007f},
{    0.696238f,      -0.098798f,      -0.218420f,      0.431543f,      -0.686549f,      -0.871449f,      -0.248424f,      0.276880f,      -0.028317f,      0.075149f,      0.647058f,      0.196391f,      -0.321045f,      0.442009f,      0.600726f,      -0.134067f,      -0.836975f,      0.370336f,      0.602918f,      -0.243474f,      -0.134292f,      1.204347f,      -0.700596f,      0.147801f,      0.650217f,      -0.248275f,      -0.211261f,      -0.093190f,      0.147188f,      0.212372f,      -0.454380f,      0.042018f},
{    0.088238f,      0.319533f,      -0.415223f,      0.369328f,      1.844920f,      -0.299597f,      0.087050f,      -1.884820f,      -1.115356f,      0.103071f,      0.293624f,      -1.947095f,      -0.094280f,      -0.010948f,      -0.038112f,      -1.815417f,      0.524142f,      0.538504f,      -0.265703f,      2.016438f,      -0.297737f,      0.720698f,      1.237633f,      0.225078f,      -0.059950f,      -0.436578f,      0.023703f,      0.334717f,      1.496758f,      -0.659031f,      -0.652162f,      0.079041f},
{    -0.215645f,      -0.941594f,      -0.084132f,      0.535505f,      0.650903f,      0.508932f,      -0.417044f,      -0.086213f,      -0.189977f,      -0.617897f,      0.266928f,      -0.169599f,      0.107683f,      0.839758f,      -1.284129f,      -0.031312f,      -0.803427f,      0.572203f,      -0.308233f,      1.797273f,      0.203958f,      0.210873f,      0.524594f,      -0.125577f,      0.034468f,      0.497919f,      -1.436641f,      -0.423719f,      0.157734f,      -0.208227f,      -0.034129f,      -0.099502f},
{    0.440858f,      -0.280994f,      0.759311f,      -0.305781f,      -0.077030f,      -0.375433f,      -0.472706f,      1.479299f,      -0.405965f,      0.499048f,      -0.995167f,      -0.125002f,      0.626744f,      -0.063003f,      -0.019622f,      -0.290913f,      -0.500811f,      -0.557134f,      -0.157652f,      0.759117f,      0.413620f,      -0.542960f,      -0.466645f,      0.284494f,      -0.202393f,      0.866621f,      0.353963f,      -0.293372f,      -0.490671f,      -0.156316f,      -0.039396f,      -1.073743f},
{    0.026169f,      -0.190315f,      -0.294956f,      0.858856f,      -0.718324f,      -0.849354f,      -0.601730f,      -1.206583f,      0.052621f,      -0.004171f,      0.657262f,      -0.641134f,      0.710263f,      -0.445182f,      -0.231730f,      -0.977180f,      -0.860780f,      -0.645898f,      -0.729123f,      0.598874f,      0.776512f,      -0.771369f,      -0.083424f,      -0.220263f,      -0.082895f,      2.115256f,      -0.100097f,      -1.500787f,      -1.826755f,      -0.729539f,      -1.355740f,      0.114896f},
{    0.479818f,      0.687831f,      1.125908f,      1.224956f,      1.062124f,      -0.164869f,      0.008406f,      -0.630812f,      -0.432559f,      1.101729f,      0.298157f,      -0.216249f,      1.156250f,      0.645246f,      -0.316328f,      -0.302268f,      1.207882f,      0.131705f,      -0.303431f,      0.608105f,      0.403113f,      0.706910f,      -0.489206f,      -0.016421f,      0.329400f,      0.524858f,      -0.368332f,      0.573256f,      2.015067f,      -0.093056f,      0.444588f,      -0.178085f},
{    1.197407f,      1.687288f,      0.304605f,      0.785816f,      0.266785f,      -0.927041f,      0.058759f,      0.023520f,      -0.158075f,      -0.095799f,      0.025195f,      -0.128407f,      -0.126335f,      -0.161357f,      -0.316040f,      0.148206f,      -1.821916f,      0.466230f,      0.207174f,      0.801904f,      -1.273972f,      -0.065229f,      0.530358f,      -0.238038f,      -1.239983f,      1.041922f,      0.167196f,      0.841774f,      -1.834296f,      -0.010465f,      -0.256313f,      -0.357014f}};

static const float32_t f_Rear_hidden_layer_bias_Noise[14]= 
{    -1.514117f,      -0.033220f,      -0.482852f,      -0.578348f,      0.490633f,      0.397056f,      -0.795329f,      -0.115801f,      0.716272f,      1.379784f,      -1.134833f,      -0.103315f,      -0.314959f,      0.225307f};

static const float32_t f_Rear_reset_gate_weight_Noise[7][21]= {
{    -0.172578f,      2.150300f,      -0.344826f,      1.015608f,      -4.484630f,      0.909307f,      -0.496096f,      0.704279f,      -1.742981f,      2.513968f,      2.475576f,      -1.894630f,      -0.699775f,      1.073462f,      1.383330f,      2.178742f,      -1.634427f,      1.479152f,      1.199530f,      -1.254754f,      -0.730189f},
{    2.338395f,      3.850836f,      -0.995100f,      -1.507955f,      -1.305554f,      -1.894972f,      -2.335293f,      -0.349370f,      1.640683f,      -1.864527f,      -0.875194f,      -0.742094f,      3.171432f,      0.470265f,      3.064531f,      -0.843788f,      -0.681656f,      2.144405f,      -2.729718f,      -0.082116f,      -1.577288f},
{    1.956512f,      -0.049812f,      -0.630050f,      -3.740924f,      -0.308600f,      -1.344409f,      2.567765f,      0.605700f,      -1.550684f,      -0.451511f,      1.216325f,      1.360877f,      -1.677194f,      -2.055698f,      2.490338f,      -0.876327f,      -0.527885f,      1.337639f,      -2.930724f,      1.247448f,      -2.291448f},
{    -1.665570f,      1.476585f,      1.885092f,      1.394245f,      -3.591039f,      -0.572859f,      -0.773372f,      -2.087464f,      -3.274356f,      -1.326787f,      -1.871325f,      3.909915f,      3.352919f,      1.131572f,      0.941505f,      0.344318f,      0.674997f,      -0.124155f,      -3.530053f,      -2.820419f,      2.206338f},
{    -0.368061f,      1.164457f,      3.573026f,      -3.382706f,      0.824140f,      1.441092f,      -0.856151f,      -0.868237f,      0.204965f,      -0.518814f,      -5.108533f,      -4.951088f,      -0.852398f,      -6.477285f,      -0.696327f,      -0.670771f,      -0.149352f,      0.390084f,      1.127104f,      -0.550442f,      0.468390f},
{    -0.769822f,      -1.440610f,      -2.041946f,      -0.084308f,      0.814909f,      -4.593375f,      -1.250800f,      0.305116f,      1.918135f,      -0.997900f,      2.028103f,      -0.281997f,      -2.545235f,      0.296499f,      1.716573f,      1.416332f,      -0.961827f,      -2.062050f,      0.192577f,      -1.139580f,      1.833067f},
{    -0.034649f,      0.151257f,      1.174564f,      -0.576383f,      0.749425f,      -4.862723f,      2.079492f,      3.355689f,      3.046421f,      -3.069876f,      5.362648f,      2.420017f,      -3.366372f,      3.669568f,      0.171209f,      0.751293f,      0.289217f,      -3.334957f,      0.090251f,      0.114573f,      0.876468f}};

static const float32_t f_Rear_reset_gate_bias_Noise[7]= 
{    -1.782922f,      0.595801f,      0.634945f,      1.419965f,      0.090661f,      0.292573f,      -2.299272f};

static const float32_t f_Rear_update_gate_weight_Noise[7][21]= {
{    -0.321021f,      0.473534f,      -0.559470f,      -1.023695f,      -0.438414f,      0.015038f,      -0.991625f,      -0.064310f,      -0.953747f,      0.231313f,      0.606266f,      -1.891045f,      0.185272f,      -0.363298f,      -0.579130f,      -0.344532f,      -0.115923f,      0.932379f,      0.103822f,      0.815636f,      -0.601835f},
{    -0.029924f,      0.730117f,      -1.324441f,      0.268451f,      0.499968f,      -0.114506f,      -0.007797f,      -0.073118f,      -0.305637f,      -0.168329f,      0.287235f,      -1.351215f,      0.007301f,      -1.435613f,      -0.622287f,      0.636902f,      -0.342697f,      0.373630f,      0.596882f,      1.518847f,      -0.797231f},
{    -1.038751f,      1.098939f,      -1.536208f,      -0.055398f,      -0.157007f,      -0.291595f,      0.485491f,      -0.236156f,      1.418680f,      0.696638f,      0.058146f,      -0.671279f,      -1.990636f,      0.263960f,      -0.595109f,      0.466631f,      0.646808f,      -0.388219f,      0.219819f,      0.483010f,      -1.414843f},
{    -0.143597f,      -3.229860f,      -0.292336f,      -0.429575f,      0.353891f,      -0.266958f,      -0.324175f,      -0.059700f,      -0.523461f,      -0.150324f,      -0.253266f,      -0.032894f,      0.189303f,      0.171730f,      -0.483933f,      -0.596173f,      -0.094092f,      0.315827f,      0.555750f,      1.428745f,      -0.605270f},
{    -0.235210f,      -0.625302f,      -0.050420f,      -0.326085f,      0.837047f,      0.417526f,      -0.459581f,      -0.058420f,      1.073074f,      -1.452231f,      0.440157f,      -0.009041f,      -0.419549f,      -1.855316f,      -0.310794f,      -1.372312f,      0.532675f,      0.631596f,      0.405189f,      2.057460f,      -0.806643f},
{    0.172014f,      0.011782f,      -0.180947f,      0.140454f,      0.856014f,      0.154288f,      0.217768f,      -0.238238f,      1.688057f,      -1.751496f,      0.102258f,      -0.305170f,      -0.539771f,      0.119990f,      -0.554037f,      -0.315683f,      0.272695f,      0.566087f,      0.266582f,      1.631710f,      -0.740191f},
{    0.076046f,      -0.345793f,      -0.046439f,      0.054928f,      0.280344f,      -0.167140f,      0.063690f,      0.070383f,      1.200527f,      -0.299743f,      -1.105344f,      0.018456f,      -0.536836f,      -1.350986f,      -0.443264f,      0.097825f,      -0.012885f,      0.486868f,      -0.888746f,      1.850925f,      -1.347146f}};

static const float32_t f_Rear_update_gate_bias_Noise[7]= 
{    -1.302536f,      -1.320224f,      -1.367212f,      -1.982497f,      -0.555954f,      -1.500024f,      -1.190716f};

static const float32_t f_Rear_new_gate_weight_Noise[7][21]= {
{    -1.644413f,      -1.212053f,      0.545066f,      -5.336721f,      -2.143321f,      1.450973f,      1.044439f,      0.879457f,      1.487719f,      -0.824911f,      -0.332652f,      0.135561f,      -0.720425f,      -0.577159f,      0.716622f,      -0.462544f,      1.369340f,      0.180103f,      0.437113f,      -0.982275f,      -0.176819f},
{    -0.870438f,      -0.207919f,      -2.432949f,      -0.272576f,      -0.746170f,      0.045831f,      -1.809170f,      -0.133422f,      -1.888572f,      0.777617f,      3.344627f,      2.983811f,      2.320364f,      -0.313033f,      -0.430254f,      0.128685f,      0.185462f,      1.068630f,      1.161384f,      -1.267383f,      0.352875f},
{    -0.480380f,      0.507284f,      -4.545581f,      2.900667f,      -3.141694f,      -2.179228f,      -0.357182f,      0.795206f,      -0.016367f,      0.410507f,      -3.918717f,      -2.600207f,      0.001431f,      2.044068f,      -1.442132f,      -0.335000f,      -0.221394f,      1.023406f,      -1.649752f,      1.247800f,      -1.329519f},
{    0.313139f,      1.023813f,      1.561117f,      -2.019680f,      0.176958f,      0.038278f,      -2.137870f,      -0.801974f,      2.740500f,      1.900450f,      0.265811f,      -1.634246f,      0.188274f,      1.010942f,      -1.336528f,      -0.711697f,      0.488439f,      1.260634f,      3.417769f,      1.513551f,      -0.038202f},
{    0.422550f,      0.359471f,      -0.013390f,      -0.548269f,      -0.567221f,      -0.283814f,      -1.554127f,      -0.646942f,      -0.255733f,      -0.440236f,      -2.580818f,      0.124340f,      0.063667f,      0.753789f,      -1.785876f,      2.033933f,      -0.613213f,      0.416001f,      -0.140156f,      1.128941f,      -0.144396f},
{    -0.082785f,      1.706284f,      0.332594f,      -0.491447f,      0.136678f,      -0.691452f,      -0.352584f,      0.129660f,      3.440602f,      -0.377786f,      -0.345077f,      -0.397070f,      0.869221f,      1.179957f,      -0.251615f,      -0.703429f,      1.136514f,      -0.705623f,      -0.361039f,      -1.308693f,      0.871938f},
{    0.302394f,      2.266214f,      1.259666f,      0.614897f,      1.321911f,      0.489837f,      0.131329f,      5.845794f,      -0.304166f,      2.074678f,      -0.643291f,      -0.227479f,      -1.975966f,      3.016621f,      1.183253f,      0.143061f,      0.773111f,      0.079324f,      0.765824f,      1.897044f,      0.326427f}};

static const float32_t f_Rear_new_gate_bias_Noise[7]= 
{    1.002491f,      1.124999f,      -0.530419f,      1.078987f,      -0.430354f,      -0.113091f,      0.048527f};

static const float32_t f_Rear_output_layer_weight_Noise[7][7]= {
{    -0.299142f,      2.084846f,      -2.032815f,      0.741938f,      -1.228842f,      0.794163f,      -1.107815f},
{    0.002702f,      0.368349f,      0.346275f,      1.007598f,      -1.440124f,      1.980735f,      1.085360f},
{    3.004133f,      -1.137627f,      0.266407f,      -5.006685f,      4.275446f,      -2.988411f,      -0.002756f},
{    -1.136892f,      0.428598f,      1.113657f,      -1.515446f,      1.794484f,      -1.826353f,      0.188124f},
{    0.703448f,      0.728512f,      -0.032106f,      -0.896935f,      -1.045395f,      -2.322386f,      2.326778f},
{    0.466247f,      -2.684092f,      0.052936f,      -0.613382f,      1.597001f,      -2.375832f,      2.392507f},
{    0.678873f,      1.142418f,      1.099136f,      -0.946095f,      -3.158384f,      -1.619846f,      -2.527419f}};

static const float32_t f_Rear_output_layer_bias_Noise[7]= 
{    1.532627f,      0.294596f,      -0.466007f,      1.549569f,      -0.690937f,      -0.899279f,      -0.836698f};

static const float32_t f_Rear_final_layer_weight_Noise[5][7]= {
{    0.877212f,      -0.213132f,      2.113661f,      0.282877f,      -2.115208f,      0.188367f,      -0.515199f},
{    -5.514401f,      0.923909f,      -4.746724f,      -1.257407f,      0.590381f,      -0.819848f,      -5.593560f},
{    0.171406f,      -0.761783f,      -0.298372f,      -3.236989f,      1.239858f,      -2.538268f,      1.438739f},
{    -0.998898f,      -1.724200f,      0.539077f,      0.598338f,      1.763867f,      -1.195874f,      -1.040607f},
{    -1.979519f,      -0.076278f,      1.527729f,      0.346903f,      0.245797f,      1.525606f,      -2.688115f}};

static const float32_t f_Rear_final_layer_bias_Noise[5]= 
{    -0.443043f,      0.185646f,      -1.795941f,      -2.023210f,      -1.577159f};

#endif
