/*From file:  model_weights_front_noise_2.12.21_DT*/

#ifndef USSMGR_FRONT_NOISERNN_H_
#define USSMGR_FRONT_NOISERNN_H_

/* ------- Front Noise mode weights -------*/
static const float32_t f_Front_sensor_config_laramie_Noise[4]= 
{    1.938475f,      0.480547f,      -0.712416f,      0.522415f};

static const float32_t f_Front_sensor_config_rebel_Noise[4]= 
{    -0.111060f,      0.656683f,      -0.461734f,      -0.915966f};

static const float32_t f_Front_sensor_config_tungsten_Noise[4]= 
{    0.387275f,      0.625577f,      0.197184f,      0.111336f};

static const float32_t f_Front_uss_dnn_outer_input_layer_weight_Noise[12][6]= {
{    0.026630f,      0.591895f,      0.013537f,      -0.864562f,      -0.030473f,      -5.023174f},
{    -0.521373f,      -0.911501f,      -0.159253f,      1.660594f,      0.030040f,      -3.177445f},
{    -0.050906f,      -0.315826f,      -0.718689f,      -0.189338f,      -0.064505f,      -3.794081f},
{    0.781143f,      -0.638502f,      -0.050366f,      -0.316908f,      -0.121741f,      -6.269287f},
{    1.637260f,      -1.719949f,      -0.421563f,      0.405969f,      0.372117f,      -2.042830f},
{    1.206757f,      1.664500f,      0.288481f,      -0.332353f,      -0.148728f,      -6.158286f},
{    -2.039813f,      -1.186109f,      0.274476f,      1.597004f,      0.111081f,      0.539606f},
{    -1.052239f,      -1.245366f,      0.099057f,      -0.632422f,      0.118008f,      -5.347166f},
{    2.576395f,      1.094923f,      0.388390f,      2.025616f,      -0.034835f,      1.229805f},
{    -0.326064f,      -0.152434f,      0.421149f,      -0.238372f,      0.506122f,      -3.760489f},
{    1.201744f,      -0.795111f,      -0.022104f,      -1.152875f,      -0.161351f,      -4.191626f},
{    -0.140471f,      0.125157f,      0.191492f,      -1.257398f,      0.078002f,      2.929881f}};

static const float32_t f_Front_uss_dnn_outer_input_layer_bias_Noise[12]= 
{    0.000120f,      -1.812273f,      0.346299f,      -2.577930f,      -1.655455f,      -3.545793f,      -0.062925f,      -1.181927f,      -0.025370f,      -1.238158f,      -1.958669f,      -1.298822f};

static const float32_t f_Front_uss_dnn_outer_output_layer_weight_Noise[4][12]= {
{    0.054423f,      -0.632196f,      -0.232288f,      -2.230333f,      0.628234f,      -2.112586f,      -0.440500f,      0.245837f,      0.481673f,      -0.858691f,      -0.360484f,      0.278659f},
{    -5.570595f,      -0.728820f,      -0.433690f,      -0.494929f,      -0.136524f,      0.746924f,      -0.228925f,      -2.192922f,      -1.380377f,      0.441864f,      -0.339833f,      -1.248612f},
{    1.548060f,      -0.918921f,      -0.246824f,      1.847909f,      -0.302797f,      -0.815854f,      -0.513136f,      1.587212f,      0.247480f,      -0.062720f,      -2.835940f,      -2.348581f},
{    1.220008f,      -0.214093f,      -0.176529f,      0.566567f,      -0.100684f,      -0.587002f,      -1.083263f,      0.057952f,      -0.034592f,      0.210095f,      -0.830942f,      -0.440006f}};

static const float32_t f_Front_uss_dnn_outer_output_layer_bias_Noise[4]= 
{    -0.082001f,      -0.416364f,      -0.396884f,      -0.235686f};

static const float32_t f_Front_uss_dnn_inner_input_layer_weight_Noise[12][6]= {
{    2.064591f,      1.838659f,      -0.069158f,      0.140905f,      0.132958f,      -3.351169f},
{    -2.966866f,      -0.446991f,      0.029056f,      -1.018657f,      -0.037310f,      -2.541845f},
{    -1.876585f,      -1.174159f,      0.081404f,      -0.398012f,      -0.124433f,      -5.745664f},
{    2.946926f,      -0.272487f,      0.013353f,      0.508173f,      -0.035544f,      -2.901593f},
{    -0.280455f,      0.696455f,      -0.211093f,      0.232976f,      -0.060448f,      -4.598300f},
{    -1.760350f,      -0.664146f,      0.359694f,      -0.297774f,      0.036470f,      -3.631899f},
{    3.200928f,      1.107748f,      -0.012399f,      1.347735f,      -0.055465f,      -3.919828f},
{    -1.261967f,      0.497524f,      -0.037740f,      -0.093839f,      0.084178f,      -5.900369f},
{    1.756322f,      -1.909012f,      0.058573f,      0.715140f,      0.060628f,      -4.262419f},
{    -0.446479f,      0.237966f,      -0.116488f,      -0.611351f,      0.104955f,      -6.550789f},
{    -0.609551f,      0.247729f,      0.131630f,      -0.546747f,      0.086757f,      -3.232771f},
{    -0.376752f,      0.690042f,      0.088739f,      0.242646f,      -0.076304f,      -6.326973f}};

static const float32_t f_Front_uss_dnn_inner_input_layer_bias_Noise[12]= 
{    -0.437860f,      -1.590580f,      -4.784061f,      -2.155821f,      -3.642689f,      1.039254f,      -1.642789f,      -2.589609f,      -2.314652f,      -2.413384f,      -0.626987f,      -2.447057f};

static const float32_t f_Front_uss_dnn_inner_output_layer_weight_Noise[4][12]= {
{    -0.054571f,      0.042009f,      -3.387649f,      0.267753f,      -1.267544f,      -0.756844f,      0.086766f,      -0.168524f,      -0.228041f,      -0.223741f,      0.110604f,      -0.467792f},
{    -0.090084f,      0.166445f,      -0.037545f,      -0.612510f,      -0.092282f,      -0.267964f,      -0.321082f,      -0.029886f,      0.125433f,      -0.165237f,      0.078675f,      -0.177323f},
{    -2.312807f,      -1.559640f,      -2.711280f,      -0.635939f,      -0.015667f,      0.083420f,      -0.676235f,      1.803794f,      -1.692776f,      0.264833f,      -0.230925f,      1.744885f},
{    -0.445272f,      -0.017015f,      0.019836f,      -0.089478f,      -0.148185f,      -0.596540f,      -0.598372f,      -0.622116f,      -1.545955f,      -1.236736f,      -0.721794f,      -0.073677f}};

static const float32_t f_Front_uss_dnn_inner_output_layer_bias_Noise[4]= 
{    -1.023991f,      0.237405f,      -1.827973f,      -2.299037f};

static const float32_t f_Front_vel_dnn_input_layer_weight_Noise[2]= 
{    -3.720434f,    -0.450746f};

static const float32_t f_Front_vel_dnn_input_layer_bias_Noise[2]= 
{    -0.209048f,      0.945680f};

static const float32_t f_Front_vel_dnn_output_layer_weight_Noise[2]= 
{    3.271935f,      0.843275f};

static const float32_t f_Front_vel_dnn_output_layer_bias_Noise=     0.164489f;

static const float32_t f_Front_temp_dnn_input_layer_weight_Noise[2]= 
{    -12.903376f,    -12.815472f};

static const float32_t f_Front_temp_dnn_input_layer_bias_Noise[2]= 
{    2.633474f,      2.107527f};

static const float32_t f_Front_temp_dnn_output_layer_weight_Noise[2]= 
{    11.688781f,      12.082201f};

static const float32_t f_Front_temp_dnn_output_layer_bias_Noise=     0.744071f;

static const float32_t f_Front_input_layer_weight_Noise[32][22]= {
{    0.521615f,      2.426738f,      4.223812f,      1.476871f,      0.111700f,      0.007011f,      0.437720f,      -1.400439f,      -0.515026f,      -1.268834f,      2.163138f,      -2.660550f,      0.190083f,      2.699946f,      4.739545f,      1.610930f,      -2.004589f,      -1.369508f,      -1.590483f,      -0.438538f,      -0.373197f,      0.881157f},
{    -1.487153f,      0.903562f,      1.178994f,      1.263392f,      -0.313307f,      -0.255457f,      -0.926730f,      -0.192085f,      -1.233311f,      -0.202798f,      -1.290933f,      -0.141662f,      -0.276331f,      0.425990f,      -1.238404f,      -1.110942f,      0.807462f,      0.582107f,      0.476136f,      0.592591f,      1.287053f,      1.341861f},
{    0.401887f,      0.528048f,      2.224618f,      0.228608f,      -1.384264f,      -0.184209f,      0.028432f,      -2.312638f,      -1.539026f,      -0.189122f,      -0.165564f,      -1.504566f,      -0.081226f,      0.440333f,      1.847396f,      0.093850f,      -0.945634f,      2.546777f,      -0.608278f,      -0.817949f,      0.079556f,      -0.231489f},
{    -0.095788f,      0.437294f,      -0.413262f,      -0.742387f,      -0.672642f,      -0.823879f,      4.144321f,      -1.287821f,      -0.148283f,      -0.443229f,      2.531111f,      -1.193600f,      -0.165067f,      0.095019f,      -0.604867f,      -0.024459f,      0.892305f,      -2.174656f,      0.001750f,      -0.575557f,      -0.752306f,      0.508056f},
{    -1.368510f,      0.254961f,      -0.429412f,      0.959933f,      -1.091723f,      -1.188918f,      1.114651f,      -1.460248f,      -1.272633f,      -0.002697f,      2.284865f,      -1.160260f,      0.779094f,      -0.227218f,      2.046017f,      -0.681513f,      -0.028429f,      4.190015f,      0.501630f,      0.046426f,      -0.091919f,      -0.887088f},
{    -0.531725f,      0.156090f,      -0.892696f,      -0.927772f,      -0.491403f,      -0.149319f,      -1.301378f,      -0.575770f,      -0.771831f,      -0.389649f,      -0.558074f,      -0.006095f,      -0.744307f,      0.717856f,      1.442598f,      -0.294307f,      1.656715f,      0.438436f,      0.597239f,      0.592472f,      0.700579f,      1.872316f},
{    -0.011784f,      -1.821985f,      0.592640f,      1.351160f,      -0.632858f,      0.143672f,      -2.923754f,      -1.070259f,      -0.500413f,      0.079100f,      -3.178323f,      -1.062957f,      0.062988f,      -1.898525f,      0.614164f,      1.342843f,      0.851458f,      -0.714870f,      -0.200057f,      1.048389f,      0.057173f,      -0.907118f},
{    -0.020929f,      -0.028579f,      -0.124170f,      -0.368800f,      -2.202245f,      0.069536f,      1.058697f,      0.012785f,      -1.863081f,      0.032951f,      0.606701f,      0.082427f,      -0.060402f,      -0.000271f,      -0.229682f,      -0.165436f,      -0.645762f,      7.862737f,      -1.642178f,      -0.618042f,      -0.229461f,      -1.077778f},
{    -0.019712f,      0.296422f,      -0.260633f,      0.796924f,      0.205383f,      -0.100826f,      -0.357942f,      0.518418f,      0.277124f,      0.037480f,      -0.157329f,      0.200883f,      0.175303f,      0.037694f,      -0.240578f,      0.815936f,      -1.984112f,      -9.254796f,      -0.397437f,      -0.293617f,      0.718457f,      1.299600f},
{    0.087203f,      -0.386766f,      1.342596f,      -2.108442f,      -0.231604f,      -2.032836f,      2.142076f,      -0.449263f,      -0.133251f,      -1.235850f,      1.677424f,      -0.139392f,      -0.204683f,      -0.601555f,      1.104692f,      -1.423432f,      -1.605971f,      -2.434860f,      -1.647507f,      -1.240341f,      0.543309f,      1.177330f},
{    0.422561f,      -0.874198f,      1.035265f,      -0.867958f,      -0.536407f,      -0.357555f,      1.302132f,      -0.819487f,      -0.577818f,      -0.382933f,      1.110617f,      -0.815465f,      0.211697f,      -0.801093f,      0.776141f,      -0.473713f,      0.794859f,      -8.621074f,      0.043443f,      -0.479364f,      -0.663425f,      1.112814f},
{    -2.118455f,      1.641647f,      2.438496f,      -0.247095f,      -0.612563f,      -2.781173f,      1.669459f,      -1.473870f,      -0.289251f,      -2.583353f,      1.847130f,      -1.767393f,      -0.042411f,      1.413310f,      2.346980f,      -0.530427f,      0.112926f,      -13.636568f,      -0.169516f,      -1.039628f,      0.112327f,      0.318793f},
{    1.228968f,      -1.646387f,      0.430591f,      1.053905f,      0.282990f,      0.373139f,      0.042234f,      -1.655713f,      -0.143803f,      -0.472169f,      0.726016f,      1.244926f,      -2.446778f,      0.916876f,      1.945844f,      -0.005843f,      -0.863766f,      2.906403f,      -0.718796f,      0.422388f,      1.122298f,      1.578182f},
{    -2.324385f,      0.455034f,      0.711395f,      -1.191690f,      -0.949622f,      0.265924f,      -2.036196f,      -0.587067f,      -0.992769f,      0.197899f,      -2.148948f,      -0.525346f,      -2.341069f,      0.440791f,      0.642492f,      -1.085500f,      -3.190657f,      -3.813568f,      -0.348476f,      -0.248799f,      -0.361962f,      0.819371f},
{    -1.261544f,      0.079436f,      1.159500f,      -0.306482f,      -0.878791f,      0.181714f,      0.571161f,      -0.802770f,      -0.320769f,      0.143992f,      0.059127f,      -1.188234f,      -1.492341f,      0.168204f,      1.577571f,      -1.082656f,      1.082302f,      7.254813f,      0.080904f,      0.071127f,      -0.215670f,      0.094828f},
{    -1.003937f,      2.948021f,      -0.437534f,      -1.265513f,      0.032127f,      -0.398216f,      -1.960893f,      0.818420f,      -0.001046f,      -0.420046f,      -1.884452f,      0.831571f,      -0.950046f,      3.246378f,      -0.377196f,      -1.788626f,      -9.019808f,      1.848238f,      -0.422454f,      0.751854f,      -1.045550f,      1.272066f},
{    0.171665f,      -1.246853f,      0.494631f,      -1.146095f,      -0.914233f,      -0.511508f,      0.756391f,      0.522157f,      -0.329090f,      -0.381528f,      0.393263f,      0.136911f,      -0.085707f,      -1.215853f,      0.641307f,      -0.800376f,      -0.458197f,      -1.358789f,      -2.629938f,      -2.470710f,      -1.902922f,      -1.186249f},
{    0.710841f,      1.785931f,      5.108544f,      1.893921f,      0.245839f,      0.125424f,      0.483899f,      -0.234648f,      0.254731f,      0.143278f,      0.645588f,      -0.333585f,      0.524304f,      1.125601f,      4.707684f,      1.801650f,      -0.893095f,      -4.746568f,      -0.368178f,      -0.644937f,      0.176448f,      0.578421f},
{    -1.657623f,      1.024781f,      0.783957f,      -1.033909f,      -1.328915f,      0.048150f,      1.783081f,      -1.027504f,      -0.430433f,      0.550130f,      2.287682f,      -4.009725f,      -0.922146f,      0.220879f,      0.949742f,      -1.349426f,      1.746299f,      -1.671037f,      1.126106f,      1.627320f,      1.330281f,      3.464905f},
{    -1.075412f,      0.004178f,      4.634090f,      0.265935f,      0.058771f,      -1.312914f,      -0.045013f,      1.148412f,      -0.034903f,      -1.221433f,      0.065661f,      1.169410f,      -1.711629f,      1.609215f,      3.217804f,      0.208650f,      -4.320923f,      3.187473f,      -3.837242f,      -0.733290f,      -0.305688f,      0.332575f},
{    -0.078143f,      1.189269f,      4.053822f,      2.255629f,      -0.059598f,      -0.780826f,      1.053164f,      -2.709905f,      -0.048762f,      -0.332475f,      0.279087f,      -2.009849f,      0.927829f,      1.691482f,      4.708807f,      1.932217f,      -2.393144f,      -1.379473f,      0.195814f,      0.388169f,      0.429640f,      0.304002f},
{    0.226885f,      0.264677f,      -0.070294f,      -0.829544f,      0.009279f,      0.097877f,      0.355417f,      -0.170338f,      -0.034656f,      0.028012f,      0.089683f,      -0.100796f,      0.133813f,      0.199433f,      -0.011456f,      -0.764894f,      2.430803f,      5.919503f,      1.801784f,      0.096142f,      0.400811f,      5.964637f},
{    -3.202183f,      0.520012f,      2.248766f,      0.109902f,      -0.924982f,      -1.999056f,      2.846932f,      0.052916f,      0.307383f,      -1.760109f,      -0.055699f,      -0.612450f,      0.396813f,      -0.235423f,      -0.203430f,      0.002345f,      -1.277477f,      3.743569f,      -0.420024f,      0.513927f,      0.734824f,      1.687000f},
{    -0.495398f,      -1.494880f,      4.394533f,      0.609574f,      0.886185f,      0.322637f,      1.731146f,      0.042690f,      0.916723f,      0.436356f,      1.075061f,      -0.344604f,      0.230294f,      -1.956763f,      1.785579f,      2.834638f,      1.704655f,      1.442289f,      -0.732213f,      -0.504757f,      -1.662034f,      -0.665755f},
{    0.044390f,      -0.204874f,      0.250780f,      -1.550907f,      -0.450998f,      -0.101092f,      -0.156180f,      0.377499f,      -0.870368f,      0.025612f,      0.245605f,      -0.022835f,      0.133100f,      -0.254984f,      0.142384f,      -1.349025f,      -1.498782f,      5.147282f,      0.505304f,      1.156422f,      2.874157f,      4.873917f},
{    -1.136688f,      -0.283371f,      0.066152f,      0.236497f,      0.295288f,      -0.866370f,      -2.051008f,      -2.747011f,      0.617360f,      -0.859037f,      -1.827455f,      -2.252820f,      -1.236651f,      -0.042910f,      -0.096503f,      0.485267f,      -0.202843f,      -6.641224f,      -0.613728f,      -1.094962f,      -0.155901f,      1.330558f},
{    0.413867f,      -0.034817f,      1.034491f,      0.592726f,      0.017337f,      -0.116642f,      -0.422457f,      0.247084f,      0.079739f,      -0.037361f,      -0.385131f,      0.060767f,      -0.129543f,      0.852593f,      1.070729f,      0.084482f,      -2.899596f,      -1.434351f,      -2.114607f,      -2.495335f,      -3.437752f,      -0.642846f},
{    -1.513729f,      1.715157f,      1.539353f,      0.563994f,      -0.029888f,      -2.109379f,      1.356184f,      0.297164f,      -0.186216f,      -2.090385f,      0.586794f,      -0.449439f,      -0.833974f,      1.238056f,      1.308688f,      -0.083626f,      -0.587827f,      1.003644f,      0.715605f,      0.052420f,      0.283180f,      -0.301690f},
{    0.274253f,      -0.184309f,      0.079553f,      -0.469272f,      -0.223553f,      0.181315f,      -0.990585f,      1.283320f,      -0.043177f,      0.257440f,      0.013531f,      -0.063766f,      0.082197f,      0.076343f,      0.119045f,      -0.562562f,      -0.178383f,      -0.168239f,      -1.114844f,      -1.947345f,      0.029575f,      1.684384f},
{    0.311589f,      -0.371333f,      1.047554f,      0.160254f,      0.850273f,      0.198261f,      -0.870685f,      -0.052752f,      0.810020f,      0.153387f,      -0.880162f,      0.047219f,      0.389184f,      -0.210044f,      1.378053f,      0.008167f,      -2.456028f,      3.780493f,      1.847980f,      1.498964f,      -0.820461f,      3.007928f},
{    -1.381435f,      0.257997f,      1.616900f,      -1.990571f,      0.267746f,      0.505732f,      1.390166f,      -0.960279f,      0.015957f,      -0.480522f,      0.232770f,      0.209261f,      -1.755496f,      0.799514f,      0.454011f,      -0.816724f,      -0.999947f,      2.357245f,      0.636139f,      -0.434873f,      0.074265f,      2.866608f},
{    0.704119f,      2.327088f,      1.047880f,      -0.831936f,      -1.320087f,      -0.560140f,      -0.593562f,      -0.859937f,      -1.549151f,      -0.212021f,      -0.503976f,      -0.770317f,      -0.579397f,      1.992192f,      1.504499f,      -0.574149f,      0.456357f,      6.917118f,      1.303831f,      0.755624f,      0.431520f,      2.396561f}};

static const float32_t f_Front_input_layer_bias_Noise[32]= 
{    -0.340179f,      -2.218788f,      0.662650f,      -0.579363f,      0.134944f,      -1.973637f,      -2.331335f,      -0.869597f,      -1.207842f,      -1.140954f,      -1.028680f,      -0.651692f,      0.194366f,      -0.251208f,      0.431067f,      -1.435656f,      0.119737f,      0.039506f,      -1.219570f,      0.552363f,      -0.352906f,      -3.329684f,      -0.763335f,      -0.883251f,      -1.765126f,      -2.696976f,      -0.074126f,      0.824421f,      -3.638563f,      -1.153429f,      -2.103492f,      -1.005034f};

static const float32_t f_Front_hidden_layer_weight_Noise[14][32]= {
{    -0.432200f,      -0.057513f,      -2.014466f,      -0.780636f,      0.139097f,      -0.069642f,      -0.289428f,      0.146629f,      -1.050608f,      1.588548f,      0.602931f,      1.152709f,      -1.770709f,      -0.218355f,      0.482063f,      0.193627f,      -0.344555f,      0.144663f,      -0.352589f,      -0.433661f,      -0.684843f,      2.341084f,      -0.435914f,      0.074611f,      -1.178515f,      -0.273658f,      -0.106579f,      -0.609431f,      -0.116268f,      0.041266f,      -0.550559f,      -1.242713f},
{    2.428713f,      -0.189762f,      1.296889f,      0.608172f,      0.157234f,      -0.169156f,      -0.549967f,      0.157246f,      -0.088045f,      0.724414f,      0.230278f,      0.579278f,      -0.265293f,      0.224897f,      -0.282922f,      -1.110766f,      -0.125523f,      -0.806156f,      -0.526536f,      -1.178208f,      0.058480f,      -0.086482f,      0.444878f,      -0.600522f,      0.365544f,      -1.819814f,      -0.034874f,      0.123082f,      -0.156595f,      -1.121591f,      -0.345078f,      1.350925f},
{    1.467755f,      -0.819474f,      -0.038116f,      -0.118308f,      -0.661655f,      -0.949598f,      -0.837850f,      1.195122f,      -0.427874f,      0.934019f,      -4.959668f,      -1.096467f,      -0.823171f,      -0.659546f,      1.005986f,      0.350280f,      -1.159960f,      -1.473265f,      -2.304055f,      -0.598415f,      -0.067108f,      -3.875949f,      1.116968f,      -0.068547f,      0.395813f,      -2.230814f,      0.207397f,      2.068264f,      -1.759117f,      -0.733897f,      -0.316995f,      -0.547246f},
{    0.755540f,      -0.323928f,      0.508460f,      -1.458000f,      -1.032970f,      -0.053163f,      -0.222326f,      -0.468364f,      0.032166f,      -0.301371f,      -1.213472f,      -3.920505f,      -0.275075f,      -0.010799f,      -0.068862f,      -0.219319f,      -3.168525f,      -0.692006f,      -0.621926f,      -0.575344f,      0.808108f,      0.537533f,      -0.346893f,      -0.165133f,      -1.282082f,      -1.985709f,      -2.354839f,      -0.591134f,      -0.412758f,      -0.186456f,      -0.687338f,      -0.885721f},
{    -1.600070f,      0.213210f,      -1.656900f,      0.312617f,      1.306853f,      0.097186f,      -1.177540f,      0.359883f,      0.111542f,      1.259369f,      0.626231f,      0.565948f,      -0.693047f,      -0.617328f,      0.600130f,      0.383290f,      0.229410f,      -1.686147f,      -1.062052f,      -2.061031f,      -0.441500f,      0.917073f,      -1.052410f,      -1.959205f,      -0.216465f,      -0.754221f,      0.741498f,      -2.529978f,      1.358963f,      -0.070437f,      -0.244729f,      2.624887f},
{    -1.033125f,      0.222494f,      0.768470f,      0.836807f,      0.891340f,      0.192233f,      -0.434514f,      -1.219718f,      0.028248f,      0.567710f,      -0.335501f,      0.025723f,      -0.348053f,      0.054005f,      -2.649992f,      -0.113060f,      0.276546f,      -2.291497f,      -0.444257f,      -0.351445f,      0.207060f,      0.987007f,      -0.431887f,      -2.454256f,      -0.239191f,      0.118631f,      0.420321f,      -0.101132f,      0.667134f,      -2.745618f,      0.749529f,      -0.920218f},
{    1.261359f,      -0.126347f,      1.524484f,      0.901050f,      0.341977f,      -0.291550f,      -0.500151f,      0.204981f,      -0.045717f,      -0.644338f,      -0.384248f,      -0.067197f,      -0.149418f,      0.502094f,      -1.277744f,      -0.199108f,      -0.279991f,      0.479047f,      -0.013499f,      -0.336232f,      2.528804f,      -0.622771f,      0.237193f,      -0.405044f,      -1.341355f,      -1.325499f,      0.265933f,      -3.275850f,      0.218065f,      0.146266f,      -0.340825f,      0.318230f},
{    0.959476f,      -3.048753f,      0.424553f,      -2.774654f,      0.254710f,      -2.091483f,      -1.118421f,      0.092272f,      -2.662185f,      -0.245326f,      -1.887451f,      -0.159260f,      -0.460870f,      -0.417648f,      0.503274f,      -0.709177f,      0.996520f,      1.715482f,      -1.380409f,      0.637115f,      -0.628556f,      2.132130f,      -0.056699f,      -1.126686f,      -0.254914f,      -0.752128f,      -0.018026f,      0.104542f,      -1.296986f,      -2.166126f,      0.773503f,      0.955191f},
{    1.717870f,      0.000576f,      -0.493319f,      1.535110f,      0.793559f,      0.152329f,      -1.214014f,      -1.037387f,      -1.214797f,      1.142149f,      -0.893771f,      -1.762121f,      -0.214466f,      -0.029806f,      -2.011032f,      0.145621f,      -0.975765f,      0.204383f,      -0.691330f,      0.136921f,      -0.970668f,      -1.220681f,      0.301872f,      0.146114f,      -0.240335f,      -0.482878f,      1.071369f,      -1.756370f,      0.498977f,      -0.041280f,      -1.397764f,      -0.125414f},
{    0.035754f,      -0.234813f,      0.358107f,      -3.973013f,      -3.353590f,      0.401060f,      -1.249562f,      -2.091859f,      -0.673275f,      2.863217f,      -0.742829f,      0.773418f,      -0.731190f,      -0.115444f,      -0.593595f,      -1.487611f,      0.175658f,      0.610447f,      0.622033f,      0.576025f,      0.559936f,      -0.184344f,      0.575538f,      -0.735698f,      -0.744644f,      -1.014934f,      -0.325864f,      0.458423f,      -0.962848f,      -0.623689f,      0.529454f,      -2.004754f},
{    1.069660f,      -0.478748f,      -1.361183f,      0.316407f,      -0.375229f,      -0.924232f,      -1.221902f,      0.676768f,      0.059268f,      -0.833679f,      -1.109581f,      1.687492f,      0.305796f,      -1.864773f,      0.486959f,      -1.046955f,      -1.105110f,      -0.443254f,      -0.321760f,      0.419473f,      1.058309f,      -0.728175f,      1.757850f,      0.581575f,      -0.918565f,      -2.012209f,      -0.271017f,      0.243251f,      -0.806249f,      0.266015f,      1.478921f,      0.814049f},
{    1.010671f,      -0.995847f,      -1.675048f,      0.348279f,      0.023424f,      -1.467618f,      -1.612988f,      -0.749695f,      -0.330249f,      1.114420f,      1.112055f,      -0.700170f,      -0.148178f,      -1.022710f,      -2.047288f,      0.095000f,      -0.006394f,      0.878139f,      -0.838573f,      0.175237f,      0.643312f,      0.566180f,      0.757191f,      -0.092239f,      -0.272159f,      -1.279245f,      -0.376748f,      0.209043f,      -0.239291f,      0.022939f,      0.767376f,      0.213109f},
{    1.361525f,      0.045526f,      0.758132f,      0.363209f,      0.671243f,      -0.037846f,      -0.157685f,      0.601066f,      -1.225913f,      -0.159404f,      0.300334f,      -3.540021f,      -0.655903f,      -0.332597f,      0.401544f,      -5.294075f,      -0.023962f,      -0.318901f,      -1.193150f,      0.087933f,      -0.117130f,      -0.209513f,      -0.876783f,      0.251158f,      -1.913955f,      0.067600f,      -0.498947f,      0.669720f,      0.449867f,      -0.591964f,      -1.164631f,      0.485922f},
{    -0.585996f,      0.524748f,      0.291779f,      0.289937f,      -0.438883f,      0.650567f,      -0.109369f,      1.151018f,      -0.047573f,      -0.895312f,      -0.308110f,      -0.587107f,      0.103794f,      -0.146680f,      -0.452848f,      -2.097261f,      0.422643f,      0.762581f,      0.426351f,      -1.638068f,      1.370492f,      -0.024902f,      0.442097f,      0.124923f,      0.234240f,      -0.072784f,      -0.803723f,      -0.079414f,      -0.057253f,      -0.045526f,      0.329820f,      -0.865066f}};

static const float32_t f_Front_hidden_layer_bias_Noise[14]= 
{    0.276144f,      0.482147f,      -3.670235f,      -1.052590f,      -1.138279f,      -1.731731f,      0.147671f,      -2.120151f,      0.545961f,      -0.666380f,      -0.912407f,      0.766549f,      -0.101453f,      0.685077f};

static const float32_t f_Front_reset_gate_weight_Noise[7][21]= {
{    2.208776f,      -1.398996f,      -0.389363f,      -0.578970f,      -1.152872f,      0.576992f,      0.676176f,      0.661601f,      -0.735619f,      -2.791655f,      2.000645f,      0.988901f,      -0.456110f,      0.371172f,      0.139817f,      0.342043f,      2.991763f,      -1.929716f,      -2.624695f,      -1.071609f,      0.399152f},
{    1.232337f,      3.567761f,      -0.463313f,      1.589231f,      -4.037085f,      0.753647f,      -1.683482f,      1.355167f,      2.551354f,      -0.926199f,      -3.063701f,      -0.939382f,      -1.485482f,      -1.993737f,      -1.137402f,      0.012544f,      2.120077f,      -1.044048f,      -1.866203f,      3.752915f,      1.089218f},
{    -1.183159f,      1.448448f,      3.992096f,      -0.735273f,      1.192674f,      -1.024564f,      0.514915f,      0.798714f,      -2.215062f,      -0.290018f,      -3.532481f,      -0.061394f,      -1.671032f,      -5.333820f,      1.657767f,      0.214556f,      -1.802976f,      -2.709379f,      -0.143553f,      -0.119363f,      -0.946243f},
{    0.074596f,      1.887277f,      3.814199f,      -1.438885f,      0.356401f,      -1.301033f,      0.898467f,      -1.668928f,      -1.510737f,      -1.100451f,      8.176052f,      0.577717f,      1.729162f,      -5.780168f,      1.627795f,      0.378644f,      0.599083f,      -2.086658f,      2.859750f,      1.583531f,      0.004289f},
{    0.201991f,      2.060969f,      0.365357f,      1.931662f,      2.898606f,      -1.378574f,      -3.439579f,      4.027814f,      -2.549424f,      4.006917f,      3.901323f,      -0.180706f,      2.596410f,      -0.048324f,      1.046755f,      -1.163711f,      -1.779132f,      1.554958f,      -1.308223f,      1.530669f,      -0.358030f},
{    0.914667f,      3.126407f,      0.073466f,      3.118142f,      -2.913392f,      -2.580087f,      -1.648853f,      -0.305465f,      -0.563379f,      -1.546803f,      0.051062f,      -3.056975f,      2.581596f,      -2.446973f,      1.245606f,      -0.067480f,      1.390490f,      -0.934106f,      0.257047f,      -1.070109f,      -0.378917f},
{    -4.473888f,      3.081860f,      0.331469f,      -0.355155f,      0.384635f,      -1.034424f,      2.248389f,      -1.624708f,      -6.528183f,      -3.339371f,      -1.260033f,      1.514813f,      -0.633031f,      2.601873f,      1.415455f,      -0.762540f,      -0.284989f,      0.282998f,      -2.249086f,      -0.320616f,      -0.101036f}};

static const float32_t f_Front_reset_gate_bias_Noise[7]= 
{    -1.709741f,      -0.913802f,      0.205037f,      0.633475f,      -0.630622f,      -2.228226f,      -1.765771f};

static const float32_t f_Front_update_gate_weight_Noise[7][21]= {
{    -0.792255f,      -0.556752f,      1.337848f,      -0.678923f,      -0.031723f,      -0.055301f,      0.049158f,      0.230120f,      0.180622f,      0.622069f,      -0.105423f,      -0.589132f,      -2.159844f,      -0.075389f,      1.508106f,      -1.622062f,      0.163177f,      1.230514f,      0.494674f,      -0.005518f,      -1.153740f},
{    -0.098301f,      -1.048278f,      1.205967f,      -0.386043f,      0.142336f,      0.308236f,      -0.005502f,      0.157027f,      -0.231918f,      -0.339214f,      0.163939f,      -0.218331f,      -0.587104f,      -0.361439f,      0.595147f,      -0.486650f,      -0.572657f,      -0.107202f,      -0.197177f,      0.293339f,      0.105973f},
{    -0.040270f,      -0.109945f,      0.543511f,      -0.793761f,      0.159262f,      -0.580109f,      0.088005f,      0.000187f,      0.062802f,      0.820771f,      0.034353f,      -0.071010f,      0.540070f,      -0.034771f,      0.285283f,      -0.888425f,      -1.250167f,      0.688473f,      -0.281511f,      0.462676f,      -1.113782f},
{    -0.300805f,      -0.262868f,      0.681483f,      0.397316f,      0.262979f,      -0.304646f,      -0.326990f,      -0.332104f,      0.171531f,      0.744551f,      -1.485117f,      0.005357f,      -0.231179f,      -0.149225f,      0.527237f,      -0.624648f,      -1.262964f,      0.335097f,      0.237016f,      0.079936f,      -0.914291f},
{    -0.025467f,      -0.303565f,      1.240273f,      -0.132649f,      0.094163f,      0.114839f,      0.016295f,      0.132116f,      0.005085f,      0.364698f,      0.086816f,      -0.042777f,      -0.981616f,      -0.456171f,      0.583578f,      -0.470742f,      -0.909730f,      -0.240216f,      0.741532f,      -0.533872f,      -1.232325f},
{    -0.277264f,      -0.329199f,      1.087809f,      -0.716155f,      0.209635f,      -0.037516f,      -0.134959f,      0.050246f,      0.270153f,      0.927489f,      -1.323268f,      -0.340086f,      -1.323214f,      -0.226245f,      1.937219f,      -1.319642f,      -1.773450f,      1.178011f,      0.616314f,      0.848678f,      -0.603157f},
{    -0.435630f,      0.463784f,      3.582285f,      -1.533580f,      0.012272f,      -0.051462f,      -0.741526f,      0.669993f,      0.284988f,      0.847512f,      -0.300670f,      -1.092668f,      -2.341331f,      -0.032989f,      -0.697416f,      0.249936f,      -0.128194f,      -0.860560f,      0.119131f,      -0.051228f,      -1.262586f}};

static const float32_t f_Front_update_gate_bias_Noise[7]= 
{    -1.332639f,      -1.669290f,      -2.159777f,      -2.424202f,      -2.054583f,      -1.152940f,      -1.738859f};

static const float32_t f_Front_new_gate_weight_Noise[7][21]= {
{    -0.390254f,      2.077697f,      1.159224f,      -1.548481f,      -0.652147f,      -0.338309f,      -0.309943f,      3.173845f,      0.517679f,      2.521066f,      -0.218788f,      0.535525f,      0.813758f,      0.225589f,      2.021377f,      2.452163f,      1.477234f,      -0.349146f,      2.785291f,      1.594826f,      0.102490f},
{    -1.942795f,      0.234602f,      1.223127f,      1.334777f,      -0.119298f,      -2.421705f,      -0.239763f,      -2.007792f,      1.914396f,      -0.672051f,      0.691865f,      0.068369f,      0.724342f,      -0.082470f,      0.519748f,      2.497417f,      -1.629019f,      1.454169f,      1.836989f,      -0.245111f,      -0.920133f},
{    -1.437251f,      0.294017f,      0.523476f,      1.088569f,      -0.496855f,      0.984131f,      -0.678456f,      -0.198223f,      0.158681f,      1.137431f,      -0.065949f,      0.093362f,      -2.248280f,      0.562907f,      0.959855f,      -0.060119f,      -2.320522f,      0.646734f,      -0.178632f,      4.947043f,      -0.771096f},
{    0.042733f,      0.564879f,      0.104563f,      1.020286f,      3.879627f,      -0.682237f,      -0.500817f,      -0.712421f,      0.193083f,      -1.220684f,      -0.302764f,      0.436734f,      1.583803f,      0.045234f,      1.305807f,      0.851786f,      -0.618931f,      -1.177376f,      -0.663052f,      -0.647525f,      -0.533849f},
{    0.129231f,      0.075634f,      -1.105687f,      -0.474377f,      0.044765f,      -0.073251f,      -0.175673f,      -0.341675f,      -0.091926f,      0.390558f,      4.853742f,      2.388746f,      -0.433596f,      -0.064422f,      -1.590763f,      1.573835f,      0.249216f,      -0.352733f,      -0.312322f,      0.725153f,      0.185181f},
{    0.499940f,      0.799951f,      1.806189f,      0.548973f,      -1.252786f,      -1.836450f,      -0.958928f,      1.394037f,      -0.679051f,      -0.259690f,      -0.671819f,      -0.416334f,      0.763436f,      -0.023260f,      0.347794f,      0.320564f,      0.541865f,      -2.054947f,      -2.396018f,      0.292627f,      0.325438f},
{    0.179238f,      -0.220154f,      0.306049f,      -0.604946f,      2.042149f,      0.378427f,      1.304498f,      -2.599979f,      1.325027f,      0.214697f,      -0.459785f,      2.118306f,      0.841301f,      0.122105f,      1.457430f,      1.628819f,      0.052958f,      -0.247528f,      2.114738f,      -0.429399f,      4.000748f}};

static const float32_t f_Front_new_gate_bias_Noise[7]= 
{    0.063378f,      -0.770604f,      -0.258775f,      0.385395f,      0.400503f,      -1.050837f,      0.862855f};

static const float32_t f_Front_output_layer_weight_Noise[7][7]= {
{    -0.436895f,      0.529687f,      1.790872f,      0.350011f,      3.140358f,      1.388951f,      0.661546f},
{    1.316102f,      -1.808964f,      1.755209f,      -0.223006f,      -2.888988f,      -2.077656f,      -0.777868f},
{    -1.615352f,      0.901330f,      1.113439f,      1.349786f,      1.190656f,      1.560701f,      1.427340f},
{    0.528180f,      -1.032490f,      -1.902496f,      1.954410f,      0.563854f,      0.610602f,      -0.884646f},
{    0.745448f,      0.069353f,      1.562233f,      -0.524918f,      0.572377f,      0.163610f,      1.597792f},
{    0.187678f,      0.012444f,      -1.977256f,      -1.244123f,      -0.121813f,      -0.344223f,      -0.703516f},
{    -1.265884f,      0.452635f,      -0.954731f,      0.644424f,      -3.423370f,      0.428049f,      0.840886f}};

static const float32_t f_Front_output_layer_bias_Noise[7]= 
{    0.353568f,      -0.022596f,      0.406995f,      1.093658f,      0.223914f,      0.801069f,      0.197427f};

static const float32_t f_Front_final_layer_weight_Noise[5][7]= {
{    -1.024914f,      0.267773f,      -0.972068f,      1.694954f,      -2.219529f,      -0.392383f,      -0.872342f},
{    -4.783620f,      0.651635f,      -3.076291f,      -3.455212f,      2.863287f,      -2.573809f,      0.606632f},
{    1.326857f,      -1.716773f,      0.105152f,      -1.411887f,      -1.578489f,      -1.104770f,      -2.813536f},
{    -1.567025f,      -2.206436f,      0.166317f,      -2.477188f,      -3.742870f,      -0.116349f,      1.032257f},
{    -1.572179f,      -0.109305f,      -3.428930f,      -1.332034f,      -3.937455f,      1.368158f,      1.023883f}};

static const float32_t f_Front_final_layer_bias_Noise[5]= 
{    -2.610651f,      -1.923343f,      0.980898f,      1.168127f,      -1.914451f};

#endif
