/*From file:  USS_DNN_DT_Front_Normal_20250611_v1*/

#ifndef USSMGR_FRONT_NORMALRNN_H_
#define USSMGR_FRONT_NORMALRNN_H_

/* ------- Front Normal mode weights -------*/
static const float32_t f_Front_uss_dnn_outer_input_layer_weight_Normal[14][7]= {
{    -0.006227f,      -1.808930f,      -0.275281f,      0.033549f,      -0.204944f,      0.012896f,      -0.002097f},
{    0.226390f,      -2.260683f,      0.337892f,      0.127372f,      0.331079f,      -0.345360f,      -0.046649f},
{    0.109247f,      0.090779f,      1.525746f,      0.288561f,      0.303657f,      -0.054929f,      0.154001f},
{    0.133970f,      0.054185f,      -0.905602f,      0.318054f,      -1.434553f,      -0.317071f,      0.019303f},
{    0.036373f,      0.432159f,      0.180521f,      -0.247951f,      -0.592956f,      0.682377f,      -0.205282f},
{    0.181808f,      -0.461480f,      -0.092442f,      -0.113747f,      -0.302506f,      -0.061060f,      0.058977f},
{    -0.070334f,      -0.673429f,      -0.047971f,      -0.136077f,      -0.169410f,      -0.813215f,      0.213862f},
{    -0.063514f,      -1.481856f,      -0.596160f,      0.030684f,      -1.079164f,      0.429457f,      -0.060244f},
{    -0.031654f,      -1.171589f,      0.053890f,      0.076275f,      -2.055500f,      -0.504792f,      0.116237f},
{    0.451628f,      0.275932f,      0.158447f,      0.227059f,      -0.655854f,      0.033003f,      0.028336f},
{    0.311262f,      -1.803016f,      -0.452855f,      0.137820f,      -1.411347f,      0.415788f,      -0.215395f},
{    0.169220f,      0.626003f,      -0.879981f,      0.451269f,      -0.192038f,      -0.766099f,      0.291742f},
{    0.059733f,      -2.906471f,      -0.915707f,      -0.085120f,      -0.261612f,      0.262776f,      0.160940f},
{    0.028555f,      -0.920827f,      -0.463183f,      -0.219841f,      -1.479855f,      0.786558f,      -0.036235f}};

static const float32_t f_Front_uss_dnn_outer_input_layer_bias_Normal[14]= 
{    0.043010f,      -1.113223f,      -0.354595f,      -0.043924f,      -1.811575f,      -0.401491f,      -0.062618f,      -0.517658f,      -0.075559f,      0.336262f,      -0.113958f,      -0.127848f,      -2.505267f,      0.240764f};

static const float32_t f_Front_uss_dnn_outer_output_layer_weight_Normal[4][14]= {
{    0.009026f,      0.287081f,      0.131190f,      -0.053227f,      -0.130737f,      -0.000420f,      -0.092499f,      0.096055f,      0.044690f,      0.042829f,      -0.168549f,      -0.221790f,      0.274115f,      0.181746f},
{    -0.002027f,      0.185079f,      -0.778453f,      -0.034268f,      0.104225f,      0.052347f,      -0.040930f,      0.092731f,      -0.080851f,      -0.591151f,      -0.044829f,      -0.957788f,      -0.512297f,      0.065875f},
{    0.019804f,      0.046875f,      0.029768f,      -0.257657f,      -0.113487f,      0.058447f,      0.399898f,      -0.282797f,      -0.418888f,      -1.285527f,      -0.329428f,      -0.226016f,      -0.762710f,      -0.371950f},
{    -0.045857f,      -0.225425f,      0.243405f,      -0.193442f,      -0.556601f,      0.008879f,      0.067411f,      -0.132713f,      0.294736f,      0.069504f,      0.119071f,      -0.005685f,      0.017446f,      -0.294639f}};

static const float32_t f_Front_uss_dnn_outer_output_layer_bias_Normal[4]= 
{    -0.343699f,      0.151414f,      -0.206431f,      -0.148327f};

static const float32_t f_Front_uss_dnn_inner_input_layer_weight_Normal[14][7]= {
{    -0.367480f,      0.034688f,      -0.554730f,      -0.024289f,      0.247761f,      0.316202f,      -0.213623f},
{    0.082778f,      -0.123433f,      0.990588f,      0.044707f,      -1.322171f,      -0.174302f,      0.035416f},
{    -0.027135f,      -0.555018f,      -0.106436f,      -0.012769f,      -1.147288f,      0.093827f,      -0.067856f},
{    0.164662f,      0.206438f,      -1.110636f,      -0.241801f,      -0.166348f,      0.052385f,      -0.095879f},
{    0.018421f,      -0.058300f,      -0.597093f,      0.131452f,      -0.391013f,      -0.152248f,      0.205291f},
{    -0.409971f,      -0.038592f,      0.680544f,      0.475129f,      -0.974613f,      -0.282782f,      -0.248986f},
{    0.221543f,      -0.480201f,      0.057086f,      -0.141396f,      -0.271067f,      -0.013519f,      -0.076414f},
{    0.006502f,      0.081287f,      0.414941f,      0.191780f,      -0.305812f,      0.650709f,      -0.067109f},
{    0.198655f,      -0.716446f,      0.025664f,      0.257443f,      -1.257054f,      -0.634990f,      -0.072964f},
{    0.190629f,      -1.007498f,      0.341548f,      0.227068f,      -0.716175f,      0.348428f,      -0.295451f},
{    -0.044598f,      -1.093275f,      -0.921901f,      0.109097f,      -1.246725f,      0.132446f,      -0.267883f},
{    -0.110172f,      0.798794f,      -0.206409f,      0.215806f,      0.981533f,      -0.025344f,      -0.043972f},
{    -0.181347f,      -0.321616f,      0.405439f,      0.399977f,      0.643745f,      -0.530126f,      0.044517f},
{    -0.027425f,      -0.398098f,      0.423400f,      -0.406154f,      -1.397327f,      -0.279198f,      0.124719f}};

static const float32_t f_Front_uss_dnn_inner_input_layer_bias_Normal[14]= 
{    -0.678024f,      -0.848660f,      -0.526199f,      -1.824276f,      -2.686760f,      -0.368416f,      -0.182922f,      0.166431f,      0.603321f,      -0.683593f,      0.594680f,      -0.642967f,      -0.447679f,      -0.568090f};

static const float32_t f_Front_uss_dnn_inner_output_layer_weight_Normal[4][14]= {
{    0.024974f,      -0.452402f,      -0.043067f,      0.029066f,      -0.808796f,      0.153181f,      0.070677f,      -0.273224f,      -0.040687f,      0.063889f,      -0.098300f,      -0.003332f,      0.248345f,      0.172572f},
{    -0.456028f,      0.030573f,      -0.373454f,      -1.041448f,      0.175425f,      0.065025f,      -0.299431f,      0.124591f,      -0.125822f,      -0.859438f,      -0.482259f,      -0.142973f,      -0.160924f,      -0.217472f},
{    -0.360077f,      -0.005631f,      -0.821917f,      -0.696257f,      -0.070801f,      -0.221699f,      -0.081441f,      0.285165f,      -0.525146f,      -0.012263f,      -1.062192f,      0.098026f,      -0.075354f,      0.062115f},
{    0.218878f,      0.094941f,      -0.040051f,      0.162146f,      0.126553f,      -0.122385f,      -0.016515f,      -0.220750f,      -0.148653f,      -0.262361f,      -0.299892f,      0.330857f,      0.060166f,      -0.113890f}};

static const float32_t f_Front_uss_dnn_inner_output_layer_bias_Normal[4]= 
{    -1.497112f,      -0.439560f,      -0.081463f,      -0.381533f};

static const float32_t f_Front_vel_dnn_input_layer_weight_Normal[2]= 
{    -0.054505f,    -0.379686f};

static const float32_t f_Front_vel_dnn_input_layer_bias_Normal[2]= 
{    -0.162713f,      1.768365f};

static const float32_t f_Front_vel_dnn_output_layer_weight_Normal[2]= 
{    -0.095450f,      1.377053f};

static const float32_t f_Front_vel_dnn_output_layer_bias_Normal=     0.767725f;

static const float32_t f_Front_temp_dnn_input_layer_weight_Normal[2]= 
{    -5.520605f,    4.147410f};

static const float32_t f_Front_temp_dnn_input_layer_bias_Normal[2]= 
{    3.212681f,      -1.188826f};

static const float32_t f_Front_temp_dnn_output_layer_weight_Normal[2]= 
{    -4.893832f,      -3.893476f};

static const float32_t f_Front_temp_dnn_output_layer_bias_Normal=     -0.111854f;

static const float32_t f_Front_input_layer_weight_Normal[32][22]= {
{    0.256619f,      0.449402f,      0.234843f,      0.296637f,      -0.533661f,      -0.524918f,      -1.149640f,      -0.255962f,      0.199162f,      -0.083851f,      -0.612647f,      0.017329f,      -0.187906f,      0.237539f,      -0.033318f,      -0.306048f,      0.399869f,      1.936988f,      0.216346f,      0.240836f,      -0.056520f,      -0.158582f},
{    0.136972f,      0.042965f,      0.157257f,      -0.386390f,      0.134280f,      -0.222402f,      0.310059f,      -0.328787f,      -0.019380f,      0.361855f,      -0.052693f,      -0.029993f,      -0.481171f,      -1.104853f,      -0.324701f,      -0.475280f,      -0.542698f,      1.744539f,      0.582290f,      -0.284331f,      -0.621906f,      -0.137719f},
{    0.009611f,      -1.043678f,      -0.705761f,      -0.490560f,      -0.211850f,      0.313347f,      -1.363073f,      -1.772254f,      -0.298508f,      0.191032f,      -0.477078f,      -0.017796f,      -0.051458f,      -0.565730f,      -0.253328f,      -0.124304f,      -0.557075f,      0.567829f,      -0.285831f,      -0.016430f,      0.140574f,      0.217358f},
{    -0.787212f,      -0.326537f,      -0.591092f,      -0.057316f,      0.387502f,      -0.515487f,      -1.017365f,      0.146956f,      -0.673970f,      -0.008727f,      -0.263625f,      -0.133181f,      -0.196524f,      -0.908532f,      -0.026802f,      -0.043061f,      -0.746096f,      0.414043f,      -0.362243f,      0.462683f,      0.260897f,      -0.007272f},
{    0.265540f,      -0.148891f,      0.156496f,      -0.765478f,      -0.003634f,      0.056415f,      0.047614f,      0.247498f,      0.041038f,      -0.492617f,      0.363628f,      0.034585f,      0.127124f,      0.157115f,      0.433721f,      -0.454784f,      -1.338510f,      1.124531f,      0.748504f,      0.832174f,      -0.420536f,      -0.744009f},
{    0.189335f,      0.173616f,      0.055515f,      -0.582761f,      -0.487322f,      -0.721238f,      -0.699660f,      -0.345048f,      -0.462728f,      -0.238272f,      -0.509389f,      0.173700f,      0.123541f,      -0.123401f,      -0.375083f,      -0.848440f,      0.854334f,      0.356690f,      0.434436f,      1.068674f,      0.225467f,      -0.330879f},
{    0.516478f,      0.121620f,      0.434407f,      0.266274f,      -0.085701f,      0.020499f,      -0.768857f,      -0.089083f,      -0.085949f,      -0.132963f,      0.424480f,      -0.185882f,      0.476649f,      0.098794f,      0.273918f,      -0.701252f,      -0.402961f,      1.812235f,      -1.405107f,      0.717558f,      0.798573f,      0.861909f},
{    0.404348f,      0.085390f,      0.143153f,      -0.338934f,      -0.244202f,      -1.316091f,      0.284768f,      -0.121273f,      -0.813324f,      0.405614f,      0.661541f,      0.503619f,      -0.516808f,      -0.123390f,      -1.591987f,      -0.042611f,      -1.031514f,      0.744329f,      -0.312060f,      -0.652659f,      -0.728325f,      0.101607f},
{    0.077042f,      -0.003356f,      -0.906542f,      -0.069509f,      -0.492160f,      0.146832f,      -0.371009f,      -0.571567f,      0.152323f,      -0.265165f,      -0.615160f,      -1.459411f,      -0.165251f,      -0.357077f,      -0.181294f,      -0.090501f,      0.798739f,      -0.008598f,      0.191412f,      -0.456920f,      -0.588671f,      -0.185208f},
{    0.247572f,      -0.271511f,      -0.983454f,      0.137932f,      0.092106f,      -0.681747f,      -0.574546f,      -0.044571f,      -0.109486f,      -0.318611f,      0.008680f,      -0.336358f,      0.257097f,      -0.197471f,      -1.576924f,      0.182765f,      1.692983f,      0.154557f,      -0.069402f,      -0.223434f,      0.213729f,      0.134332f},
{    -0.078322f,      -0.079740f,      -1.471975f,      0.015932f,      0.405960f,      -0.638048f,      -0.833610f,      0.070433f,      -0.571916f,      -0.237747f,      -0.259094f,      0.062765f,      0.010865f,      0.307613f,      0.217235f,      -0.084091f,      -0.303730f,      2.669786f,      -2.557644f,      -0.049415f,      0.333301f,      1.799324f},
{    -0.051534f,      0.114776f,      0.039918f,      0.370490f,      0.198057f,      -0.009635f,      0.508842f,      0.059664f,      0.094720f,      -0.043770f,      0.324386f,      -0.100625f,      0.235116f,      0.199356f,      0.007490f,      0.330599f,      -0.679443f,      -2.599040f,      0.181242f,      0.071696f,      0.555478f,      0.100240f},
{    0.318122f,      0.044728f,      0.201892f,      0.431313f,      -0.215102f,      -0.154587f,      -0.073673f,      -0.597218f,      -0.281630f,      -0.163882f,      -0.994226f,      -0.547255f,      0.476234f,      0.626999f,      0.119458f,      0.370574f,      0.100428f,      -0.783326f,      -0.190126f,      -0.827282f,      -0.448588f,      0.161894f},
{    0.347406f,      -1.066917f,      -0.118812f,      -0.194870f,      -0.780450f,      -0.616993f,      -0.618854f,      -0.367435f,      0.026639f,      -0.195608f,      -0.217946f,      -0.103618f,      -0.391275f,      -0.038529f,      -0.210092f,      -0.028480f,      -0.594858f,      -1.662340f,      0.010893f,      -1.078485f,      -0.406618f,      -0.114866f},
{    -0.021542f,      -0.384946f,      -0.540699f,      0.254539f,      -0.224587f,      0.297870f,      -0.236781f,      -0.131386f,      0.043406f,      -0.394737f,      -0.302737f,      0.131573f,      -0.021897f,      -0.114930f,      -0.695219f,      0.289576f,      0.368272f,      2.927897f,      0.684140f,      0.311356f,      -0.622244f,      -0.126821f},
{    0.140400f,      -0.352225f,      -0.638858f,      -0.076986f,      -0.933811f,      -0.067790f,      0.248073f,      -0.114037f,      -0.974272f,      0.771388f,      -0.028268f,      -0.054114f,      -0.714949f,      0.214206f,      0.181702f,      -0.453394f,      0.323279f,      1.629635f,      0.171875f,      1.842590f,      0.817917f,      -0.233415f},
{    0.285934f,      0.097279f,      0.153267f,      0.487107f,      0.218365f,      -0.107860f,      -0.012958f,      0.209232f,      0.336100f,      -0.727163f,      -0.187503f,      0.016250f,      0.318581f,      0.115571f,      -0.028593f,      0.238522f,      -1.936411f,      3.095338f,      -0.233880f,      0.831752f,      -0.028869f,      0.162894f},
{    0.099587f,      -0.578777f,      -1.132813f,      -0.131142f,      -0.179755f,      -0.001669f,      0.542675f,      0.057927f,      0.275039f,      -0.852290f,      -0.889139f,      -0.311192f,      -1.302778f,      0.314368f,      0.226964f,      0.110600f,      -0.967417f,      0.112724f,      -0.762466f,      0.717998f,      -0.043901f,      0.755785f},
{    -1.236206f,      -0.104818f,      -1.679613f,      0.104406f,      -0.190012f,      -1.703311f,      -0.516157f,      0.204517f,      -0.209651f,      -0.165473f,      0.062760f,      0.028229f,      -0.333307f,      0.105447f,      -0.296572f,      0.055140f,      0.296800f,      -2.955045f,      -0.944431f,      -0.558892f,      -0.304561f,      0.517754f},
{    0.202739f,      -0.003737f,      0.904471f,      -0.088872f,      -0.050007f,      -0.609229f,      -0.147133f,      -0.345073f,      -0.732126f,      0.275810f,      0.047139f,      -0.346436f,      -1.084266f,      -0.244863f,      -0.920140f,      -0.982711f,      -0.039263f,      1.035270f,      0.281408f,      1.120846f,      0.119616f,      -0.021838f},
{    -0.145774f,      -0.047079f,      -0.150069f,      -1.224761f,      -1.498075f,      -0.115968f,      -0.032384f,      0.044374f,      -0.019396f,      -0.653943f,      -0.901071f,      0.020169f,      -0.120349f,      -0.142622f,      0.167448f,      -0.255024f,      1.104554f,      -2.336150f,      -0.859497f,      0.744708f,      0.586971f,      0.718771f},
{    -0.160955f,      0.815518f,      -0.126565f,      -0.055210f,      0.316506f,      -0.314695f,      -0.119427f,      -0.180989f,      0.045369f,      -0.276537f,      -0.486950f,      -0.780020f,      -0.086085f,      0.642785f,      0.498143f,      0.261308f,      -0.250117f,      2.060388f,      0.504362f,      -2.145835f,      -1.373496f,      -0.390258f},
{    -0.517029f,      -0.217978f,      -0.198633f,      -0.075221f,      -0.446886f,      0.260520f,      0.015903f,      0.210000f,      -0.643828f,      -1.199578f,      0.077498f,      0.187269f,      -0.457636f,      0.472645f,      -0.462935f,      -0.020336f,      0.238097f,      -0.609562f,      0.304926f,      -1.059479f,      -0.639687f,      -0.227011f},
{    -0.064938f,      -0.037604f,      0.104379f,      0.120709f,      0.072740f,      -0.010916f,      0.469370f,      0.012170f,      0.016730f,      0.342896f,      0.261293f,      0.028059f,      0.076761f,      0.071699f,      -0.050521f,      0.147686f,      -0.525612f,      7.822549f,      0.461469f,      1.885415f,      1.948419f,      -0.413929f},
{    0.176810f,      0.000390f,      0.425984f,      -0.598884f,      -2.145152f,      -0.123902f,      0.342300f,      0.075011f,      -0.364090f,      0.122052f,      -0.460665f,      0.310559f,      0.253591f,      0.054343f,      0.487531f,      -0.910250f,      -0.958464f,      1.138334f,      0.083240f,      0.192546f,      0.040727f,      -0.058419f},
{    0.180402f,      0.249941f,      -0.034410f,      -0.088609f,      0.308035f,      0.273215f,      0.140490f,      -0.123725f,      0.274557f,      -0.146275f,      -0.203057f,      -0.219553f,      0.267958f,      0.110238f,      0.185649f,      -0.123571f,      0.070010f,      5.477459f,      -1.144636f,      1.688470f,      1.338714f,      0.797557f},
{    -0.339395f,      -0.913789f,      -0.124576f,      -0.164556f,      -0.306739f,      -0.669815f,      0.615710f,      -0.500786f,      0.118278f,      -0.345165f,      0.374897f,      -0.452820f,      0.306005f,      -0.019768f,      0.481442f,      -0.583120f,      0.071663f,      0.455235f,      0.147471f,      -0.701243f,      -0.072717f,      -0.056970f},
{    -0.850523f,      0.071727f,      -0.044324f,      -0.162749f,      -0.732249f,      -0.860916f,      -0.551543f,      0.223677f,      -0.929284f,      -0.446814f,      -0.401613f,      -0.355306f,      0.232951f,      -0.715090f,      -1.480827f,      -0.128515f,      0.325028f,      -1.597155f,      0.156889f,      -0.073705f,      -0.169921f,      -0.045744f},
{    -0.026467f,      0.257901f,      0.040164f,      0.113641f,      -0.115725f,      -0.052388f,      -0.171712f,      -0.134787f,      -0.069942f,      -0.075560f,      0.080933f,      -0.070174f,      -0.190832f,      0.149303f,      -0.309411f,      -0.758103f,      -0.528983f,      -3.069755f,      -0.059602f,      -3.226550f,      -1.510325f,      0.080303f},
{    -0.944243f,      -1.059926f,      -0.422697f,      -1.001415f,      -0.207284f,      -0.716141f,      -0.213873f,      -0.330342f,      -0.113084f,      -0.428966f,      0.241962f,      -0.568909f,      -0.007694f,      -0.200415f,      0.495037f,      -0.146476f,      1.770033f,      -1.628175f,      -1.061890f,      0.001688f,      -0.099640f,      0.731546f},
{    -0.875393f,      0.309717f,      -0.572996f,      -0.223618f,      -0.152139f,      0.176157f,      0.317735f,      -0.322663f,      -0.650848f,      -0.550265f,      -0.346381f,      -0.467456f,      -0.047898f,      0.425380f,      -0.106414f,      -0.452166f,      0.261843f,      1.737910f,      0.569757f,      1.600974f,      0.618222f,      -0.108252f},
{    -0.870205f,      -0.210889f,      0.281960f,      -0.418220f,      -0.016396f,      -0.884001f,      0.191804f,      -1.207039f,      -0.553798f,      0.039756f,      -0.187393f,      -0.001998f,      -0.204988f,      0.295678f,      -2.445688f,      -0.461329f,      -0.470476f,      -0.738413f,      0.117343f,      -0.133529f,      0.067889f,      0.053967f}};

static const float32_t f_Front_input_layer_bias_Normal[32]= 
{    -0.141435f,      -0.633416f,      -0.232039f,      -0.366625f,      -0.535607f,      0.764703f,      0.004410f,      -1.401127f,      0.193911f,      1.286924f,      -0.899698f,      -0.619675f,      -0.093836f,      -0.587471f,      0.164351f,      0.909863f,      -1.615666f,      -1.133448f,      -0.577960f,      0.754655f,      -0.585929f,      -0.741385f,      0.427902f,      -0.082363f,      0.623461f,      -0.263669f,      0.525018f,      -0.025588f,      -0.150521f,      0.120519f,      0.543575f,      0.536023f};

static const float32_t f_Front_hidden_layer_weight_Normal[14][32]= {
{    -0.471094f,      0.094210f,      0.425499f,      0.148373f,      -0.494782f,      -0.241763f,      -0.140503f,      -0.654299f,      -1.124522f,      -1.034254f,      0.738428f,      -1.720193f,      -0.086173f,      0.109609f,      -0.505474f,      -0.294507f,      -1.116465f,      -0.334417f,      -0.957774f,      0.484532f,      -0.645372f,      -3.025200f,      -0.040994f,      -0.410210f,      -0.095768f,      -0.747716f,      0.244649f,      0.570113f,      -1.402335f,      -0.964482f,      0.544465f,      -0.307658f},
{    -0.548481f,      -0.058301f,      -0.415585f,      -0.025455f,      0.161209f,      1.041727f,      -0.161931f,      0.455611f,      -0.460317f,      -0.967617f,      -0.125525f,      0.126873f,      -0.064293f,      0.397767f,      -0.439372f,      -0.696718f,      0.233866f,      -0.009975f,      -0.475217f,      -0.433524f,      -0.788854f,      -0.179423f,      0.172809f,      -0.044360f,      0.132392f,      -0.077146f,      0.088201f,      0.061093f,      -0.825302f,      0.553466f,      0.100372f,      -0.923450f},
{    0.046542f,      -0.021410f,      -0.530647f,      0.131878f,      -0.291537f,      0.116339f,      0.455392f,      -0.171647f,      0.309870f,      0.289610f,      -0.113397f,      -0.121546f,      -0.401237f,      -0.255851f,      0.097706f,      0.160918f,      -0.414485f,      -0.063904f,      0.172948f,      0.182128f,      0.162944f,      0.243296f,      0.376189f,      -0.083472f,      -0.092032f,      -0.112269f,      -0.245361f,      -0.513888f,      -0.170762f,      0.766764f,      0.103893f,      -0.291958f},
{    0.517659f,      0.444547f,      0.105300f,      0.002351f,      0.633023f,      -0.458769f,      0.057117f,      -0.328299f,      -1.729607f,      -0.843404f,      -0.632409f,      -0.229875f,      -0.264164f,      -0.387689f,      0.192989f,      -0.714697f,      -0.110829f,      -0.610771f,      0.118187f,      -0.202618f,      -1.251193f,      0.154064f,      -0.033299f,      -0.063875f,      -0.126951f,      -1.754468f,      0.055152f,      0.128649f,      -0.360898f,      -0.116260f,      0.940492f,      -0.184436f},
{    0.167004f,      0.106439f,      -1.263992f,      -0.087334f,      0.177036f,      0.241620f,      -0.343740f,      -0.056554f,      -0.423889f,      -0.000626f,      -0.082262f,      0.248310f,      -0.085156f,      -0.117921f,      0.215040f,      0.405923f,      -0.117052f,      -0.116458f,      0.007831f,      0.426937f,      -0.108358f,      0.056719f,      -0.200816f,      -1.311785f,      0.159864f,      -0.072143f,      0.281978f,      0.006256f,      -0.086214f,      -0.215926f,      0.815839f,      -0.345005f},
{    -0.008361f,      -0.640355f,      0.757236f,      -0.344311f,      -0.156722f,      0.214107f,      -0.966653f,      -0.025477f,      -0.100671f,      -0.398575f,      -0.382734f,      0.281540f,      -0.289356f,      -0.556411f,      -0.864080f,      -1.345194f,      -0.548568f,      0.144054f,      -1.689270f,      -0.376006f,      -0.662029f,      -0.222292f,      -0.059442f,      -1.544641f,      -1.027383f,      0.174239f,      0.203483f,      0.055727f,      0.321078f,      0.561814f,      -0.753328f,      0.113455f},
{    0.320770f,      0.418072f,      0.163587f,      -1.076517f,      0.122542f,      -0.026254f,      -0.745089f,      -1.094354f,      0.417564f,      -0.146401f,      0.368302f,      -0.062421f,      -0.091379f,      -0.878552f,      0.018778f,      0.219519f,      -0.148036f,      -1.513052f,      -0.268864f,      0.343464f,      -0.134957f,      0.443843f,      -0.177237f,      -0.243000f,      -0.282533f,      -0.762268f,      0.363264f,      -0.387521f,      0.209658f,      1.048159f,      0.421011f,      0.326495f},
{    0.606442f,      0.455735f,      -0.050388f,      0.087196f,      0.248430f,      0.265664f,      -0.048040f,      -0.063300f,      0.116074f,      -0.210760f,      0.795873f,      0.031597f,      0.250120f,      -0.108048f,      0.294504f,      -0.441725f,      0.201948f,      0.000007f,      -0.251919f,      -0.350825f,      0.143287f,      0.295934f,      -0.197610f,      -0.210577f,      -0.091308f,      -1.121710f,      -0.476005f,      -0.118362f,      -0.547535f,      -0.321893f,      0.272844f,      0.161271f},
{    0.130374f,      -0.339457f,      0.329996f,      0.445035f,      -0.222072f,      0.548891f,      -0.676746f,      0.059314f,      0.211366f,      0.126702f,      -0.379503f,      -0.414994f,      -0.287088f,      -0.002811f,      0.462676f,      0.304897f,      0.235204f,      0.107689f,      0.186562f,      0.301035f,      0.444964f,      -0.742681f,      0.352192f,      -0.202970f,      -1.525941f,      -0.689905f,      0.412005f,      0.395816f,      -0.632461f,      -0.518681f,      0.290747f,      0.336546f},
{    -0.007196f,      0.361260f,      0.170903f,      -0.531181f,      0.292277f,      0.446680f,      -0.340589f,      0.273189f,      -0.241770f,      0.012293f,      -0.450819f,      0.058414f,      -0.734575f,      0.234095f,      0.228115f,      0.256625f,      -0.345381f,      0.057551f,      -0.153128f,      -0.101717f,      -0.175732f,      0.058320f,      -0.932111f,      -0.382578f,      -0.330012f,      -0.185237f,      0.211838f,      -0.247316f,      -0.296069f,      0.453800f,      -0.318684f,      -0.117225f},
{    -0.374371f,      -0.517776f,      0.106248f,      0.184749f,      -0.867849f,      -0.972195f,      0.149355f,      -0.240412f,      0.251246f,      -0.227475f,      -0.242324f,      -0.189361f,      -1.176517f,      -0.840827f,      0.476589f,      -0.254920f,      -0.272353f,      -0.180994f,      0.267876f,      0.025671f,      0.093058f,      -0.270794f,      0.355633f,      -0.910593f,      -0.143643f,      0.542232f,      0.440904f,      -0.383587f,      0.506774f,      0.574368f,      0.154829f,      -0.091902f},
{    -0.369450f,      -0.367374f,      0.568589f,      0.168461f,      -0.775492f,      0.257601f,      0.665983f,      0.310586f,      0.291642f,      0.062420f,      -0.004887f,      0.033032f,      0.187290f,      0.571524f,      -1.484060f,      0.250021f,      -0.502703f,      0.001416f,      -0.394242f,      -0.020372f,      -0.241380f,      0.148037f,      0.219198f,      -0.689447f,      -0.332625f,      -0.612559f,      -0.096835f,      0.621721f,      0.173805f,      0.003696f,      0.682420f,      0.070463f},
{    -0.696184f,      -0.101715f,      0.622289f,      -0.545219f,      0.064827f,      0.493615f,      -0.806096f,      -0.775883f,      -0.602953f,      0.936144f,      -0.245090f,      -0.123187f,      -1.069558f,      0.182119f,      -0.473422f,      -0.521814f,      -1.095323f,      -0.386987f,      -0.141270f,      0.255677f,      0.252093f,      -1.402648f,      -0.516846f,      0.611521f,      -0.488496f,      -0.411743f,      0.417855f,      -0.480600f,      -0.128028f,      -1.315832f,      -0.571765f,      -0.626254f},
{    0.269001f,      -0.271517f,      0.249500f,      0.038146f,      0.157597f,      -0.934794f,      0.014759f,      0.313556f,      0.204333f,      0.020455f,      0.094144f,      -0.646949f,      0.297751f,      0.400703f,      0.428343f,      0.528434f,      0.043378f,      0.041083f,      0.011212f,      0.241053f,      -0.241377f,      0.232446f,      -0.854697f,      0.737574f,      -0.253686f,      0.315060f,      0.060983f,      0.911042f,      0.200800f,      -0.235907f,      0.004043f,      -0.114280f}};

static const float32_t f_Front_hidden_layer_bias_Normal[14]= 
{    0.117861f,      -0.623520f,      1.276916f,      -0.933565f,      -0.538668f,      -0.915514f,      0.109422f,      -1.346559f,      0.562372f,      1.132679f,      0.327829f,      0.411693f,      0.846597f,      -1.191994f};

static const float32_t f_Front_reset_gate_weight_Normal[7][21]= {
{    2.466089f,      -0.193746f,      0.198360f,      0.123416f,      -0.125809f,      -0.937489f,      0.525232f,      -1.533939f,      1.891086f,      -0.227841f,      -0.152010f,      -0.336581f,      1.499466f,      -0.532977f,      0.777725f,      0.681584f,      -0.915059f,      -0.618155f,      0.248979f,      -0.725904f,      0.227918f},
{    -0.220764f,      0.882656f,      -0.866767f,      -0.477623f,      1.188046f,      -0.330208f,      -0.536624f,      -0.001939f,      0.157303f,      0.058715f,      0.056191f,      0.697581f,      0.339251f,      0.828154f,      2.578497f,      -0.868006f,      0.323842f,      1.796991f,      -1.387917f,      -0.215649f,      -0.733558f},
{    0.106383f,      0.320484f,      -0.718461f,      0.271544f,      -0.357758f,      -0.336606f,      -0.315406f,      -1.169783f,      -0.347545f,      -0.153236f,      -0.470619f,      0.195659f,      0.020472f,      -1.051859f,      -2.420385f,      -0.817669f,      0.342144f,      -0.456056f,      0.077683f,      1.383342f,      0.027794f},
{    0.122469f,      -0.558829f,      -0.051787f,      -0.579460f,      -0.389767f,      0.535890f,      0.040211f,      0.257875f,      0.710100f,      -1.033763f,      -1.647128f,      -0.095512f,      1.592715f,      0.597607f,      -2.333880f,      0.571460f,      -0.080866f,      -0.805838f,      0.152868f,      3.219864f,      -0.302613f},
{    2.208117f,      0.555579f,      -0.043687f,      -0.952368f,      -0.158080f,      1.421773f,      -0.374731f,      -1.462710f,      -0.704361f,      -0.424967f,      1.215846f,      2.205254f,      -0.174587f,      0.866313f,      2.247426f,      0.063094f,      1.154703f,      -0.484115f,      -0.212338f,      -0.676241f,      -0.056080f},
{    1.647505f,      -0.688548f,      0.587687f,      0.569036f,      -1.656252f,      -1.328208f,      -1.150667f,      0.264426f,      -1.073720f,      -0.137325f,      1.066160f,      -1.250078f,      -0.716600f,      -0.629975f,      1.551996f,      -0.128508f,      -1.014402f,      0.075118f,      -0.592792f,      -1.535634f,      1.104173f},
{    1.977395f,      -0.076833f,      -0.214704f,      0.063376f,      0.032753f,      -0.065373f,      0.092407f,      -0.629542f,      -0.760714f,      0.480341f,      -1.115596f,      -0.044557f,      1.724751f,      -0.788038f,      2.538503f,      -0.027141f,      1.660192f,      -1.031233f,      -1.253335f,      0.699434f,      0.450501f}};

static const float32_t f_Front_reset_gate_bias_Normal[7]= 
{    1.531154f,      -0.503599f,      -1.344760f,      -0.792940f,      0.091371f,      0.428965f,      -0.441498f};

static const float32_t f_Front_update_gate_weight_Normal[7][21]= {
{    1.081679f,      -0.010237f,      -0.126397f,      0.061807f,      0.010468f,      -0.087777f,      -0.267568f,      0.070359f,      -0.372717f,      0.054298f,      0.154893f,      0.002966f,      -0.224525f,      -0.039809f,      0.298127f,      -0.260984f,      0.127766f,      0.132172f,      0.314179f,      -0.127024f,      -0.749702f},
{    1.142234f,      -0.433328f,      -0.595445f,      0.443091f,      -0.506571f,      0.211509f,      -0.065968f,      0.062667f,      -1.734481f,      0.376838f,      0.147635f,      0.187141f,      -0.233856f,      0.272666f,      1.055680f,      -0.479587f,      1.012687f,      -0.164880f,      1.931193f,      0.172427f,      -0.078058f},
{    -0.026058f,      -0.187425f,      -0.324986f,      -0.093893f,      -0.033411f,      -0.403382f,      0.156197f,      -0.071390f,      0.000062f,      0.265849f,      0.080044f,      -0.660231f,      -0.237032f,      -0.640214f,      0.517192f,      -0.037492f,      -0.573335f,      1.180407f,      0.263334f,      0.099059f,      -0.666665f},
{    1.989291f,      -0.066162f,      -1.488323f,      0.711345f,      -0.085407f,      -0.417589f,      0.001530f,      -0.076086f,      0.042077f,      -0.022568f,      -0.376180f,      -0.352003f,      0.583038f,      -0.738578f,      -0.081914f,      0.567307f,      0.393658f,      1.419842f,      -0.173668f,      1.405059f,      0.209199f},
{    -1.390612f,      -1.601764f,      0.187065f,      0.975804f,      -1.044476f,      2.027342f,      -0.351124f,      -0.344520f,      0.190604f,      -0.327469f,      -0.113283f,      -0.145866f,      -0.588143f,      -0.261774f,      0.889260f,      -0.045456f,      -1.032658f,      -0.786304f,      -0.344186f,      0.138465f,      -2.066687f},
{    0.011644f,      0.081512f,      0.073938f,      -0.008667f,      0.068608f,      0.398622f,      0.274288f,      -0.117597f,      0.032409f,      -0.431054f,      -1.423588f,      -0.457499f,      -0.003565f,      0.136315f,      0.224157f,      -0.535480f,      -0.076421f,      -0.394679f,      0.152264f,      -0.542301f,      -1.837837f},
{    0.862730f,      -0.059401f,      -0.156489f,      0.011451f,      0.113529f,      0.225565f,      0.128812f,      -0.046368f,      -1.259771f,      0.075075f,      0.260087f,      -0.018044f,      -0.408492f,      0.237356f,      0.490097f,      -0.896037f,      0.295687f,      0.655927f,      0.556367f,      -0.961076f,      -0.577977f}};

static const float32_t f_Front_update_gate_bias_Normal[7]= 
{    -0.120130f,      -1.277525f,      -0.109132f,      -0.651791f,      -1.067976f,      -1.220032f,      -0.201071f};

static const float32_t f_Front_new_gate_weight_Normal[7][21]= {
{    0.342463f,      -0.196295f,      0.038776f,      -0.267104f,      -0.193623f,      0.112848f,      0.534051f,      -0.192251f,      0.156398f,      -0.011130f,      0.016357f,      -0.026997f,      0.097533f,      0.147812f,      1.739476f,      0.072349f,      -0.070914f,      1.419588f,      -1.209038f,      1.565767f,      -0.953171f},
{    -0.573957f,      0.577728f,      0.178245f,      0.425698f,      0.245609f,      -0.690482f,      0.407991f,      0.171960f,      -0.665211f,      -0.163538f,      0.326687f,      1.032857f,      -0.320832f,      0.359625f,      0.811689f,      0.674951f,      0.212847f,      -0.178127f,      0.199580f,      -0.761239f,      0.570677f},
{    0.928682f,      0.397170f,      -0.206384f,      -0.057154f,      0.202444f,      -0.539726f,      0.066685f,      -0.352055f,      -0.280765f,      0.058384f,      0.320730f,      -0.330841f,      0.746876f,      0.816669f,      1.800879f,      0.900867f,      -0.280876f,      -0.659456f,      0.966118f,      1.291276f,      0.876588f},
{    0.279272f,      -0.115183f,      -0.083508f,      -1.185035f,      -0.100534f,      -0.702004f,      -0.535152f,      0.018054f,      -0.246112f,      -0.740539f,      -0.508420f,      1.117076f,      -0.311157f,      -0.878207f,      0.406512f,      -0.090615f,      0.038092f,      -0.047552f,      0.547898f,      -0.993054f,      -1.145575f},
{    0.728768f,      0.283327f,      0.062203f,      -1.066559f,      -1.489958f,      -0.379406f,      0.352408f,      0.471087f,      0.276891f,      0.288580f,      -0.132218f,      -0.827727f,      0.951809f,      -0.490215f,      -3.138991f,      -0.293447f,      -0.526933f,      0.432695f,      0.903141f,      -1.103285f,      -1.004114f},
{    -0.444117f,      -0.259262f,      0.045265f,      -0.084937f,      -0.012409f,      0.060725f,      0.306589f,      0.365090f,      -0.151112f,      0.157376f,      0.059816f,      -0.089859f,      -0.376503f,      0.470192f,      -0.539589f,      0.987438f,      1.071138f,      1.903881f,      -1.775606f,      -0.824313f,      0.869337f},
{    -0.153818f,      0.096047f,      0.048154f,      1.118640f,      0.290191f,      -0.033171f,      0.200064f,      0.305089f,      0.361214f,      0.462091f,      0.039850f,      -0.195876f,      0.094926f,      0.104916f,      1.505005f,      -0.533707f,      0.362846f,      -0.386206f,      0.408547f,      0.546041f,      1.060635f}};

static const float32_t f_Front_new_gate_bias_Normal[7]= 
{    1.271507f,      -0.544815f,      0.611969f,      -0.172234f,      0.316767f,      0.786287f,      0.113331f};

static const float32_t f_Front_output_layer_weight_Normal[7][7]= {
{    2.664943f,      0.962289f,      0.641733f,      0.327175f,      -0.159537f,      0.985061f,      -1.304282f},
{    0.421833f,      -1.470837f,      2.951929f,      -1.458385f,      0.659453f,      0.339605f,      0.110281f},
{    0.413506f,      0.105236f,      0.941381f,      -0.197674f,      -0.190531f,      3.496211f,      1.265785f},
{    0.753759f,      0.753423f,      -0.417445f,      0.088836f,      -1.665046f,      -0.262092f,      2.022306f},
{    -2.774669f,      1.472278f,      -0.681557f,      0.434077f,      -0.982593f,      0.938400f,      1.390062f},
{    -0.826242f,      0.024734f,      1.578912f,      -1.680909f,      -0.074912f,      -0.471279f,      0.996645f},
{    0.326877f,      0.994961f,      -0.309272f,      -0.981237f,      -0.536736f,      1.159257f,      -1.618823f}};

static const float32_t f_Front_output_layer_bias_Normal[7]= 
{    0.673080f,      0.301601f,      0.038874f,      0.466218f,      1.037872f,      -1.320828f,      0.574428f};

static const float32_t f_Front_final_layer_weight_Normal[5][7]= {
{    0.935142f,      -1.441270f,      0.782491f,      -0.351560f,      -0.275070f,      -2.325767f,      1.356321f},
{    -1.202085f,      -2.231932f,      -0.665242f,      -3.592535f,      2.201611f,      -3.314097f,      -0.568665f},
{    0.374496f,      1.586542f,      -0.014264f,      0.902061f,      -3.045759f,      0.703344f,      -0.803724f},
{    -1.911989f,      0.367821f,      0.619329f,      0.382414f,      -0.233192f,      0.702519f,      -0.962979f},
{    -0.163661f,      -1.740468f,      -3.005844f,      0.918183f,      0.930131f,      1.347653f,      -0.251896f}};

static const float32_t f_Front_final_layer_bias_Normal[5]= 
{    -0.036946f,      0.420011f,      -0.088612f,      -0.685316f,      -0.506217f};

#endif
