/*From file:  model_weights_rear_normal_2.13.19_DT*/

/* ------- Rear Normal mode weights -------*/
#ifndef USSMGR_REAR_NORMALRNN_H_
#define USSMGR_REAR_NORMALRNN_H_

static const float32_t f_Rear_uss_dnn_outer_input_layer_weight_Normal[14][7]= {
{    -0.696900f,      -0.147882f,      -0.601827f,      0.107995f,      -2.135936f,      -0.004131f,      0.119526f},
{    -0.341717f,      -1.321017f,      1.443948f,      0.063203f,      -1.208864f,      1.003554f,      -0.045809f},
{    -0.465696f,      -0.188846f,      0.658749f,      -0.153014f,      0.048631f,      -1.113384f,      0.236608f},
{    0.228259f,      -1.678506f,      0.053515f,      -0.414153f,      -3.485063f,      -0.555423f,      0.120352f},
{    0.138465f,      0.084244f,      -0.363547f,      -0.665494f,      -1.596140f,      1.086426f,      0.321973f},
{    -0.640932f,      -0.488685f,      0.349635f,      0.531366f,      -1.373088f,      0.430613f,      -0.124110f},
{    -0.632049f,      0.207653f,      -1.368526f,      0.184776f,      0.864766f,      -0.387350f,      0.033946f},
{    -0.022866f,      -0.327473f,      -0.469059f,      -0.119646f,      -0.267642f,      1.683093f,      -0.139672f},
{    -0.308146f,      -0.927843f,      -0.069226f,      0.045210f,      -0.506233f,      1.411339f,      -0.382386f},
{    -0.091031f,      -1.416216f,      0.300967f,      0.159792f,      -1.793570f,      -1.029926f,      0.416230f},
{    -0.176094f,      -0.225735f,      -0.430796f,      0.628979f,      -2.164948f,      0.453545f,      -0.068260f},
{    0.141646f,      -3.410719f,      -1.272479f,      0.268155f,      -1.437180f,      0.592442f,      0.028330f},
{    -0.253683f,      -1.482580f,      0.627582f,      -0.444031f,      -2.264575f,      0.902951f,      -0.102472f},
{    0.838178f,      0.879574f,      -0.575370f,      -0.105843f,      1.550788f,      -0.322902f,      0.087224f}};

static const float32_t f_Rear_uss_dnn_outer_input_layer_bias_Normal[14]= 
{    -1.086990f,      -0.153828f,      -1.191374f,      -0.206905f,      -1.099805f,      -0.823086f,      -0.726464f,      -0.547039f,      -0.239585f,      -0.752982f,      -1.012567f,      -0.225027f,      -1.396944f,      -0.925229f};

static const float32_t f_Rear_uss_dnn_outer_output_layer_weight_Normal[4][14]= {
{    0.367528f,      0.172217f,      0.065548f,      0.386250f,      -1.120566f,      -0.566954f,      -0.429537f,      0.360048f,      -0.101059f,      0.620654f,      -0.585190f,      0.907272f,      0.293096f,      -0.324698f},
{    0.002469f,      -0.590267f,      -0.304933f,      -1.041225f,      -0.162282f,      -0.279253f,      -0.454706f,      -0.232671f,      0.023153f,      0.542227f,      -0.287212f,      -0.272984f,      0.776624f,      -0.848324f},
{    0.299997f,      -0.109893f,      -0.068895f,      0.479407f,      -0.032180f,      0.156797f,      -0.181991f,      0.088052f,      -0.707702f,      -0.409471f,      -0.074605f,      0.081668f,      -0.241427f,      -0.343385f},
{    0.782320f,      -0.378811f,      -0.860256f,      0.370603f,      0.069125f,      0.001281f,      -0.374706f,      -1.194864f,      0.011466f,      0.068470f,      -0.090979f,      -0.317235f,      0.063584f,      -0.255612f}};

static const float32_t f_Rear_uss_dnn_outer_output_layer_bias_Normal[4]= 
{    -0.362598f,      0.871909f,      -0.163859f,      0.081152f};

static const float32_t f_Rear_uss_dnn_inner_input_layer_weight_Normal[14][7]= {
{    1.039369f,      -0.440334f,      -0.525292f,      -0.512260f,      0.740645f,      -0.353764f,      0.066596f},
{    0.114526f,      1.442857f,      0.817121f,      -0.212621f,      -0.010039f,      1.294472f,      -0.070825f},
{    -0.649058f,      -3.093376f,      0.358626f,      -0.064937f,      -2.039058f,      -0.076123f,      0.009940f},
{    0.008745f,      -1.174122f,      -0.921991f,      0.220426f,      -2.848894f,      -0.039338f,      0.166517f},
{    -0.040798f,      0.092197f,      1.020223f,      -0.112430f,      -0.258437f,      0.625275f,      -0.403594f},
{    -0.899325f,      -0.151899f,      -0.484388f,      0.096953f,      1.779626f,      0.053890f,      0.077941f},
{    0.159161f,      0.376383f,      -0.289466f,      0.095625f,      0.178303f,      -0.570374f,      -0.530198f},
{    -0.089546f,      -0.868072f,      0.599313f,      0.270143f,      -0.890912f,      -0.994061f,      0.433948f},
{    0.320182f,      1.096799f,      -1.206145f,      -0.248058f,      -0.428269f,      0.163251f,      0.522832f},
{    0.041924f,      -0.128646f,      -0.338714f,      -0.513277f,      -0.708012f,      -0.048143f,      0.391054f},
{    -0.418463f,      -0.139663f,      1.654612f,      0.827904f,      -1.116156f,      0.380869f,      0.215676f},
{    0.441650f,      -1.676971f,      1.320989f,      -0.026601f,      -2.004701f,      0.271070f,      0.045133f},
{    0.132806f,      1.290816f,      -1.760774f,      0.933712f,      -2.041656f,      -1.050638f,      0.031184f},
{    0.098951f,      -1.709159f,      0.438740f,      -0.072628f,      -1.698702f,      -0.235215f,      0.108183f}};

static const float32_t f_Rear_uss_dnn_inner_input_layer_bias_Normal[14]= 
{    -1.089301f,      -2.351861f,      -1.157289f,      -0.893496f,      -2.157502f,      -1.527893f,      -3.434853f,      -0.101309f,      -1.814276f,      -0.489479f,      -1.879667f,      -1.399605f,      -0.264280f,      -0.625549f};

static const float32_t f_Rear_uss_dnn_inner_output_layer_weight_Normal[4][14]= {
{    0.266195f,      0.158179f,      0.100228f,      0.268118f,      -0.692720f,      0.064060f,      -0.724772f,      -0.376493f,      -0.963178f,      -0.099828f,      -0.239129f,      0.278510f,      0.277592f,      -0.031754f},
{    -0.727406f,      -0.689908f,      0.341459f,      -0.714737f,      0.794497f,      -1.037806f,      -0.621283f,      0.876817f,      -0.151059f,      0.297706f,      -0.533109f,      -0.486070f,      -0.000439f,      -0.390567f},
{    -0.504239f,      -0.101627f,      -0.123713f,      0.065131f,      -0.750542f,      -0.338816f,      0.264815f,      -0.270352f,      0.287350f,      -0.331283f,      0.011152f,      0.196493f,      -0.434514f,      -0.086061f},
{    0.088653f,      -0.121445f,      -0.166130f,      0.517841f,      0.179740f,      -0.003330f,      -0.186147f,      0.540756f,      0.059753f,      -0.804922f,      -0.285282f,      -0.109309f,      -0.416331f,      0.223024f}};

static const float32_t f_Rear_uss_dnn_inner_output_layer_bias_Normal[4]= 
{    -0.060330f,      -0.039672f,      0.415388f,      0.167017f};

static const float32_t f_Rear_vel_dnn_input_layer_weight_Normal[2]= 
{    0.366921f,    -3.484900f};

static const float32_t f_Rear_vel_dnn_input_layer_bias_Normal[2]= 
{    -0.851849f,      -1.303114f};

static const float32_t f_Rear_vel_dnn_output_layer_weight_Normal[2]= 
{    -0.247859f,      -3.154044f};

static const float32_t f_Rear_vel_dnn_output_layer_bias_Normal=     1.273816f;

static const float32_t f_Rear_temp_dnn_input_layer_weight_Normal[2]= 
{    -1.902980f,    -1.614387f};

static const float32_t f_Rear_temp_dnn_input_layer_bias_Normal[2]= 
{    0.950466f,      0.806453f};

static const float32_t f_Rear_temp_dnn_output_layer_weight_Normal[2]= 
{    -2.171344f,      -1.954845f};

static const float32_t f_Rear_temp_dnn_output_layer_bias_Normal=     0.569722f;

static const float32_t f_Rear_input_layer_weight_Normal[32][18]= {
{    -0.184695f,      0.115371f,      -0.164687f,      0.243186f,      -0.631741f,      -0.076283f,      -0.116643f,      -0.235324f,      -0.801881f,      -0.090465f,      -0.157358f,      -0.159874f,      -0.212201f,      0.136436f,      -0.169311f,      0.277329f,      -2.637724f,      -0.010856f},
{    0.036617f,      0.328058f,      -0.221156f,      -0.340231f,      -0.057955f,      0.001672f,      0.492547f,      -0.363407f,      0.014249f,      -0.019374f,      0.575293f,      -0.339738f,      0.025884f,      0.365287f,      -0.207789f,      -0.380618f,      -1.295661f,      -7.278520f},
{    0.318145f,      -1.432305f,      0.916445f,      -0.213340f,      0.128206f,      1.768602f,      -0.481272f,      0.414818f,      -0.933644f,      -1.079264f,      0.473411f,      -0.314144f,      0.055552f,      -0.836246f,      0.770617f,      -0.147830f,      -0.343000f,      -0.028818f},
{    -0.570475f,      0.646983f,      -0.428632f,      0.154222f,      -0.525768f,      0.206927f,      -0.110051f,      0.091300f,      0.543324f,      0.816499f,      0.761614f,      0.302991f,      -0.167217f,      0.494563f,      -0.979070f,      0.535032f,      -1.039153f,      0.945854f},
{    -0.691402f,      0.701563f,      0.185023f,      0.434384f,      -0.031775f,      0.912461f,      0.603243f,      0.584403f,      0.247979f,      -0.549133f,      0.361026f,      0.469481f,      -1.032593f,      0.780565f,      -0.188893f,      1.171307f,      -0.550233f,      -0.060570f},
{    -0.233342f,      0.192713f,      0.454756f,      0.175706f,      -0.141920f,      0.457104f,      -0.305511f,      0.222715f,      -0.335874f,      0.210329f,      -0.641161f,      0.416305f,      0.002246f,      0.052654f,      0.446626f,      -0.206420f,      -0.013003f,      1.089835f},
{    0.835818f,      0.689124f,      -0.043236f,      1.348077f,      0.432512f,      1.262923f,      0.113689f,      0.250191f,      0.948396f,      0.528484f,      0.406657f,      -0.123948f,      -0.020678f,      1.012105f,      0.354466f,      0.673428f,      -0.388720f,      0.790714f},
{    0.932952f,      -0.511670f,      0.107034f,      -0.856777f,      -0.807288f,      -0.432419f,      -0.532050f,      0.765680f,      -0.556611f,      -0.281018f,      -0.488697f,      0.657574f,      1.014078f,      -0.535047f,      0.151814f,      -1.071274f,      -2.015857f,      0.408717f},
{    -0.907830f,      0.488157f,      -0.218154f,      0.675649f,      0.418659f,      0.350364f,      -0.015146f,      -0.648557f,      -0.070960f,      0.416429f,      -0.238787f,      -0.656508f,      -1.230937f,      0.518774f,      -0.478571f,      1.314001f,      -1.140647f,      1.154417f},
{    0.799698f,      -0.817227f,      0.778368f,      0.129121f,      1.246279f,      -0.567174f,      -2.127458f,      0.044188f,      0.008669f,      0.450751f,      -0.194486f,      0.294733f,      0.138889f,      -0.819404f,      0.181145f,      1.239485f,      -0.394991f,      -0.320091f},
{    0.373075f,      -0.317368f,      0.324259f,      -0.682599f,      0.746136f,      0.517409f,      -0.053485f,      0.345852f,      0.088716f,      0.732045f,      -0.077297f,      -0.244054f,      -0.239803f,      0.127101f,      0.286778f,      -0.000408f,      -1.627925f,      0.725177f},
{    -0.034340f,      0.460757f,      1.373722f,      0.526346f,      1.674167f,      1.246984f,      0.884871f,      0.587165f,      0.874100f,      0.836562f,      0.580419f,      0.654511f,      -0.153478f,      1.009526f,      0.492891f,      0.211647f,      -1.818165f,      0.373319f},
{    -0.620905f,      0.578899f,      1.007552f,      -0.107194f,      0.248395f,      0.994205f,      1.067871f,      0.339386f,      0.817800f,      0.334638f,      1.222450f,      0.541326f,      -0.905790f,      0.699020f,      1.272904f,      -0.112916f,      -0.274060f,      -1.162334f},
{    0.882422f,      0.012659f,      -1.862639f,      1.020998f,      0.763027f,      0.619125f,      -0.383544f,      -0.144807f,      0.631344f,      0.448458f,      -0.189517f,      -0.283551f,      0.852170f,      0.290871f,      -1.619544f,      0.658803f,      1.501922f,      -0.010150f},
{    0.670363f,      -0.432090f,      0.109600f,      -0.061078f,      1.185180f,      -1.002086f,      0.904186f,      -0.053478f,      1.252683f,      -0.622564f,      0.511699f,      -0.242235f,      0.725837f,      -0.511200f,      0.623267f,      0.132172f,      0.936146f,      -1.100439f},
{    0.250493f,      0.542539f,      -0.252183f,      0.009379f,      -0.427817f,      0.467457f,      0.208647f,      -0.562156f,      -0.659798f,      0.563207f,      0.706971f,      -0.686454f,      -0.263401f,      0.614187f,      -0.169774f,      -0.294569f,      -2.022333f,      0.021901f},
{    0.177717f,      -0.435228f,      0.504595f,      -0.560409f,      -0.577471f,      -0.838078f,      0.070929f,      -0.192580f,      -0.348563f,      -0.800591f,      0.330300f,      -0.323198f,      0.263241f,      -0.501907f,      0.631287f,      -0.516809f,      -0.971781f,      0.004358f},
{    -0.156570f,      0.064358f,      0.135078f,      -0.078423f,      0.163103f,      0.202483f,      0.157450f,      -0.193998f,      -0.028328f,      0.068261f,      0.052081f,      -0.220192f,      -0.214880f,      0.111183f,      0.048306f,      -0.016301f,      -0.627277f,      2.316469f},
{    -0.972553f,      -1.887360f,      -0.305742f,      0.040103f,      0.130681f,      2.311833f,      -1.770737f,      0.207776f,      0.154605f,      0.778811f,      -0.917267f,      0.873300f,      -1.377488f,      -1.682778f,      0.256742f,      0.187258f,      -1.197477f,      0.306641f},
{    -0.230521f,      0.458683f,      0.689186f,      0.107979f,      1.480125f,      1.309243f,      0.380527f,      -0.261571f,      -0.330304f,      0.363979f,      -0.142938f,      0.626746f,      0.434201f,      -0.337091f,      1.848087f,      -0.771749f,      -1.230250f,      -0.322222f},
{    0.942493f,      -1.738661f,      1.326874f,      -0.262652f,      0.773412f,      0.924151f,      0.338162f,      0.197551f,      -0.954159f,      -0.457455f,      -0.485041f,      0.671754f,      -0.585778f,      0.234212f,      0.061427f,      -0.023412f,      -1.000290f,      0.376044f},
{    1.701089f,      -0.411412f,      0.257243f,      -0.497868f,      0.662560f,      -0.469410f,      0.170954f,      0.883423f,      0.708628f,      -0.859740f,      0.094671f,      0.438235f,      1.307330f,      -0.421265f,      0.439480f,      -0.303059f,      0.287825f,      0.200736f},
{    0.237488f,      -0.094055f,      0.320758f,      0.823988f,      1.188892f,      0.408643f,      -0.930035f,      -0.578104f,      -1.136599f,      0.369310f,      -0.469633f,      0.102926f,      0.315203f,      0.163775f,      -0.053632f,      0.319483f,      0.353935f,      0.132287f},
{    -0.773427f,      0.095460f,      -0.329382f,      1.422895f,      -1.020517f,      0.436576f,      -1.176780f,      0.009388f,      1.163042f,      0.188428f,      0.358651f,      -0.899155f,      0.722178f,      -0.078236f,      1.158559f,      1.196067f,      -0.439316f,      0.188064f},
{    -0.354863f,      0.205338f,      -0.311705f,      1.213181f,      -0.139287f,      -1.658535f,      1.027167f,      0.435350f,      0.091992f,      2.090150f,      -0.673769f,      0.360849f,      -0.237635f,      0.290509f,      -0.922240f,      0.084257f,      0.025145f,      -0.072984f},
{    -1.940114f,      -0.463913f,      -1.077566f,      -0.420154f,      0.364565f,      0.838658f,      0.496232f,      -0.127993f,      0.471588f,      1.103307f,      0.198530f,      0.127398f,      -1.807306f,      -0.452227f,      -0.851755f,      -0.224724f,      -0.235515f,      0.002655f},
{    -0.391276f,      -0.105245f,      0.092620f,      0.816507f,      -0.616985f,      -0.070774f,      -1.007977f,      0.497286f,      0.175212f,      0.067875f,      -0.646384f,      0.392345f,      -0.269674f,      -0.072795f,      0.106043f,      0.544320f,      -0.184725f,      0.791364f},
{    0.032721f,      -0.860213f,      1.096622f,      0.493439f,      -0.077387f,      0.768763f,      -0.198708f,      -0.331400f,      1.435622f,      -0.454024f,      -2.089387f,      -0.502011f,      0.394241f,      -0.761266f,      1.384022f,      -0.058327f,      -0.276920f,      -0.178152f},
{    -0.078744f,      0.117706f,      -0.481725f,      -0.137922f,      1.415003f,      1.167578f,      0.523138f,      0.151106f,      1.322263f,      2.292033f,      0.318914f,      0.445237f,      0.731756f,      -0.337256f,      -0.650989f,      0.290655f,      -0.428003f,      -3.863677f},
{    0.341886f,      -1.306134f,      1.532331f,      -0.316915f,      -0.964078f,      -0.464113f,      -0.023691f,      0.276548f,      0.007125f,      2.690624f,      -0.594641f,      0.291760f,      0.054499f,      -1.913350f,      1.683522f,      -0.415411f,      0.075150f,      -0.009210f},
{    1.072834f,      -0.610630f,      0.025674f,      -0.077759f,      1.720918f,      0.464511f,      0.850520f,      1.102623f,      1.391510f,      3.030477f,      1.004898f,      0.858036f,      1.600603f,      -1.155136f,      0.316519f,      0.162935f,      -0.015427f,      0.671629f},
{    1.135997f,      0.299603f,      -0.111526f,      0.253925f,      0.387721f,      -0.238756f,      0.990318f,      0.256970f,      0.062951f,      0.142755f,      -1.368872f,      -0.686154f,      -1.111685f,      0.648231f,      -0.558882f,      1.268436f,      -1.042898f,      -0.495196f}};

static const float32_t f_Rear_input_layer_bias_Normal[32]= 
{    -2.580025f,      0.620495f,      -0.950709f,      -1.523532f,      0.592355f,      -0.396188f,      -0.245572f,      -2.166580f,      0.008974f,      0.148230f,      -3.429801f,      -0.610929f,      0.927336f,      -0.721745f,      -0.034249f,      -0.484533f,      -2.709257f,      -1.579462f,      -0.333598f,      0.235404f,      -1.082923f,      0.369985f,      -1.711377f,      -0.761956f,      -0.838109f,      0.043763f,      -2.121180f,      0.339435f,      -0.217833f,      -1.261219f,      0.428599f,      0.135629f};

static const float32_t f_Rear_hidden_layer_weight_Normal[14][32]= {
{    -2.316708f,      1.476171f,      -0.465764f,      0.571472f,      -0.611820f,      0.533448f,      -1.259749f,      0.687291f,      -0.799357f,      -0.696463f,      1.218774f,      0.001214f,      -1.750198f,      1.124367f,      0.397432f,      -0.944442f,      -0.138947f,      0.007319f,      0.146311f,      -1.082391f,      -0.538193f,      0.692381f,      0.401975f,      -0.469424f,      0.053774f,      0.065582f,      -0.212664f,      -0.784420f,      1.389351f,      -1.348671f,      -1.798739f,      -0.306049f},
{    -1.769979f,      0.141354f,      -0.280220f,      -0.546409f,      0.147936f,      -0.084477f,      0.245456f,      0.885668f,      -0.393157f,      -0.378037f,      -1.651577f,      0.572907f,      -0.378327f,      1.169764f,      -0.065537f,      -2.181449f,      0.387092f,      -0.046828f,      0.259651f,      1.047997f,      0.593370f,      0.075581f,      0.188214f,      0.326232f,      -0.188365f,      0.234121f,      0.190683f,      -0.374162f,      0.002481f,      -1.087677f,      1.283848f,      1.202623f},
{    -0.634201f,      -0.064443f,      -0.633684f,      -0.409551f,      0.397097f,      0.177952f,      -0.013366f,      0.235660f,      0.910884f,      -0.298518f,      0.883945f,      1.079339f,      -0.448912f,      -0.645196f,      -1.028288f,      -0.153982f,      -0.744424f,      -1.936037f,      0.305529f,      0.290853f,      0.086959f,      -0.362280f,      -0.227198f,      0.250349f,      -0.224442f,      -0.396620f,      -0.550108f,      -0.896990f,      -1.645012f,      -1.084254f,      0.087518f,      0.167428f},
{    -0.688106f,      1.121562f,      -0.155894f,      0.779158f,      0.524629f,      0.807490f,      -0.979049f,      0.438714f,      1.315087f,      -0.332317f,      0.181525f,      0.195902f,      0.395615f,      -0.477388f,      -0.019015f,      -0.244371f,      -0.271693f,      -3.092997f,      -1.082042f,      0.252807f,      1.541623f,      -0.652347f,      0.094001f,      -0.089285f,      -0.121620f,      0.461153f,      -0.200324f,      -0.181317f,      1.376481f,      -0.478257f,      -0.579662f,      -0.403736f},
{    -0.645037f,      0.170638f,      0.467799f,      0.042319f,      0.629637f,      0.137505f,      0.356348f,      0.143957f,      -0.336432f,      -2.081147f,      1.004112f,      1.425594f,      -1.620055f,      1.726515f,      0.213352f,      -1.268079f,      0.262585f,      0.413416f,      -0.310629f,      -0.661301f,      -0.769919f,      -0.783747f,      -0.150004f,      0.102940f,      0.636997f,      0.380160f,      -0.966254f,      -1.430608f,      -1.377939f,      0.050863f,      0.319868f,      -0.892148f},
{    -2.858014f,      0.184903f,      -2.291923f,      0.152771f,      0.340364f,      0.162814f,      -0.748837f,      -1.231981f,      0.533346f,      -1.465852f,      -0.528921f,      0.017362f,      0.780491f,      -0.091086f,      0.213842f,      0.418640f,      -3.690150f,      -0.029448f,      0.275657f,      0.509889f,      0.355506f,      -1.451661f,      -2.028852f,      -0.088236f,      -1.247186f,      -1.679125f,      -0.434173f,      -1.566572f,      0.028180f,      -2.092565f,      0.170747f,      -0.121979f},
{    2.013581f,      0.155106f,      -0.152474f,      0.030125f,      -0.026421f,      0.416119f,      0.226550f,      -0.491527f,      -0.254914f,      0.530251f,      -0.280587f,      0.276297f,      -1.064347f,      0.570647f,      -0.056748f,      -0.525919f,      0.147557f,      0.100019f,      0.079018f,      0.248145f,      -0.061658f,      0.116058f,      0.359892f,      0.409373f,      -0.215804f,      -1.026825f,      -0.092112f,      0.616723f,      0.199384f,      0.483531f,      0.463902f,      -0.304555f},
{    1.012446f,      0.055878f,      0.497721f,      0.023161f,      -1.750169f,      0.018665f,      -3.725120f,      -0.135891f,      -0.023713f,      -0.196253f,      0.555630f,      -0.823452f,      -0.892697f,      -1.762226f,      -0.237760f,      0.808906f,      0.608167f,      -0.078018f,      -0.013819f,      -0.877319f,      -0.119624f,      -1.127037f,      -0.108793f,      0.123781f,      0.157890f,      0.375665f,      0.301623f,      -0.122747f,      -0.269395f,      0.296799f,      -0.656877f,      -0.071168f},
{    0.930741f,      0.233285f,      -2.527505f,      0.108773f,      0.572145f,      -0.225045f,      0.644332f,      -1.351022f,      0.459451f,      -1.134355f,      -4.872273f,      3.017474f,      0.622539f,      -0.034226f,      -1.148247f,      0.531668f,      -0.166798f,      -0.116236f,      0.288298f,      1.045894f,      -0.105617f,      -0.026994f,      -0.042932f,      -0.928747f,      -0.772879f,      -0.153077f,      -2.490247f,      -0.834493f,      0.269956f,      -0.894440f,      0.985276f,      0.628825f},
{    -2.422086f,      -1.993273f,      0.103889f,      0.050351f,      0.332772f,      0.339013f,      -0.197611f,      -0.340176f,      -0.190617f,      -0.324895f,      -1.760961f,      0.034408f,      -1.831067f,      0.246725f,      0.559984f,      0.470368f,      0.214034f,      -1.266881f,      -2.883201f,      -1.595206f,      0.714296f,      0.444300f,      0.279363f,      0.094557f,      0.166841f,      0.267574f,      -0.205142f,      -0.186061f,      0.335667f,      0.009085f,      -1.106015f,      -0.904567f},
{    -4.205810f,      0.113080f,      -1.158871f,      0.138169f,      -1.607643f,      -0.230178f,      0.363198f,      0.754176f,      -0.302552f,      -0.321535f,      1.007653f,      1.087250f,      -3.137775f,      -1.579110f,      0.902079f,      0.891005f,      -1.578052f,      0.449492f,      -0.503720f,      0.965751f,      -1.243915f,      0.575446f,      -0.801529f,      -0.575829f,      -0.552910f,      0.350040f,      -0.897063f,      -1.005091f,      0.237319f,      -4.223694f,      -0.320301f,      -0.841802f},
{    0.114630f,      -0.496571f,      0.368827f,      -2.735516f,      0.012878f,      -0.426115f,      1.224560f,      -0.053991f,      -0.043731f,      -0.942561f,      -1.897011f,      -1.518569f,      -0.328528f,      0.899093f,      0.317262f,      0.955035f,      0.002877f,      -0.510556f,      -0.950053f,      -2.597219f,      0.240042f,      -2.261337f,      0.560132f,      0.164721f,      0.161574f,      -0.879278f,      0.608586f,      -0.652714f,      -0.285999f,      0.137637f,      1.785343f,      -0.940126f},
{    -0.040390f,      -2.597726f,      -0.505326f,      0.408719f,      1.312679f,      -0.788616f,      -0.714449f,      -0.878334f,      -1.426698f,      0.227177f,      -2.153697f,      -1.086090f,      -0.684694f,      -2.256179f,      -0.108307f,      0.892156f,      -0.120728f,      1.247384f,      -0.175529f,      -1.062472f,      -1.013892f,      0.506243f,      -1.863555f,      -3.144958f,      0.099248f,      0.154198f,      -0.458405f,      -0.185952f,      -0.392684f,      -1.630198f,      -1.415241f,      0.080310f},
{    0.417244f,      0.190007f,      0.550926f,      -0.551086f,      -0.448017f,      -0.239925f,      -0.201794f,      -1.289463f,      -0.476104f,      0.261504f,      -1.086537f,      1.577516f,      0.679094f,      0.749168f,      -0.828683f,      0.832596f,      -0.959223f,      -0.069474f,      2.078188f,      0.418053f,      1.457627f,      0.565317f,      0.536516f,      1.226736f,      0.334606f,      -0.396033f,      -0.664684f,      0.093277f,      1.836720f,      1.614852f,      2.112180f,      -0.350468f}};

static const float32_t f_Rear_hidden_layer_bias_Normal[14]= 
{    -1.008295f,      -2.118820f,      1.394843f,      -0.138080f,      0.019929f,      0.009424f,      -1.028444f,      -1.057354f,      -0.979639f,      0.165188f,      0.533655f,      -0.438362f,      0.309080f,      -1.429059f};

static const float32_t f_Rear_reset_gate_weight_Normal[7][21]= {
{    -0.202660f,      -1.702926f,      -4.819529f,      -0.232340f,      -1.246548f,      -0.140610f,      -0.076571f,      -0.514775f,      -0.270987f,      0.267462f,      0.937509f,      -0.221046f,      2.652424f,      -3.266814f,      -0.712291f,      1.883506f,      -1.827935f,      -1.791262f,      -0.679547f,      2.804353f,      1.294649f},
{    0.978861f,      -2.219142f,      1.598957f,      -1.336147f,      0.393516f,      0.497076f,      -3.711339f,      -0.154589f,      1.510491f,      0.245242f,      -0.267573f,      0.124816f,      0.383015f,      0.203409f,      0.562956f,      -0.632074f,      -2.102143f,      0.230269f,      -0.287198f,      -1.084071f,      -1.203280f},
{    5.375444f,      -1.554715f,      0.674507f,      -1.816497f,      -0.350410f,      0.654575f,      0.170895f,      -1.428164f,      -2.265735f,      -2.346147f,      1.801300f,      -4.523768f,      -2.192023f,      -3.226382f,      -3.182296f,      -1.886891f,      0.975985f,      0.286340f,      2.064167f,      -1.864515f,      -0.902616f},
{    -0.108739f,      -0.892620f,      0.999774f,      -0.180898f,      0.812392f,      -0.583177f,      -1.843236f,      -0.915466f,      1.621259f,      -0.259581f,      0.193191f,      -1.705697f,      -0.456087f,      -2.214036f,      -0.726870f,      -1.095120f,      -1.449189f,      -0.267220f,      3.579899f,      -2.089969f,      0.770938f},
{    4.272330f,      1.870127f,      -0.196533f,      -2.184796f,      0.605453f,      -1.989044f,      -1.155206f,      1.821226f,      -3.531791f,      0.226222f,      4.859906f,      -1.128282f,      2.884635f,      2.030083f,      -0.436450f,      -0.183072f,      0.331065f,      -1.110340f,      -2.278110f,      -0.408095f,      -1.177623f},
{    4.780656f,      1.743714f,      -0.124799f,      2.965679f,      -0.226934f,      -0.158592f,      0.316083f,      1.989948f,      -3.703646f,      1.290342f,      -0.784297f,      -1.574381f,      -0.299682f,      -2.020965f,      -0.820190f,      -0.217362f,      -0.231377f,      -0.512004f,      -2.690072f,      -0.967340f,      0.722650f},
{    3.416881f,      0.065417f,      1.523957f,      0.922139f,      -0.168591f,      1.104937f,      2.886281f,      -0.769525f,      2.116451f,      2.730619f,      1.741093f,      1.171304f,      1.369414f,      -2.968388f,      0.735611f,      -1.737269f,      -5.014988f,      -1.543174f,      -0.239882f,      -2.204382f,      -0.651140f}};

static const float32_t f_Rear_reset_gate_bias_Normal[7]= 
{    0.941452f,      -0.395994f,      -1.022552f,      -1.032407f,      -0.614711f,      0.230792f,      -1.019459f};

static const float32_t f_Rear_update_gate_weight_Normal[7][21]= {
{    0.280888f,      -0.457053f,      -0.034774f,      -0.250600f,      -0.352469f,      -0.647615f,      -0.415191f,      0.292449f,      0.753402f,      0.287994f,      -0.069733f,      -0.836635f,      0.175063f,      0.012742f,      0.308248f,      -0.950285f,      0.458656f,      0.584272f,      0.064618f,      -1.027306f,      -0.120850f},
{    -0.011698f,      -0.023489f,      0.461514f,      0.154243f,      0.024955f,      -0.600178f,      -0.236445f,      0.196019f,      -0.215906f,      0.261646f,      0.097174f,      0.004367f,      0.137707f,      -0.053987f,      -0.524938f,      -2.200778f,      -0.498247f,      -0.182107f,      -0.539922f,      -2.051611f,      0.281826f},
{    0.070732f,      0.055307f,      -1.232128f,      -0.012383f,      -0.108314f,      -0.066374f,      -0.248222f,      0.311224f,      -0.409964f,      0.285444f,      -0.280134f,      0.230697f,      0.115012f,      -0.019183f,      0.589164f,      -1.835659f,      0.530744f,      0.018155f,      -0.026979f,      -0.406930f,      -0.058245f},
{    -0.052387f,      -0.216352f,      -0.313100f,      0.179195f,      0.184143f,      -1.978111f,      -0.265889f,      0.020334f,      -0.826027f,      0.322824f,      -1.101564f,      0.068506f,      0.163761f,      -0.546242f,      0.558366f,      -0.718219f,      1.756467f,      -0.089353f,      0.079845f,      -0.610847f,      -0.500959f},
{    -0.105073f,      -0.536979f,      -0.102832f,      0.182296f,      -0.070169f,      -1.313820f,      -1.438381f,      0.111797f,      0.430683f,      0.138612f,      0.796183f,      -0.388409f,      -0.221259f,      -1.034803f,      -0.066061f,      -0.377253f,      -0.788348f,      0.249071f,      0.428239f,      -2.836358f,      0.113050f},
{    0.258234f,      -0.308737f,      -0.613752f,      -0.278277f,      -0.101069f,      0.056826f,      -0.306766f,      0.102322f,      -0.109130f,      0.438878f,      0.158241f,      -0.247976f,      0.060328f,      0.023624f,      0.293665f,      -0.591546f,      0.093061f,      0.194675f,      0.239449f,      -1.030776f,      -0.186984f},
{    1.060206f,      -0.165859f,      0.970287f,      -1.189398f,      0.469443f,      -0.242412f,      -0.640330f,      0.955530f,      -0.264198f,      0.697895f,      -0.346480f,      -0.028625f,      -0.233302f,      0.145166f,      0.474345f,      -1.217029f,      1.518707f,      0.336648f,      -0.486842f,      -1.914935f,      0.071537f}};

static const float32_t f_Rear_update_gate_bias_Normal[7]= 
{    -0.700687f,      0.942504f,      -0.511040f,      -0.374054f,      -0.475472f,      -1.255060f,      -1.503426f};

static const float32_t f_Rear_new_gate_weight_Normal[7][21]= {
{    -0.792538f,      -0.655090f,      3.370976f,      1.060058f,      0.434184f,      -0.387630f,      0.121293f,      0.508320f,      1.119521f,      -1.063725f,      0.888508f,      0.225512f,      -0.837655f,      0.485508f,      0.290446f,      -0.285809f,      0.592319f,      1.252145f,      -1.002430f,      -0.374328f,      0.239710f},
{    0.563496f,      1.311863f,      -0.319299f,      0.045672f,      0.519874f,      0.040432f,      0.096595f,      0.049064f,      0.200443f,      1.356088f,      -0.599458f,      -0.339114f,      0.720944f,      1.267798f,      -1.104478f,      0.010249f,      -1.627825f,      -0.455218f,      -0.478806f,      -0.030225f,      0.262487f},
{    -0.637621f,      -0.378115f,      -0.260310f,      -0.015158f,      -0.125138f,      3.263944f,      0.283680f,      -0.015778f,      2.172433f,      -0.328466f,      1.021008f,      -0.057762f,      -0.364596f,      -0.658028f,      -0.484176f,      0.355770f,      -0.181610f,      0.677136f,      0.201810f,      0.509828f,      0.616115f},
{    0.008325f,      -0.656325f,      0.323024f,      -0.089551f,      2.502832f,      2.088330f,      -0.352617f,      1.112637f,      -0.599030f,      -0.439924f,      -2.096123f,      -0.325095f,      1.315456f,      2.538371f,      -1.318134f,      -0.239332f,      2.682072f,      1.602591f,      0.560680f,      1.868929f,      -0.181949f},
{    -0.902071f,      1.954708f,      1.005031f,      0.369559f,      2.437573f,      1.666988f,      -0.640608f,      -0.552581f,      1.674176f,      -0.085470f,      -3.056385f,      -2.431064f,      -0.849245f,      0.255052f,      0.032466f,      -0.820347f,      0.264892f,      1.193704f,      2.133842f,      0.575732f,      -0.528479f},
{    0.521590f,      0.069945f,      0.715731f,      -0.097463f,      -0.007931f,      -0.092314f,      -0.250606f,      -0.118042f,      -1.082543f,      1.039635f,      0.533145f,      -0.022195f,      0.168701f,      -0.604271f,      -0.283925f,      2.528152f,      1.081220f,      -1.050431f,      -0.420337f,      -2.637736f,      0.199831f},
{    3.820756f,      3.154664f,      -0.754766f,      0.220119f,      0.660457f,      0.194831f,      4.421669f,      1.389723f,      2.111744f,      0.836143f,      -2.262014f,      -0.555933f,      -0.001104f,      0.011562f,      -0.766589f,      0.012676f,      -0.873931f,      1.733592f,      -0.216111f,      -1.931322f,      2.719852f}};

static const float32_t f_Rear_new_gate_bias_Normal[7]= 
{    -0.885540f,      1.585257f,      -0.044926f,      -0.399659f,      -0.174412f,      0.734696f,      -0.575971f};

static const float32_t f_Rear_output_layer_weight_Normal[7][7]= {
{    -1.504570f,      -1.497303f,      -3.052395f,      -1.356260f,      0.132104f,      -1.436390f,      1.022875f},
{    -0.580821f,      -1.644991f,      0.224026f,      0.200840f,      -0.339153f,      -1.607709f,      0.270891f},
{    1.406526f,      -0.167100f,      0.649848f,      -0.029108f,      0.318304f,      -1.682600f,      -0.422732f},
{    0.227709f,      0.010354f,      -0.851247f,      0.976278f,      1.313426f,      -2.165873f,      0.710937f},
{    0.165626f,      1.142591f,      2.590769f,      0.743596f,      -0.258390f,      2.154576f,      -0.560227f},
{    0.886586f,      0.171408f,      1.782793f,      0.315411f,      -0.048751f,      0.495668f,      -0.717334f},
{    -1.142588f,      -0.283190f,      -2.399125f,      1.452706f,      0.422854f,      0.950030f,      0.627569f}};

static const float32_t f_Rear_output_layer_bias_Normal[7]= 
{    0.567630f,      2.167094f,      0.621866f,      1.451819f,      0.834888f,      1.036109f,      -0.819605f};

static const float32_t f_Rear_final_layer_weight_Normal[5][7]= {
{    -2.084330f,      -1.407672f,      0.230892f,      1.117589f,      -0.102734f,      0.389930f,      -0.400932f},
{    1.855254f,      1.026759f,      1.311465f,      0.425144f,      -2.026737f,      -0.991787f,      -2.091045f},
{    -1.647828f,      -3.844830f,      -1.138241f,      -1.108385f,      1.324117f,      0.614314f,      -2.735806f},
{    -0.855356f,      -2.953770f,      0.995392f,      -2.232002f,      1.107619f,      -1.780270f,      0.849351f},
{    0.178799f,      -5.089211f,      1.076604f,      -1.690410f,      -4.536903f,      1.552319f,      2.253436f}};

static const float32_t f_Rear_final_layer_bias_Normal[5]= 
{    -0.279368f,      -1.250243f,      0.877281f,      -0.118953f,      0.181422f};

#endif
